{"model_type":"mlp","input_size":63,"labels":["A","B","BKSP","C","D","E","F","G","H","I","J","K","L","N","O","P","Q","R","S","SPACE","T","U","V","W","X","Y","Z"],"layers":[{"name":"dense_Dense1","input_size":63,"output_size":128,"activation":"relu","weights":[[0.07791881263256073,0.12989723682403564,0.03255920484662056,-0.04837363213300705,-0.015523816458880901,-0.15431365370750427,-0.015760285779833794,-0.11948593705892563,0.01949075050652027,0.19882069528102875,0.08012817800045013,-0.0043695103377103806,-0.053972188383340836,0.1394161880016327,-0.1774817556142807,-0.0670151337981224,0.10072854906320572,-0.1834643930196762,0.07506848871707916,-0.17924997210502625,-0.08687672764062881,-0.14275354146957397,0.012910624034702778,-0.09494059532880783,-0.07061273604631424,-0.14859601855278015,0.09008985757827759,-0.08160946518182755,0.03421429544687271,0.08531738817691803,-0.015982115641236305,-0.048201534897089005,0.01667584478855133,-0.04294205456972122,0.15728367865085602,0.12287510186433792,0.042992595583200455,0.10156463086605072,-0.04837758466601372,-0.02958088554441929,0.053067147731781006,-0.09103038161993027,0.04837349057197571,-0.053919434547424316,-0.036748405545949936,0.09538991749286652,-0.13127265870571136,0.08825989812612534,0.030136995017528534,-0.011140535585582256,0.03272918611764908,-0.0619637630879879,0.1244625449180603,0.013536093756556511,0.11735060811042786,0.04285293072462082,-0.1631549745798111,0.05330943688750267,-0.09358608722686768,0.044841453433036804,0.025551291182637215,0.026309054344892502,0.010425249114632607,-0.04935343563556671,0.20075757801532745,-0.10446926206350327,-0.13600555062294006,0.11663039773702621,0.12163886427879333,0.07481076568365097,-0.09254533052444458,-0.09212612360715866,-0.057940348982810974,-0.030641138553619385,0.1702124923467636,-0.024445943534374237,0.008777882903814316,0.12491858750581741,0.09719593077898026,-0.04638971760869026,0.11506424844264984,0.02409926801919937,-0.07349992543458939,0.089291051030159,0.060079850256443024,0.04990445449948311,0.05545041710138321,-0.03792617842555046,-0.05158868059515953,0.04366876929998398,-0.023416941985487938,-0.014375919476151466,-0.0446598045527935,-0.03024652972817421,-0.033622488379478455,0.11954942345619202,-0.13428673148155212,0.05868864431977272,0.09816882014274597,0.06435743719339371,0.08000753074884415,0.06855447590351105,0.10036397725343704,-0.046838998794555664,-0.06304799765348434,-0.09267586469650269,-0.024882016703486443,-0.03275095671415329,-0.06620705127716064,0.0678497776389122,-0.11623141914606094,0.027649877592921257,0.15777933597564697,0.17937122285366058,-0.04868612438440323,0.10062101483345032,0.03093530796468258,-0.07871004194021225,0.021754099056124687,0.03915488347411156,0.14707355201244354,-0.08521856367588043,-0.10670933127403259,-0.08349204808473587,-0.05431578680872917,0.1229717805981636,-0.020672183483839035,0.035112060606479645],[-0.06762577593326569,-0.031120281666517258,0.022589951753616333,-0.11748310923576355,0.012594388797879219,-0.11688312143087387,0.07738237828016281,-0.05478767678141594,-0.02568543329834938,0.11553728580474854,0.04897156357765198,0.00446709431707859,-0.11178138107061386,-0.08421939611434937,-0.008287506178021431,-0.010659991763532162,0.025446178391575813,-0.09456519782543182,0.07678787410259247,-0.12982362508773804,0.006572169717401266,0.1230468675494194,0.09078363329172134,-0.02229061909019947,0.10152851790189743,-0.04182592034339905,-0.165307879447937,-0.1961350291967392,0.026814090088009834,0.014925895258784294,0.16087663173675537,0.033251792192459106,-0.1527092009782791,0.07437498867511749,-0.09177342802286148,-0.08605542778968811,0.03724081069231033,0.09665592014789581,-0.050140056759119034,0.058275140821933746,-0.005753573030233383,0.0652061253786087,0.1283455789089203,0.04147351160645485,0.05389445647597313,0.05545451492071152,0.07064777612686157,-0.18374672532081604,-0.05519186332821846,0.13884484767913818,0.06461749970912933,0.009986559860408306,0.04595131054520607,-0.06441441923379898,0.05269552394747734,-0.03948884457349777,-0.07347898930311203,-0.09089922159910202,0.0631963461637497,-0.03242870047688484,-0.010477046482264996,-0.018475668504834175,-0.05264206975698471,-0.03349563479423523,0.06535616517066956,0.001997916027903557,0.06293977051973343,-0.024195609614253044,0.09778910875320435,0.076496422290802,-0.060944847762584686,0.06653586775064468,0.01819031685590744,0.13424448668956757,0.14634518325328827,0.019594095647335052,0.0712571069598198,-0.04937082901597023,0.154926136136055,0.04633038491010666,-0.03603700175881386,-0.016106920316815376,-0.14614804089069366,-0.05516735464334488,0.07150626182556152,0.01658611185848713,-0.016330208629369736,0.002673564711585641,0.14172367751598358,-0.026121390983462334,0.1461251825094223,-0.09305931627750397,0.018871057778596878,-0.00805756263434887,-0.12819120287895203,0.16903440654277802,0.12526214122772217,0.11470229923725128,0.06565320491790771,-0.024663690477609634,-0.09797251969575882,-0.137010395526886,-0.09352536499500275,0.03641895949840546,-0.02399071305990219,-0.1036931499838829,0.07974090427160263,0.12002389132976532,-0.016272353008389473,0.05666588991880417,-0.12634381651878357,0.057278938591480255,0.06931964308023453,0.06907006353139877,0.1900838315486908,-0.12388627231121063,-0.07429671287536621,-0.02578689344227314,-0.02841724455356598,0.07162679731845856,-0.12409580498933792,-0.05514420196413994,-0.13768939673900604,0.1404256969690323,0.036014433950185776,-0.020438503473997116,-0.061105743050575256,0.025197293609380722],[0.07768888026475906,-0.11390414834022522,0.00006802692223573104,-0.02825329080224037,0.06257817894220352,0.1664251834154129,0.06475268304347992,0.043395716696977615,-0.09700529277324677,0.07025516778230667,0.12223803997039795,-0.10234878212213516,-0.20254766941070557,0.02298939786851406,-0.12426107376813889,-0.09368184208869934,-0.10235976427793503,0.024221787229180336,-0.013399627059698105,0.12503013014793396,0.029040608555078506,-0.10709702223539352,-0.045890264213085175,-0.08445649594068527,-0.05960557237267494,-0.06608860939741135,-0.035707827657461166,-0.09931519627571106,-0.10735904425382614,-0.11391321569681168,0.1791362166404724,0.056631993502378464,0.08815808594226837,-0.0644395500421524,0.1668241024017334,-0.14829234778881073,-0.07128435373306274,0.04457907751202583,0.06336700171232224,0.18703028559684753,0.05383224040269852,-0.05654260516166687,-0.09422251582145691,0.1412760466337204,0.14090673625469208,0.1681831330060959,0.08833108097314835,0.10439521819353104,0.19370105862617493,-0.04006918519735336,0.1401301771402359,-0.02365291677415371,-0.03697534278035164,0.1405927836894989,0.06308841705322266,-0.07604719698429108,0.11317826062440872,0.1207210049033165,0.0748542919754982,-0.10439273715019226,0.20418356359004974,0.058543406426906586,0.045154914259910583,-0.06148400157690048,-0.09366631507873535,0.02440894953906536,0.010384873487055302,-0.19488322734832764,-0.00034812779631465673,0.008271252736449242,0.0955527052283287,-0.18838538229465485,0.1543974131345749,-0.05564363673329353,-0.06477949768304825,-0.007486460730433464,-0.06038042902946472,0.07890911400318146,-0.10554654151201248,0.15420205891132355,-0.0264111440628767,-0.06734253466129303,-0.1594061553478241,-0.18202468752861023,0.03343895822763443,-0.1532302051782608,-0.009665179997682571,0.013590439222753048,-0.11470262706279755,-0.19420230388641357,0.19349047541618347,0.10042677074670792,-0.05579201504588127,0.1251811534166336,0.003962967079132795,0.13965949416160583,0.04929495230317116,-0.07544045150279999,-0.00511550810188055,0.14539089798927307,0.1070857122540474,-0.1703704297542572,0.09924961626529694,-0.12701016664505005,-0.13670292496681213,-0.16810742020606995,0.1411559134721756,0.15169961750507355,-0.08805090934038162,0.04575282707810402,-0.031305942684412,0.032389212399721146,-0.07956340909004211,-0.059607479721307755,-0.08694399148225784,-0.011115258559584618,-0.0517883226275444,0.19364137947559357,0.047596558928489685,0.010335495695471764,-0.08463277667760849,-0.10326393693685532,-0.17210611701011658,-0.10618650913238525,-0.17367669939994812,-0.07178577780723572,-0.17107228934764862,0.04120955988764763],[-0.20035286247730255,0.06330090016126633,0.014562838710844517,-0.022333692759275436,0.15901876986026764,-0.23544210195541382,0.13041119277477264,0.11064713448286057,0.05069440230727196,-0.044305793941020966,-0.11571993678808212,-0.050122786313295364,-0.22410108149051666,0.07811261713504791,-0.06314697116613388,0.10649027675390244,0.06703033298254013,-0.01421046070754528,-0.01599046215415001,0.19400262832641602,-0.3223726749420166,0.029461951926350594,-0.2202952802181244,0.2542581558227539,0.03263162821531296,0.0007762989844195545,-0.18594710528850555,0.034674953669309616,-0.009738573804497719,-0.013248343952000141,-0.32747766375541687,-0.1550719141960144,-0.14994297921657562,-0.028397632762789726,-0.24946489930152893,0.059287216514348984,-0.13221138715744019,-0.03249132260680199,-0.20674677193164825,-0.18131697177886963,-0.021324722096323967,-0.2074192762374878,-0.019148489460349083,0.09098547697067261,-0.031810905784368515,-0.19191546738147736,0.16702577471733093,0.11412139236927032,-0.16326582431793213,-0.032145947217941284,0.1009146124124527,-0.2879439890384674,0.3235996961593628,-0.16956138610839844,-0.09081584960222244,0.03293760120868683,0.048994723707437515,0.14778421819210052,0.5985288619995117,-0.2347685843706131,0.32334157824516296,0.08087041229009628,-0.15267276763916016,0.04595622047781944,-0.05440541356801987,0.010454144328832626,-0.08949670195579529,0.09114573150873184,-0.10427398979663849,-0.012406270951032639,-0.2072933465242386,-0.14332978427410126,-0.3260781168937683,-0.11933662742376328,-0.09054568409919739,-0.22912882268428802,0.08033008873462677,0.12278001010417938,-0.18901200592517853,-0.042308226227760315,0.10778016597032547,-0.14653776586055756,-0.008526807650923729,-0.0962548553943634,-0.07861916720867157,-0.0776669979095459,-0.22572247684001923,0.1953655630350113,0.23011253774166107,-0.2590115964412689,-0.16544713079929352,0.05369195342063904,0.04699789732694626,0.23037214577198029,0.04748963564634323,0.15433672070503235,-0.24630561470985413,0.3736276924610138,0.24245235323905945,0.19549234211444855,-0.02761848084628582,0.17480765283107758,0.17009758949279785,-0.11782220005989075,-0.001246055937372148,-0.009315486997365952,-0.07905573397874832,0.03323407843708992,0.13763706386089325,0.06557901948690414,0.10807063430547714,0.24704939126968384,0.08795583248138428,-0.32317855954170227,-0.23902519047260284,-0.277516633272171,0.055972613394260406,0.0018288502469658852,-0.26007080078125,-0.2814846932888031,0.5585572719573975,0.22129137814044952,-0.12670688331127167,-0.31117090582847595,-0.06689407676458359,-0.047074995934963226,-0.007954351603984833,-0.10911355912685394],[-0.054401591420173645,-0.08771029859781265,0.004216313362121582,0.3059890568256378,0.45096760988235474,0.08141148835420609,0.07025543600320816,-0.06751764565706253,-0.2186015546321869,-0.09954573959112167,-0.092951200902462,-0.3078593313694,-0.0004262973088771105,-0.026823921129107475,-0.021665630862116814,0.1812027096748352,0.2261253446340561,-0.12210214883089066,0.04307923465967178,0.06493078917264938,0.24806451797485352,-0.09125933051109314,0.3904407322406769,0.1514652967453003,0.05738205090165138,0.020146356895565987,0.042204249650239944,-0.218224436044693,0.10622958093881607,0.24357007443904877,-0.14888034760951996,0.2484290599822998,0.3529345989227295,-0.5259324312210083,-0.03043297491967678,0.06263671070337296,-0.017680950462818146,-0.045199669897556305,0.2867833971977234,0.04726546257734299,-0.19967782497406006,-0.052128128707408905,0.2516932487487793,0.03799692913889885,0.045331455767154694,0.16567622125148773,0.2113395780324936,0.13089542090892792,0.18680287897586823,-0.0906582623720169,0.04669124260544777,0.3344610035419464,0.1023017093539238,-0.15755188465118408,-0.12116751074790955,-0.510881245136261,-0.1629180610179901,-0.2089579850435257,0.15965880453586578,0.016999924555420876,-0.20993629097938538,-0.26320481300354004,-0.012927130796015263,-0.28096985816955566,0.0945068970322609,0.18940803408622742,-0.1863122433423996,-0.01435447670519352,-0.08651099354028702,0.17465665936470032,0.27319300174713135,0.5659451484680176,0.05704398825764656,-0.11671038717031479,-0.005257916171103716,-0.0026874514296650887,0.28979820013046265,-0.04045905917882919,-0.1597311943769455,-0.10228706896305084,0.2510368824005127,0.17876045405864716,0.06956446170806885,0.22157184779644012,-0.22605609893798828,0.2733289897441864,0.15349054336547852,0.04169204458594322,-0.23888659477233887,-0.26652106642723083,0.2853184938430786,0.1411651372909546,-0.09282609820365906,-0.06544973701238632,0.1499757319688797,0.326757550239563,-0.19290749728679657,-0.027041763067245483,0.09537088871002197,-0.0894523337483406,0.13144010305404663,-0.141936257481575,-0.18144991993904114,0.1010529026389122,0.07942318916320801,0.012123997323215008,-0.0966273844242096,-0.22569043934345245,0.11231091618537903,-0.11206244677305222,-0.2523582875728607,0.04934269189834595,-0.028855983167886734,-0.03746629133820534,0.28349101543426514,0.24241605401039124,0.1707640439271927,0.010877505876123905,-0.04655297473073006,-0.07387764006853104,0.2536684572696686,0.19368289411067963,0.09691734611988068,-0.005629798397421837,0.11012295633554459,-0.13778948783874512,0.07580341398715973,0.3979879319667816],[-0.07140802592039108,-0.0805332213640213,0.5038046836853027,0.14982686936855316,-0.4559962749481201,0.32332661747932434,-0.28381240367889404,0.1140131801366806,-0.11595752090215683,-0.10881663858890533,0.42205169796943665,-0.123880535364151,0.13441568613052368,0.21047097444534302,0.04286057874560356,0.10551955550909042,0.015852559357881546,-0.194663405418396,-0.09363673627376556,-0.05261165276169777,0.28189462423324585,0.590124249458313,-0.3025190532207489,-0.3038489818572998,0.022677630186080933,0.29118967056274414,0.2930610775947571,-0.06890249252319336,-0.3486666679382324,-0.3323068916797638,0.26151376962661743,-0.36419081687927246,-0.004703686106950045,0.5551276206970215,-0.1353777050971985,-0.11497694253921509,0.20674169063568115,0.3642385005950928,-0.012904015369713306,-0.04887186363339424,0.2720136344432831,-0.33352458477020264,-0.045160774141550064,-0.09229893982410431,0.31505659222602844,-0.168235182762146,-0.24380937218666077,-0.03899109363555908,-0.08349587768316269,-0.008373728021979332,0.06560797989368439,-0.06176050007343292,0.09812642633914948,0.051380984485149384,0.09597485512495041,-0.43830224871635437,0.1892240345478058,-0.0041656396351754665,-0.07978591322898865,-0.20090696215629578,0.4138796925544739,0.19599886238574982,-0.24744616448879242,0.10145387798547745,0.33769601583480835,-0.3108784556388855,-0.20236852765083313,0.2707632780075073,-0.026920262724161148,-0.0364527590572834,0.5155977606773376,-0.16765159368515015,-0.24087956547737122,-0.11047638207674026,0.468414843082428,0.1397983878850937,-0.5966552495956421,0.3238002061843872,0.34212225675582886,-0.128681942820549,-0.10014357417821884,0.18960899114608765,-0.011473429389297962,-0.026776259765028954,0.17921942472457886,-0.5506200194358826,-0.060390032827854156,0.33159005641937256,0.12452039122581482,0.29059168696403503,0.136983722448349,-0.15676964819431305,-0.1355653703212738,0.15772180259227753,-0.4096677899360657,-0.4454844892024994,0.33957645297050476,0.5823701024055481,0.06587821245193481,0.10809305310249329,0.5067005753517151,-0.06851323693990707,0.16496364772319794,-0.08020277321338654,-0.4451034963130951,0.1543544977903366,0.30924180150032043,0.30107495188713074,-0.2911480963230133,-0.004662914201617241,0.27505621314048767,-0.08148117363452911,-0.23632016777992249,-0.043980810791254044,-0.1357818990945816,-0.5824843049049377,0.0025708507746458054,0.39698049426078796,-0.2357514500617981,-0.29727956652641296,-0.009071476757526398,-0.2689971923828125,-0.2787139415740967,0.0621463768184185,-0.06606268137693405,0.10422521084547043,-0.10032708942890167,-0.1812746226787567],[-0.3017684519290924,-0.1263345628976822,0.162012979388237,-0.2473546266555786,0.19009435176849365,-0.36417871713638306,-0.27950912714004517,0.11973739415407181,0.14327894151210785,0.10158011317253113,0.12150290608406067,0.12989209592342377,-0.41006094217300415,-0.0804106742143631,0.12808986008167267,-0.3063116669654846,0.2803023159503937,0.11740376055240631,-0.20358145236968994,0.15724673867225647,-0.48872318863868713,0.009001476690173149,-0.061252303421497345,0.04953024908900261,0.07407864928245544,0.24214625358581543,0.04255468398332596,0.3547571003437042,-0.07542044669389725,0.17694741487503052,-0.16429565846920013,-0.40741080045700073,-0.2984713613986969,0.0975140929222107,-0.21470202505588531,-0.17756056785583496,-0.33786672353744507,-0.0678744688630104,-0.22186683118343353,-0.1437956541776657,0.034985657781362534,-0.2114103138446808,-0.09851919114589691,0.40170779824256897,0.10796087235212326,0.037850141525268555,0.16316290199756622,-0.04553544521331787,-0.1576317548751831,-0.196088507771492,-0.2905507981777191,-0.08450768887996674,0.275654137134552,-0.28730854392051697,-0.002945153508335352,0.1229490116238594,-0.25157302618026733,-0.11343815177679062,0.8038389682769775,-0.4016541838645935,0.2543923556804657,0.2383911907672882,-0.08554477989673615,0.1628556102514267,0.16120339930057526,0.09286709874868393,-0.259807288646698,0.38056594133377075,0.06413102895021439,-0.16154350340366364,0.022684089839458466,-0.03180595114827156,-0.4251185357570648,-0.19353951513767242,0.13854822516441345,-0.03699392080307007,-0.3111812174320221,0.18367134034633636,-0.12015750259160995,0.05985662341117859,-0.0744033232331276,-0.23115494847297668,-0.19211289286613464,0.035990677773952484,0.08578377962112427,-0.34771695733070374,-0.1724168360233307,0.1796422153711319,-0.16179654002189636,-0.35193753242492676,-0.019879838451743126,-0.3315848708152771,0.35478076338768005,0.42437148094177246,-0.2912897765636444,-0.08352827280759811,0.18536297976970673,0.5873273015022278,0.19572092592716217,-0.2291487157344818,-0.3730059862136841,0.2963138222694397,-0.031054895371198654,-0.0034710003528743982,0.06419826298952103,-0.03231613337993622,-0.13383172452449799,0.164887934923172,-0.07265748083591461,0.10656613111495972,-0.1562086045742035,0.19048765301704407,0.24260416626930237,-0.14577165246009827,-0.47162365913391113,-0.23879346251487732,-0.05864948034286499,-0.09863130748271942,0.0911133661866188,-0.20279404520988464,0.7966639995574951,-0.09609992057085037,-0.3311587870121002,-0.1149311363697052,-0.022778978571295738,-0.06957581639289856,0.19936968386173248,0.2072923481464386],[-0.022454842925071716,-0.20346425473690033,0.12747375667095184,0.2510949671268463,0.24635791778564453,0.17459005117416382,0.18080540001392365,-0.148173525929451,-0.294863224029541,-0.0169235747307539,-0.2716917097568512,-0.24313925206661224,0.20041725039482117,-0.13612060248851776,-0.12345834076404572,0.2678529918193817,0.1703563630580902,-0.22316190600395203,0.07625649869441986,0.12206656485795975,0.47060954570770264,0.08646205812692642,0.19566787779331207,0.09169740974903107,0.13904596865177155,0.015378771349787712,-0.06821724772453308,-0.32864701747894287,-0.07582706212997437,-0.03944249451160431,-0.3174097537994385,-0.03514688462018967,0.20625019073486328,-0.14345782995224,-0.13190951943397522,0.13025735318660736,0.026291145011782646,-0.007862417958676815,0.21989768743515015,0.004776500631123781,0.11925037205219269,-0.052365828305482864,0.19550451636314392,-0.11268223822116852,0.028006624430418015,0.21193784475326538,0.046727243810892105,0.19828221201896667,0.21445763111114502,-0.13492056727409363,0.14331015944480896,0.35777580738067627,0.3147449195384979,-0.23562970757484436,-0.15199215710163116,-0.2837730348110199,-0.08602488040924072,0.018376676365733147,0.07073625177145004,0.0660683810710907,-0.005773014388978481,-0.09220994263887405,-0.17476090788841248,-0.4253029227256775,0.2724337875843048,-0.1837638020515442,-0.1483239233493805,-0.2669307589530945,0.04829981550574303,0.013701239600777626,0.11310403794050217,0.3763412535190582,0.09278604388237,0.04346679523587227,0.0566740483045578,-0.07652352005243301,0.19684869050979614,-0.09341046214103699,-0.3533589541912079,-0.13636904954910278,0.12534809112548828,0.05814419314265251,0.33478355407714844,0.03942616656422615,-0.20210476219654083,0.24482156336307526,0.39756062626838684,0.035145871341228485,-0.1957758069038391,-0.08369692414999008,0.12630192935466766,0.29018253087997437,-0.0004486189573071897,-0.01933303289115429,0.3489743769168854,0.4051651656627655,-0.34132900834083557,-0.028394365683197975,0.2205885946750641,0.011601412668824196,0.10453687608242035,-0.16516514122486115,-0.07336971908807755,-0.16354668140411377,0.12940604984760284,0.08852602541446686,-0.3057832717895508,-0.07708995044231415,0.18507465720176697,-0.05550510436296463,0.007377219386398792,0.261058509349823,0.18595348298549652,0.042858678847551346,0.07896976172924042,0.15222987532615662,0.1038246750831604,0.07857799530029297,-0.158934086561203,-0.16094592213630676,0.07822168618440628,0.29225674271583557,0.16337986290454865,-0.22889557480812073,0.2781301438808441,-0.0952984020113945,0.0464906208217144,0.06881743669509888],[-0.23550736904144287,-0.1530168205499649,0.503838300704956,0.24468974769115448,-0.4923252761363983,0.19203561544418335,-0.14618375897407532,-0.2228177934885025,-0.0968245416879654,-0.18605414032936096,0.3203910291194916,-0.030677033588290215,0.262749582529068,-0.1940189003944397,0.10269822925329208,-0.043928004801273346,-0.025143109261989594,-0.23103047907352448,-0.19140049815177917,0.14025560021400452,0.36102530360221863,0.218357115983963,-0.28029948472976685,-0.1797817349433899,0.008343588560819626,0.1105414628982544,0.1820271611213684,-0.22004301846027374,-0.1098354384303093,-0.16978466510772705,-0.08221092820167542,-0.24641695618629456,-0.19512860476970673,0.3791773319244385,-0.15221592783927917,0.06166154146194458,0.20345398783683777,0.28384318947792053,0.13131512701511383,-0.029389943927526474,0.302766889333725,-0.28634926676750183,-0.16733592748641968,-0.16591531038284302,0.22474464774131775,-0.2639918029308319,-0.16887223720550537,0.04625996947288513,0.07994965463876724,-0.06722418963909149,0.017758743837475777,-0.005079989787191153,-0.0930604338645935,0.2564620077610016,0.058981429785490036,-0.2506905496120453,0.018731553107500076,-0.25253450870513916,-0.0817725658416748,-0.08233752846717834,0.33628949522972107,0.07443087548017502,-0.2407502382993698,0.04385274648666382,0.04936801642179489,-0.5165266990661621,-0.18712598085403442,0.13315391540527344,0.0920344889163971,-0.11794628947973251,0.31351664662361145,-0.4641927182674408,-0.20234763622283936,-0.14679944515228271,0.2164037525653839,0.2055724710226059,-0.3993271589279175,0.18164360523223877,0.07037761062383652,0.10277972370386124,0.001208386616781354,0.18387646973133087,-0.06769914925098419,-0.15742816030979156,0.22087042033672333,-0.21911172568798065,-0.093742236495018,0.24425609409809113,0.11254503577947617,0.3774644136428833,-0.0503402017056942,0.09926525503396988,-0.11374200880527496,0.14980332553386688,-0.22174659371376038,-0.2866613268852234,0.17341814935207367,0.537573516368866,0.0437021479010582,0.16400322318077087,0.5396394729614258,-0.09685824066400528,0.2492992877960205,0.014457243494689465,-0.18535521626472473,0.1930672973394394,0.26568692922592163,0.2532021403312683,-0.2915993928909302,-0.13395214080810547,0.3485109806060791,-0.15205048024654388,-0.17670220136642456,0.029873423278331757,0.0074258605018258095,-0.433797687292099,-0.21926593780517578,0.22145994007587433,-0.18458817899227142,-0.054374631494283676,-0.11378409713506699,-0.24202823638916016,-0.0840974748134613,0.03930132836103439,-0.12730753421783447,0.10137348622083664,0.056001320481300354,0.06538916379213333],[-0.27503642439842224,-0.354909747838974,0.0766066163778305,-0.37111133337020874,0.4665079116821289,-0.12619593739509583,-0.30220356583595276,0.22802788019180298,0.1398889124393463,0.09752069413661957,0.2271665781736374,0.15768326818943024,-0.28922852873802185,-0.271710604429245,0.2697068452835083,-0.32229191064834595,-0.08170115202665329,0.29814496636390686,-0.1158510074019432,0.24641594290733337,-0.25080156326293945,0.10664740204811096,0.12913121283054352,0.1357378363609314,0.040673576295375824,0.4324555993080139,0.31793874502182007,0.2702183127403259,-0.13085146248340607,0.18941041827201843,-0.19192272424697876,-0.4440453052520752,-0.43136197328567505,-0.003094554180279374,-0.31180381774902344,-0.15395741164684296,-0.5611990094184875,0.13889332115650177,-0.1782054901123047,-0.24579526484012604,-0.10183606296777725,0.08612610399723053,0.34981581568717957,0.12899136543273926,-0.09984414279460907,-0.16437534987926483,0.25959810614585876,-0.11609059572219849,-0.1190124973654747,0.05748367682099342,-0.07688938826322556,0.07460054010152817,0.3236609995365143,-0.23010942339897156,-0.45047852396965027,0.13092224299907684,-0.16057708859443665,-0.14907555282115936,0.8120617866516113,-0.5928297638893127,0.43386968970298767,0.15662376582622528,0.21972008049488068,0.37592411041259766,-0.055566802620887756,-0.3528122901916504,-0.013626262545585632,0.531478226184845,-0.19507595896720886,0.07491526007652283,0.08084075152873993,-0.22905458509922028,-0.157888263463974,-0.06931927800178528,0.12146490067243576,0.08602378517389297,-0.34480565786361694,0.321189284324646,-0.11131112277507782,-0.11611023545265198,-0.20499256253242493,0.15036684274673462,-0.11324464529752731,0.09951072186231613,0.3567647635936737,-0.317051500082016,-0.04562195762991905,0.22019678354263306,-0.20215243101119995,-0.3909880816936493,-0.5820438265800476,-0.24376624822616577,0.29107213020324707,0.3135535418987274,-0.2997890114784241,-0.17541417479515076,-0.010616717860102654,0.5632827281951904,0.203404039144516,-0.1536412388086319,-0.2556004524230957,0.44963836669921875,-0.3327745497226715,0.015292316675186157,-0.08799957484006882,0.12991537153720856,0.03428644686937332,0.448562353849411,0.3455297648906708,0.012015492655336857,-0.07150629162788391,0.2559187710285187,0.2580816149711609,0.16003721952438354,-0.6239559054374695,-0.4940536618232727,0.20146922767162323,-0.2502109110355377,0.20275777578353882,-0.34127289056777954,0.631662905216217,-0.1966245323419571,-0.5474332571029663,-0.15930351614952087,0.06350129842758179,-0.08487941324710846,0.3533530533313751,0.4559450149536133],[0.2077864557504654,-0.24103128910064697,0.05671508237719536,0.2627159059047699,0.12998639047145844,0.2748066782951355,0.20167312026023865,-0.13528773188591003,-0.2392110377550125,0.14254654943943024,-0.32097765803337097,-0.08263933658599854,0.08241978287696838,-0.21512280404567719,-0.11124219745397568,0.2179519683122635,0.2818257808685303,-0.28293949365615845,-0.12358155101537704,0.1029055044054985,0.35066086053848267,-0.057689208537340164,0.23410871624946594,-0.21879012882709503,0.3977397084236145,-0.023655256256461143,-0.17483234405517578,-0.42130014300346375,-0.22351333498954773,-0.19172212481498718,-0.09959758073091507,0.035393234342336655,0.04444018378853798,0.010848534293472767,-0.13867300748825073,-0.033170945942401886,0.16242755949497223,-0.012325646355748177,0.22475798428058624,-0.13102680444717407,-0.01588289439678192,-0.051580555737018585,0.1425641030073166,0.007648264057934284,0.09250608086585999,0.35496652126312256,0.09716619551181793,0.10035856813192368,0.1574012041091919,-0.015897046774625778,-0.13042953610420227,0.19162340462207794,0.2503039538860321,0.13043850660324097,-0.012264718301594257,-0.05190189927816391,-0.13708274066448212,-0.22146454453468323,0.027059778571128845,-0.00404133228585124,-0.1358778327703476,-0.09598903357982635,-0.23140881955623627,-0.2975744903087616,0.3873494267463684,-0.2330016791820526,-0.19273193180561066,-0.1860698163509369,-0.06745786219835281,-0.04968149960041046,-0.023489829152822495,0.17140574753284454,-0.034773558378219604,-0.1708461344242096,0.07208392769098282,-0.18513327836990356,0.19402624666690826,0.17388688027858734,-0.20978248119354248,-0.004165714606642723,0.3263242840766907,0.045785702764987946,0.25232210755348206,0.15096518397331238,-0.11810708045959473,0.08308899402618408,0.16258245706558228,0.17011819779872894,0.08519390970468521,-0.12935814261436462,0.09996739774942398,0.13844220340251923,-0.0033787705469876528,-0.02924085222184658,0.570007860660553,0.2889823615550995,-0.2795218825340271,-0.07367916405200958,0.01897096447646618,0.285152405500412,0.161979541182518,-0.18072640895843506,0.14220303297042847,-0.12907031178474426,0.05207272246479988,0.12342802435159683,-0.18469150364398956,-0.12434732913970947,0.24325832724571228,0.24349302053451538,0.0993768721818924,0.11783383041620255,0.08523673564195633,0.14400237798690796,-0.003468807553872466,0.10808117687702179,0.1966818869113922,0.18553298711776733,-0.21989846229553223,-0.2065506875514984,0.22257260978221893,0.1460188776254654,0.03867426514625549,-0.16072657704353333,0.29421329498291016,-0.06385153532028198,0.07675010710954666,-0.1707787662744522],[-0.2364048808813095,-0.07955687493085861,0.20378439128398895,0.057984404265880585,-0.4382164180278778,0.3689763844013214,-0.09619218856096268,-0.013379018753767014,-0.24823778867721558,-0.22747434675693512,0.20005106925964355,-0.06284230202436447,0.24284625053405762,-0.1577509343624115,-0.04016557335853577,0.04229506477713585,0.027809258550405502,-0.32078737020492554,-0.13586480915546417,-0.005098104942589998,0.2526709735393524,0.019126933068037033,-0.08638866245746613,-0.10055036097764969,-0.16733452677726746,0.21601460874080658,0.18423479795455933,0.0596892349421978,-0.0725993663072586,-0.3476131558418274,-0.009817750193178654,-0.20946329832077026,-0.042407430708408356,0.28340858221054077,-0.16733597218990326,0.07767511159181595,0.04249507933855057,0.21431662142276764,0.14102530479431152,-0.09009838849306107,0.1232653483748436,-0.11409223824739456,-0.154745414853096,-0.10931525379419327,0.039096005260944366,-0.12359488755464554,-0.19310863316059113,-0.08745113760232925,-0.2023279070854187,-0.24587976932525635,0.02242656983435154,-0.2636066675186157,-0.11093657463788986,0.21223172545433044,0.044054340571165085,-0.2706626057624817,0.042530179023742676,-0.12139838188886642,-0.1891353577375412,0.018459206447005272,-0.01208537071943283,0.030198218300938606,-0.06972108781337738,0.15549220144748688,-0.06329978257417679,-0.35935065150260925,-0.2387639880180359,0.25085771083831787,0.035403672605752945,-0.09877842664718628,0.14475683867931366,-0.22407089173793793,-0.16586549580097198,-0.3119751811027527,0.31958436965942383,0.26661914587020874,-0.36121687293052673,0.10125643759965897,0.04941357299685478,0.1798635721206665,0.022677145898342133,-0.08439353108406067,-0.039087019860744476,-0.17688490450382233,0.20338699221611023,-0.3397428095340729,-0.04128509387373924,0.06187950819730759,-0.04868127778172493,0.11966753005981445,0.11183203756809235,0.2498902678489685,-0.08066350966691971,0.29263195395469666,-0.14398209750652313,-0.08891487866640091,0.10482218116521835,0.6493277549743652,-0.0023741014301776886,0.10086508095264435,0.3929257392883301,-0.135329008102417,0.11709637939929962,0.018647225573658943,-0.13263511657714844,0.21371977031230927,0.10969115793704987,0.36249980330467224,-0.006700827274471521,-0.09016103297472,0.3319534957408905,0.09010468423366547,-0.18461620807647705,-0.11514507234096527,-0.24476505815982819,-0.29500502347946167,-0.07419390976428986,0.03429302200675011,-0.2246386557817459,-0.06727458536624908,-0.0466228611767292,-0.1685871034860611,0.007292268332093954,0.09826153516769409,-0.0784071683883667,-0.004670188762247562,-0.010482382960617542,0.027936136350035667],[-0.05875428020954132,-0.20806124806404114,0.3978237509727478,-0.4993666708469391,0.6807575821876526,0.0905693918466568,-0.10398843884468079,-0.00903418567031622,0.41642019152641296,0.027744540944695473,0.17918513715267181,-0.015807490795850754,0.06548331677913666,0.26795533299446106,0.19451497495174408,0.12759195268154144,-0.42691025137901306,0.376456081867218,0.4162910282611847,0.4652535915374756,-0.1515103280544281,0.08645489811897278,-0.004423815757036209,0.46274033188819885,0.08391301333904266,0.38991957902908325,0.3384140729904175,0.1496339738368988,-0.18935294449329376,0.3942646086215973,-0.4490055739879608,-0.17860566079616547,-0.6512398719787598,-0.10888346284627914,-0.6205314993858337,0.15945445001125336,-0.5834126472473145,-0.21626920998096466,0.509941577911377,-0.42260220646858215,-0.18266122043132782,0.6860986948013306,0.7074410319328308,-0.23756663501262665,0.17927590012550354,-0.1525542438030243,0.3897814452648163,0.6854880452156067,-0.13041682541370392,0.5441032648086548,0.5802444219589233,0.00055249675642699,0.09460143744945526,-0.3423830270767212,-0.7991065979003906,0.23654215037822723,0.21659930050373077,0.3119756281375885,0.3362571597099304,-0.2595752477645874,0.4504410922527313,0.04890374839305878,-0.19512821733951569,0.38885506987571716,-0.0208445992320776,-0.5880743265151978,0.3441759943962097,0.4390127956867218,-0.5988854169845581,0.2786049544811249,0.20330166816711426,0.2342105358839035,0.38029876351356506,0.4264830946922302,-0.13982756435871124,0.5314729809761047,-0.23468966782093048,0.2164181023836136,-0.6810019612312317,0.3207668960094452,-0.6285030841827393,0.4139125347137451,0.5555317997932434,0.09997396916151047,0.2574233114719391,-0.2516505718231201,-0.004585554823279381,0.4299110770225525,-0.0024186898954212666,-0.20430754125118256,-0.7770747542381287,0.1388688087463379,-0.17767547070980072,0.2219347357749939,-0.28998491168022156,0.3684712052345276,-0.47292935848236084,0.4636048376560211,0.8668235540390015,0.6586202383041382,-0.08617466688156128,0.13210295140743256,-0.31489235162734985,-0.23650604486465454,0.23560193181037903,-0.6303285360336304,0.41225630044937134,0.2763102352619171,0.9593366980552673,0.2111886888742447,0.6836811900138855,0.49092090129852295,0.03563559427857399,-0.1458236128091812,-0.3229021430015564,-0.45595014095306396,0.5307117104530334,0.2083076387643814,-0.12384236603975296,-0.7176276445388794,0.3685154616832733,0.25429263710975647,-0.30633658170700073,-0.6953579783439636,-0.1019715815782547,-0.2217617630958557,0.2601735591888428,0.49191197752952576],[-0.045720409601926804,-0.2756436765193939,0.16394229233264923,0.27493757009506226,0.07442066818475723,0.4438299834728241,0.22870773077011108,-0.22786089777946472,-0.3958001732826233,0.09582969546318054,-0.22753773629665375,-0.18707473576068878,0.010194333270192146,-0.20821574330329895,-0.3236125707626343,0.3008767366409302,0.2753235697746277,-0.3251645863056183,0.04264901950955391,0.035707518458366394,0.41327807307243347,0.11707083880901337,0.39193668961524963,-0.03788117319345474,0.31979554891586304,0.13358809053897858,-0.1061503067612648,-0.470543771982193,-0.3616602420806885,-0.1651868373155594,-0.2211938053369522,-0.011603495106101036,0.2927321493625641,-0.08421704918146133,-0.24732065200805664,0.058376047760248184,0.19890253245830536,0.11891890317201614,0.2772834897041321,-0.08456064015626907,0.23009292781352997,-0.24276772141456604,0.17133504152297974,0.09073171764612198,0.14172112941741943,0.4183453321456909,-0.05961039289832115,0.26961684226989746,-0.017629548907279968,-0.17693085968494415,0.07319892942905426,0.41986095905303955,0.15222249925136566,-0.029430320486426353,-0.13438111543655396,-0.1291925013065338,-0.009794694371521473,-0.03673453629016876,0.028263866901397705,0.018126029521226883,-0.18283863365650177,-0.19002172350883484,-0.20985496044158936,-0.26319754123687744,0.31235238909721375,-0.21470949053764343,-0.28718480467796326,-0.35622912645339966,-0.1885766088962555,-0.003979123663157225,0.16266223788261414,0.19621439278125763,0.13949976861476898,-0.08943764120340347,-0.13268373906612396,-0.16920334100723267,0.13024559617042542,0.07723651826381683,-0.3106759190559387,0.023408807814121246,0.048674799501895905,-0.14026474952697754,0.29722273349761963,0.23704230785369873,-0.15839117765426636,0.16604533791542053,0.1716330647468567,0.28762587904930115,0.07257080078125,0.081858329474926,0.0844670757651329,0.19806541502475739,-0.021313384175300598,0.1106853187084198,0.4937598407268524,0.3679330050945282,-0.2741914987564087,0.09960494935512543,0.17699865996837616,0.26366060972213745,0.28544163703918457,-0.3156191408634186,0.12926769256591797,-0.1989288628101349,0.030914785340428352,0.2265913486480713,-0.35952162742614746,-0.17164060473442078,0.16237902641296387,0.24756669998168945,0.14291062951087952,0.3198542892932892,0.18773792684078217,0.04683610051870346,-0.0961696058511734,-0.13941459357738495,0.06463653594255447,0.22206874191761017,-0.29122066497802734,-0.33737248182296753,0.12008734792470932,0.2686213552951813,0.08406242728233337,-0.12232393026351929,0.342647910118103,-0.2581283450126648,-0.01841377280652523,0.10004110634326935],[-0.08884625881910324,-0.07652315497398376,0.24967503547668457,0.17986629903316498,-0.3209323287010193,0.33425185084342957,0.01410118117928505,-0.0966508537530899,-0.1191624253988266,-0.23948173224925995,0.2530149221420288,-0.17476880550384521,0.3121558725833893,-0.10084015130996704,0.010449507273733616,0.1727117896080017,0.003445184323936701,-0.05622350051999092,-0.26556453108787537,-0.16123709082603455,0.15952050685882568,0.2426939606666565,-0.18058407306671143,-0.14704805612564087,-0.25352799892425537,0.17435549199581146,0.07239792495965958,-0.19531399011611938,-0.06340885907411575,-0.01632123813033104,0.08543875068426132,-0.08422675728797913,-0.14954984188079834,0.553074061870575,-0.020063651725649834,-0.14365001022815704,0.15847644209861755,0.23914991319179535,0.18885833024978638,-0.06869640946388245,0.11522895842790604,-0.13419689238071442,-0.19056592881679535,-0.11771157383918762,-0.003963099792599678,-0.11395720392465591,-0.011000357568264008,0.1218760758638382,-0.14456692337989807,-0.179966002702713,0.0899142250418663,-0.12776058912277222,-0.12328264862298965,0.18326352536678314,0.1517292857170105,-0.28795507550239563,0.10443811118602753,-0.14531901478767395,0.06845580786466599,-0.118031807243824,0.2681264579296112,0.036915943026542664,-0.148442804813385,0.07525463402271271,-0.11939305812120438,-0.15997003018856049,-0.03803242743015289,0.13980303704738617,0.10216154158115387,-0.22937022149562836,0.1563604176044464,-0.2791992723941803,-0.07113467901945114,-0.07045705616474152,0.22755378484725952,0.023099776357412338,0.061561405658721924,0.11734610050916672,0.23730044066905975,0.08938553184270859,-0.04281546175479889,-0.004704795312136412,-0.19136063754558563,-0.13866278529167175,0.09558381885290146,-0.4980350434780121,-0.07447507232427597,0.12408170849084854,-0.12035924941301346,0.14892759919166565,0.029117455706000328,0.1014167070388794,0.0036651340778917074,0.0906040146946907,-0.33341798186302185,0.08196454495191574,0.16985568404197693,0.403782457113266,-0.2010113000869751,0.14323167502880096,0.4433175325393677,0.07884836196899414,-0.11630967259407043,-0.13602995872497559,-0.15882031619548798,0.18761752545833588,0.12746156752109528,0.17029733955860138,-0.12687064707279205,-0.05620403587818146,0.1608303189277649,0.09347642958164215,-0.17676259577274323,-0.22244931757450104,-0.09838901460170746,-0.3093053698539734,-0.11033973097801208,0.09862475842237473,-0.1307038813829422,-0.05651743710041046,0.12068675458431244,-0.27497607469558716,-0.09772707521915436,0.01619996502995491,-0.07130065560340881,0.26967740058898926,0.09506141394376755,0.09624455869197845],[0.0478755384683609,0.0870547667145729,-0.1466744989156723,-0.1288105547428131,-0.10905202478170395,0.024093201383948326,-0.021513067185878754,-0.07682514190673828,0.4853428602218628,-0.26155972480773926,0.005786689464002848,0.1768619418144226,0.03872036561369896,0.23235337436199188,0.125074103474617,-0.05435948818922043,0.031234778463840485,-0.11881721764802933,-0.013364136219024658,0.09892270714044571,-0.12842793762683868,-0.14962045848369598,-0.009900335222482681,-0.08625819534063339,0.2289702296257019,-0.14704498648643494,-0.3271247446537018,-0.1156858503818512,-0.020204689353704453,-0.25839564204216003,-0.13037805259227753,-0.25163790583610535,-0.2018071413040161,0.17676475644111633,-0.09445904195308685,0.031231921166181564,-0.10816614329814911,0.03729740157723427,0.03996757045388222,-0.257057249546051,0.14093731343746185,-0.43141794204711914,-0.17622867226600647,-0.0556810200214386,0.05186547711491585,0.010098680853843689,0.38602909445762634,0.08494879305362701,-0.2953335642814636,-0.20958924293518066,0.024358948692679405,0.07258415967226028,0.10176890343427658,0.21606215834617615,-0.2936662435531616,0.15679508447647095,0.13412068784236908,0.07657106965780258,0.33119475841522217,0.01753110997378826,0.2376125305891037,0.23493057489395142,-0.11441396921873093,-0.010365823283791542,0.3375990092754364,-0.13461759686470032,-0.08829639852046967,-0.24673478305339813,0.060651183128356934,-0.32351773977279663,-0.32575058937072754,-0.2751134932041168,-0.12954136729240417,-0.007697360590100288,0.20836851000785828,-0.3677721619606018,-0.22060208022594452,0.14244762063026428,-0.2805357277393341,0.21281297504901886,-0.05302615463733673,-0.42378687858581543,-0.24051186442375183,0.1891816407442093,-0.21217437088489532,-0.08591368794441223,0.025057636201381683,0.29215553402900696,0.34464314579963684,0.05881640687584877,0.0035788046661764383,-0.1494002491235733,0.13003063201904297,0.11389607191085815,0.030700715258717537,0.009502080269157887,-0.2523135840892792,0.44593605399131775,0.2541719973087311,-0.13890448212623596,-0.4137130081653595,0.12771198153495789,0.1848638653755188,-0.3121780753135681,-0.17002232372760773,0.055626921355724335,-0.12166040390729904,-0.1413220465183258,-0.022940227761864662,-0.12984059751033783,0.30849990248680115,0.19354704022407532,0.22111304104328156,0.0379575677216053,-0.36699897050857544,-0.25091972947120667,-0.16792193055152893,-0.0968802198767662,-0.24367770552635193,-0.1422748565673828,0.2947891652584076,0.10223881155252457,-0.03626745566725731,0.1502286046743393,-0.06177043542265892,0.02499232441186905,-0.2465577870607376,-0.09197939187288284],[-0.08723250031471252,-0.0898217111825943,-0.0864451602101326,0.12145431339740753,0.06799136102199554,-0.0231674462556839,-0.20458294451236725,0.03027999773621559,-0.16858834028244019,-0.13446193933486938,0.03560321033000946,0.02394638955593109,-0.1486235111951828,-0.23895470798015594,-0.05428290739655495,-0.046195074915885925,-0.001531546120531857,-0.16973960399627686,-0.3037615716457367,0.04793259873986244,-0.040935300290584564,-0.16776426136493683,0.07849235832691193,-0.09479079395532608,0.02252991311252117,0.0633578971028328,-0.004042640794068575,0.05505063757300377,0.12707188725471497,0.004797105677425861,-0.09219201654195786,-0.20108744502067566,-0.25947636365890503,-0.08767204731702805,-0.08807089179754257,-0.04355328530073166,-0.18290330469608307,-0.00816794577986002,0.017566675320267677,0.057976871728897095,-0.08616771548986435,-0.03293350711464882,-0.0745847225189209,0.10239801555871964,-0.08886246383190155,0.03825406730175018,-0.09605926275253296,0.09134160727262497,-0.01483678724616766,-0.20751789212226868,-0.29227209091186523,0.3205929100513458,0.12377480417490005,-0.2739085257053375,-0.11995234340429306,-0.23132388293743134,0.010608213022351265,-0.2099478840827942,-0.10693395882844925,-0.10242379456758499,0.11389844119548798,-0.16517797112464905,0.004570494871586561,-0.1777500957250595,0.14829984307289124,0.054631613194942474,-0.2704601585865021,0.07777151465415955,-0.015290430746972561,-0.20773296058177948,-0.16694755852222443,0.2104838788509369,-0.16563962399959564,-0.0802299827337265,0.11585351079702377,-0.06795310229063034,-0.03035435639321804,0.04057571291923523,-0.19220241904258728,0.09175975620746613,0.10508321970701218,-0.10219652950763702,-0.0031191937159746885,0.07219274342060089,-0.04825986549258232,-0.141199991106987,0.23996476829051971,-0.0638727992773056,-0.1790619194507599,-0.11032897979021072,-0.19927075505256653,-0.15191888809204102,0.03331354260444641,0.22518789768218994,0.3077225089073181,0.018081316724419594,-0.0013515908503904939,0.09655838459730148,0.08122047036886215,-0.32237598299980164,0.09393724799156189,0.03981209173798561,-0.17440776526927948,-0.1519908308982849,0.06145158037543297,-0.08299023658037186,-0.153203085064888,0.0771775096654892,-0.09761166572570801,-0.03422512114048004,-0.14371998608112335,-0.07032853364944458,0.20508655905723572,0.14143891632556915,-0.09490358829498291,-0.0609528012573719,0.051708005368709564,-0.12645722925662994,0.04650266468524933,-0.1848793774843216,0.1399862915277481,-0.05892803147435188,-0.18042907118797302,0.053405992686748505,0.31823423504829407,-0.07482472062110901,-0.18704292178153992,0.09705790132284164],[0.4574790894985199,0.038873687386512756,-0.10513165593147278,-0.043268684297800064,-0.4522837698459625,0.2811509370803833,0.1691562831401825,0.04600490629673004,0.018984174355864525,0.030051100999116898,-0.15845505893230438,0.1219697967171669,0.24117082357406616,0.3250793516635895,0.0551404245197773,0.13110511004924774,-0.3953704535961151,-0.14351430535316467,0.13899175822734833,-0.17995569109916687,0.0409100167453289,0.04238029569387436,-0.26933717727661133,0.034820619970560074,-0.11701497435569763,-0.4090536832809448,-0.3887922167778015,-0.10081028938293457,0.2918168902397156,-0.019831854850053787,-0.18427543342113495,0.4276406466960907,-0.1493699997663498,0.3476097881793976,0.2679043412208557,0.37845245003700256,0.5281922817230225,0.23489689826965332,0.32472047209739685,0.4138416349887848,-0.168310284614563,0.35896801948547363,0.04029886797070503,-0.24872131645679474,0.2745633125305176,0.038001421838998795,-0.1710945963859558,-0.06365330517292023,0.03283004090189934,0.005307591520249844,0.30375683307647705,-0.12295639514923096,-0.2769145369529724,0.7964454889297485,-0.11457021534442902,-0.4797970950603485,0.6359516978263855,0.37683606147766113,-0.27829691767692566,0.2615402042865753,-0.13415895402431488,-0.007317929994314909,-0.13657614588737488,0.3224794864654541,0.27344396710395813,-0.20120349526405334,0.3115401566028595,-0.14818744361400604,0.31220558285713196,-0.07548707723617554,0.035712748765945435,-0.1478206068277359,0.16492795944213867,0.12954950332641602,0.0987636148929596,-0.11139286309480667,-0.030551806092262268,-0.430309921503067,-0.10665722191333771,-0.09942153841257095,0.15404905378818512,0.03154074028134346,0.25935983657836914,-0.11645065993070602,0.04060133919119835,0.011876332573592663,-0.25616732239723206,-0.17137834429740906,0.5585314631462097,0.7448991537094116,0.2230810970067978,0.0952279269695282,-0.16815903782844543,-0.3149251937866211,-0.40604183077812195,-0.3992505669593811,0.20573675632476807,0.3414454758167267,-0.28290748596191406,0.2647443413734436,-0.014650625176727772,-0.18672561645507812,0.053426388651132584,-0.2703329026699066,0.37210988998413086,-0.3443714678287506,0.2684240937232971,0.07181371003389359,-0.00512686325237155,-0.08857481926679611,0.30178865790367126,-0.3318484425544739,-0.13886132836341858,-0.3945808410644531,0.05976831912994385,0.06229773908853531,-0.07644092291593552,0.019192839041352272,-0.08466334640979767,0.028028400614857674,-0.33098310232162476,-0.16972410678863525,0.14720386266708374,-0.15971499681472778,0.12745533883571625,0.018343718722462654,-0.5665405988693237,-0.18737562000751495],[0.09229158610105515,0.12339121103286743,-0.04817549139261246,-0.126844584941864,-0.0009520413004793227,-0.07196871191263199,0.24981968104839325,-0.12875495851039886,0.2703951299190521,0.09680984914302826,-0.0791131779551506,0.045829735696315765,0.17826494574546814,0.21877285838127136,-0.2672587037086487,0.0540352538228035,-0.06500954926013947,-0.20769234001636505,0.4117439389228821,0.08578503131866455,-0.12505652010440826,0.07150871306657791,0.08843488991260529,0.0859660729765892,-0.2865999937057495,-0.16200536489486694,-0.01688789390027523,-0.2272864282131195,-0.13473954796791077,-0.3428230583667755,-0.0329752117395401,0.20893757045269012,0.030061712488532066,-0.06392449885606766,0.003011072985827923,0.07373935729265213,0.1773267686367035,0.20879311859607697,0.1338038593530655,0.12612693011760712,0.22497083246707916,-0.14292821288108826,-0.02817790023982525,-0.079348124563694,-0.0328894779086113,-0.09595365822315216,0.36434441804885864,0.05386318638920784,-0.12479732185602188,0.08312278240919113,0.265758216381073,-0.000003532479922796483,-0.0874592587351799,0.07342714071273804,-0.08577164262533188,0.017982693389058113,0.028062833473086357,0.3518114984035492,0.47711753845214844,0.23290829360485077,-0.23501218855381012,-0.2892639935016632,-0.2211708128452301,0.08200584352016449,-0.06695841997861862,-0.22551089525222778,0.0905100628733635,-0.24039189517498016,-0.2045045793056488,-0.29002243280410767,-0.11520157009363174,-0.22122643887996674,-0.018727047368884087,0.10110656172037125,-0.12293210625648499,-0.26527461409568787,-0.24381712079048157,-0.027309926226735115,0.12615397572517395,0.3435414135456085,0.13260091841220856,-0.20870639383792877,0.07611400634050369,0.08189626783132553,0.2345605343580246,-0.2900787591934204,0.15665686130523682,-0.04725663363933563,0.20722812414169312,-0.04268572852015495,-0.02984592504799366,0.07380842417478561,-0.14807190001010895,0.023580284789204597,-0.05937565490603447,-0.22058038413524628,0.0830630287528038,0.5174992084503174,0.046293411403894424,0.11511652916669846,-0.3074847161769867,-0.16141226887702942,0.20528759062290192,-0.021661799401044846,-0.004225691314786673,-0.24161019921302795,0.22002167999744415,-0.1680774837732315,0.028303800150752068,-0.14695130288600922,0.1479879915714264,-0.11591076850891113,-0.2145170122385025,-0.11907631903886795,-0.008310023695230484,-0.0998811274766922,0.1642354279756546,-0.1496252417564392,-0.10213182866573334,-0.1721271127462387,0.5091097354888916,0.1341554969549179,0.13568037748336792,-0.10647980123758316,0.0006110983085818589,0.04463488981127739,-0.3377994894981384,-0.09045273810625076],[-0.023515937849879265,0.05623597651720047,-0.1734941005706787,-0.0502556674182415,-0.07315709441900253,-0.014860433526337147,-0.05094669759273529,-0.1432431936264038,-0.19485518336296082,-0.2546611726284027,-0.18933098018169403,-0.13666954636573792,0.016783462837338448,-0.008085490204393864,-0.07603134959936142,0.00882959645241499,-0.09616871923208237,-0.25290247797966003,0.12525394558906555,0.14136171340942383,0.16889476776123047,-0.07516514509916306,0.0765984058380127,0.13646200299263,0.03157752752304077,0.023732388392090797,-0.13497363030910492,-0.027321510016918182,-0.0960976704955101,-0.036300934851169586,-0.04126642644405365,-0.08941973000764847,-0.07729492336511612,-0.060398053377866745,-0.19307582080364227,-0.05536190792918205,-0.2237095683813095,-0.052998218685388565,0.09521865844726562,0.017071107402443886,0.03653956949710846,0.07476063072681427,0.013874738477170467,-0.2634124457836151,0.00358493416570127,0.4033293128013611,-0.0028300222475081682,0.07676134258508682,0.1435963213443756,0.03310747072100639,-0.0983206108212471,0.22649043798446655,-0.04466953128576279,0.12935827672481537,-0.1412123292684555,0.21123960614204407,-0.0567198283970356,-0.23912778496742249,-0.059920717030763626,-0.058205652981996536,0.07839385420084,-0.03688453510403633,-0.09892354160547256,0.061018384993076324,-0.21959370374679565,-0.056737013161182404,-0.03206147253513336,-0.212778702378273,-0.009285815060138702,0.08026149123907089,0.09799601137638092,0.17355357110500336,-0.027236493304371834,-0.08009549230337143,-0.09596536308526993,0.1018201932311058,0.10738375782966614,0.13117720186710358,0.04765148460865021,-0.0839032530784607,-0.047677889466285706,-0.04450003802776337,0.11951090395450592,0.001176991150714457,-0.06841086596250534,-0.07812604308128357,0.34913861751556396,-0.13037918508052826,0.04005110636353493,0.11618538945913315,0.1913357526063919,-0.17457184195518494,0.002991040702909231,0.0708613395690918,0.22769175469875336,-0.08626137673854828,-0.1772189736366272,-0.14760157465934753,0.08524612337350845,-0.004225615411996841,0.10686811059713364,0.06001446023583412,-0.056102778762578964,-0.10131388157606125,-0.0629211813211441,-0.09858058393001556,-0.1622825711965561,-0.09697561711072922,-0.08534584939479828,0.2116757333278656,0.005117127671837807,-0.05404992401599884,-0.1061231717467308,0.1268819272518158,0.1960819810628891,-0.2179199904203415,-0.04255300387740135,-0.09155122190713882,-0.08360008895397186,-0.08874274045228958,-0.1452450007200241,-0.13013771176338196,-0.16696330904960632,0.005776255391538143,0.4653683006763458,-0.025736495852470398,0.08985994756221771,-0.10295597463846207],[0.36683809757232666,-0.14046350121498108,-0.17054347693920135,0.05922320857644081,-0.17116175591945648,0.08089032024145126,0.20751826465129852,0.15524764358997345,0.1344648003578186,-0.20782256126403809,-0.025780733674764633,-0.06745204329490662,0.16866350173950195,0.02810661308467388,-0.033000398427248,-0.06972886621952057,-0.22217200696468353,-0.023833710700273514,-0.06840436905622482,-0.002666254760697484,0.10303506255149841,-0.00017217817367054522,-0.1744779795408249,-0.011636447161436081,-0.22489409148693085,-0.21750767529010773,-0.2574295699596405,0.09897783398628235,0.07750378549098969,-0.10253557562828064,-0.010958160273730755,0.15338030457496643,-0.045043379068374634,0.3610078692436218,0.06004961207509041,0.022487951442599297,0.220027357339859,0.20391815900802612,0.1688501238822937,0.27042657136917114,-0.028610220178961754,0.08489472419023514,-0.025887470692396164,-0.18068678677082062,0.005636412650346756,0.0010920555796474218,-0.11743519455194473,-0.02343800477683544,-0.08328471332788467,-0.12889735400676727,0.10859224945306778,-0.06568396836519241,-0.15934690833091736,0.44771358370780945,-0.19382673501968384,-0.1847815215587616,0.18324074149131775,-0.012703707441687584,-0.23219436407089233,0.004972307477146387,0.1478392332792282,0.016557052731513977,-0.24335505068302155,0.055606890469789505,-0.08929780125617981,-0.044304460287094116,-0.049404747784137726,-0.027630280703306198,0.21702980995178223,-0.29922986030578613,0.005145491566509008,-0.2496843785047531,0.11279545724391937,-0.1233212947845459,0.10467420518398285,0.14338475465774536,-0.22859761118888855,-0.02699563093483448,0.06818587332963943,0.0495709627866745,-0.1363927721977234,-0.04875621572136879,0.042341604828834534,-0.015315898694097996,0.2851269245147705,0.0804290622472763,-0.1554427444934845,-0.08885369449853897,0.07375527173280716,0.4861266314983368,-0.026786457747220993,0.0472947433590889,-0.2509903311729431,-0.32431963086128235,-0.2695994973182678,-0.33905521035194397,0.18152408301830292,0.3053146302700043,-0.18469390273094177,0.11128725111484528,-0.20509310066699982,-0.1439627856016159,-0.1471778303384781,-0.09106086194515228,0.05163971707224846,-0.2711900472640991,0.03261154890060425,0.07765139639377594,-0.00521762715652585,-0.16743193566799164,0.11564254760742188,-0.1132468730211258,0.01114331092685461,-0.08740851283073425,-0.10756350308656693,-0.2418026179075241,-0.2838965952396393,-0.08041512966156006,-0.1667686551809311,-0.0927601084113121,-0.09567991644144058,-0.029266800731420517,0.13929875195026398,-0.14574852585792542,0.07771722972393036,0.02415512502193451,-0.24605366587638855,0.11598505824804306],[0.19700205326080322,0.12580430507659912,-0.019675403833389282,-0.05967220291495323,-0.1770048439502716,-0.11015880852937698,0.2035481184720993,-0.3280580937862396,0.3548979163169861,0.015707561746239662,-0.13423480093479156,-0.18046121299266815,0.1766071617603302,0.17844833433628082,-0.280467689037323,0.015001831576228142,-0.17038384079933167,-0.12493426352739334,0.41647306084632874,-0.10464225709438324,-0.14953893423080444,0.00135485187638551,0.14566980302333832,-0.18626387417316437,-0.11660297214984894,-0.4692143201828003,-0.08860501646995544,-0.36005157232284546,-0.04152161255478859,-0.3412127196788788,0.1204751580953598,0.33853769302368164,0.05864926055073738,-0.0673794373869896,0.08163326233625412,0.11926916986703873,0.37422335147857666,0.15269815921783447,0.026445552706718445,0.1886608600616455,0.3187211751937866,0.04161530360579491,0.039466965943574905,-0.15303072333335876,0.1750476211309433,0.059058211743831635,0.3832433521747589,0.028016529977321625,0.11004438251256943,0.5622968077659607,0.21404992043972015,0.0647796094417572,-0.12028978019952774,0.20855088531970978,-0.278074711561203,0.008420067839324474,0.45292404294013977,0.6517675518989563,0.7266506552696228,0.2394634187221527,-0.2028760462999344,-0.41697409749031067,0.05387147143483162,0.13501064479351044,-0.22259896993637085,-0.13114577531814575,0.13851910829544067,-0.18915629386901855,0.020297061651945114,-0.2378014177083969,-0.15286514163017273,-0.3019326627254486,0.02887239120900631,0.14685069024562836,0.016726136207580566,-0.22622936964035034,-0.2512994110584259,-0.2501629889011383,0.0552687793970108,0.0940217524766922,-0.048741091042757034,0.2423083335161209,0.07048124819993973,0.1533425748348236,0.09226801991462708,-0.092463918030262,0.09134165942668915,-0.2097909301519394,0.2704688310623169,0.0820312350988388,-0.17609988152980804,0.30506065487861633,-0.2393636703491211,-0.4495629370212555,-0.17102764546871185,-0.29793551564216614,0.1288769692182541,0.32950371503829956,-0.0495990589261055,0.29023391008377075,-0.271707147359848,-0.5744961500167847,0.2836460471153259,-0.04336021840572357,-0.10945814102888107,-0.11524025350809097,0.4141984283924103,-0.26166269183158875,0.04477584734559059,-0.2552858591079712,0.2833883464336395,-0.37522968649864197,-0.26484307646751404,-0.08612362295389175,0.3863033652305603,0.06493233144283295,0.38372981548309326,0.07632602751255035,0.19213098287582397,-0.0790175274014473,0.6842697262763977,-0.07971448451280594,0.24645990133285522,-0.13155359029769897,-0.06939201802015305,-0.3671111464500427,-0.22487691044807434,-0.2554062604904175],[-0.08958487957715988,0.3253844380378723,-0.37052521109580994,0.16374337673187256,-0.20043185353279114,-0.2426140159368515,-0.1349831223487854,-0.029368774965405464,0.02538217417895794,-0.38001182675361633,0.05487451329827309,-0.22998900711536407,-0.21481457352638245,-0.1979866772890091,0.03489511460065842,-0.12073080241680145,-0.19727107882499695,-0.14709733426570892,0.009005577303469181,-0.1290692538022995,0.2401774823665619,-0.08354531228542328,0.28185543417930603,-0.04616056755185127,-0.20501333475112915,-0.36446741223335266,-0.10438326746225357,0.03368750214576721,0.14042168855667114,0.05143684521317482,0.07076062262058258,-0.06917636096477509,-0.35315459966659546,0.01280912570655346,0.10195089131593704,-0.13924336433410645,-0.11494667828083038,-0.14742223918437958,0.09283509105443954,0.2935545742511749,-0.03273185342550278,-0.12028129398822784,0.138579323887825,-0.3925172686576843,0.083946093916893,0.3527599275112152,0.3157106041908264,0.04545978829264641,0.13810420036315918,0.025827717036008835,-0.04789416119456291,0.33336132764816284,-0.14939358830451965,0.08934850990772247,-0.34182804822921753,0.2557942271232605,0.039792999625205994,-0.3792748749256134,-0.08729778975248337,0.0356796495616436,-0.18286041915416718,0.07270628958940506,0.058761116117239,0.08132125437259674,-0.14675362408161163,0.184675395488739,-0.07891348004341125,-0.0725059062242508,0.2558985948562622,0.17507578432559967,-0.21118825674057007,0.006287150550633669,0.12968823313713074,0.10888901352882385,-0.10003869235515594,-0.03756888583302498,0.20065896213054657,-0.21600386500358582,-0.008255916647613049,0.044712141156196594,-0.08291923999786377,-0.0047285184264183044,-0.13530243933200836,0.038645293563604355,-0.04877011850476265,-0.04141544550657272,0.23539964854717255,-0.23621705174446106,0.04313201457262039,0.0471157468855381,0.1449861377477646,-0.2787576913833618,-0.0109776696190238,-0.13167104125022888,0.1822752207517624,0.02777773141860962,-0.24304212629795074,0.06819839030504227,0.10770488530397415,-0.019555706530809402,0.03275936841964722,0.010608695447444916,-0.011012343689799309,0.020304229110479355,-0.17395591735839844,-0.050875045359134674,-0.010960248298943043,-0.1296710968017578,-0.09849702566862106,0.08183319866657257,-0.036322206258773804,-0.15554222464561462,-0.1710042506456375,0.506132960319519,0.2547803819179535,-0.07396303862333298,0.04939188435673714,0.013807897455990314,0.18509341776371002,-0.08365947008132935,-0.05417054891586304,-0.19814026355743408,0.012272829189896584,0.08227302879095078,0.46650430560112,0.13815118372440338,0.002543513895943761,-0.37816035747528076],[-0.0630866065621376,0.02783147804439068,0.10879752039909363,-0.02326885052025318,-0.08267107605934143,0.09312047064304352,-0.044583071023225784,0.2626212239265442,-0.15828780829906464,-0.3272974193096161,0.05158134922385216,0.12323083728551865,0.18600766360759735,-0.16296875476837158,0.012859901413321495,-0.12158475816249847,-0.2612873613834381,-0.26565515995025635,-0.18769188225269318,-0.06688705831766129,-0.1089685782790184,0.13796554505825043,-0.2806381583213806,-0.0035723033361136913,-0.044371552765369415,0.000051940663979621604,-0.05000830441713333,0.15725359320640564,0.1594226062297821,0.05872315913438797,-0.03756419196724892,0.038921672850847244,-0.15183694660663605,0.6999340653419495,0.164800763130188,-0.12352482229471207,-0.07996407896280289,0.16191136837005615,-0.13005265593528748,0.28435394167900085,-0.1820959895849228,0.01139889471232891,-0.019935468211770058,-0.19368930160999298,-0.062175385653972626,-0.1944381147623062,0.008777891285717487,-0.28526678681373596,-0.05314130708575249,-0.22830542922019958,-0.012920686975121498,0.12652219831943512,-0.11672689020633698,0.2953553795814514,-0.059468407183885574,-0.37154650688171387,0.039197757840156555,-0.10418421775102615,-0.35287362337112427,-0.056366775184869766,0.20930936932563782,0.06020740792155266,-0.046117864549160004,0.11247653514146805,-0.1814376413822174,0.21052579581737518,-0.08720310032367706,0.23468108475208282,0.38233259320259094,-0.19052059948444366,-0.08350992202758789,-0.288902223110199,-0.08003827184438705,-0.30138930678367615,0.1923450082540512,0.07001685351133347,-0.10891478508710861,0.04033251851797104,0.12308056652545929,-0.10204046964645386,-0.171586275100708,-0.11818341910839081,-0.05524379014968872,-0.09463322162628174,0.3419075012207031,-0.08949441462755203,-0.3103690445423126,0.02250678278505802,0.10996934026479721,0.33668091893196106,-0.0005335996393114328,-0.3283673822879791,0.1214495524764061,-0.16349324584007263,-0.32734808325767517,-0.25080248713493347,0.2523806095123291,0.5853573679924011,-0.028006331995129585,-0.0106017105281353,-0.014559764415025711,0.05952778458595276,-0.24348857998847961,0.0005547106266021729,-0.056412216275930405,-0.07439377158880234,0.03572724387049675,0.09630241245031357,0.0126280402764678,-0.37342381477355957,0.07113681733608246,-0.14898136258125305,0.05013984441757202,-0.07310471683740616,-0.05542461946606636,-0.2946741580963135,-0.3810677230358124,-0.013060733675956726,-0.12162159383296967,-0.03747948631644249,-0.15988264977931976,-0.1320108026266098,-0.2363775372505188,0.03705456107854843,-0.05221909284591675,0.07374773174524307,-0.2560531198978424,-0.16284459829330444],[0.3022480010986328,0.13498733937740326,0.05380398780107498,-0.16930058598518372,-0.3151881694793701,0.015323528088629246,0.08587805926799774,-0.17821431159973145,0.2763330042362213,0.11846726387739182,0.03672407567501068,-0.057677749544382095,0.23279784619808197,0.09292100369930267,-0.11899227648973465,0.14628691971302032,-0.4067224860191345,0.0706990510225296,0.3787554204463959,0.01590646058320999,-0.25251731276512146,-0.09642722457647324,-0.03277168050408363,-0.20243197679519653,-0.46379759907722473,-0.5280467867851257,-0.027382714673876762,-0.04192337393760681,0.18561357259750366,0.026006897911429405,0.37684062123298645,0.1724785417318344,-0.178670734167099,-0.27509942650794983,0.15820464491844177,0.28305694460868835,0.14984534680843353,-0.02794957533478737,0.16969196498394012,0.27889642119407654,0.101746566593647,0.13464738428592682,0.05776372179389,-0.4125526249408722,0.047239817678928375,0.033800605684518814,0.1892690807580948,0.05571803078055382,0.06984911859035492,0.5090335011482239,0.37500259280204773,0.002908986760303378,0.038035791367292404,0.18273599445819855,-0.3072909414768219,0.05511223152279854,0.39345207810401917,0.7257822155952454,0.787857711315155,0.052747488021850586,-0.1950729787349701,-0.5864683985710144,-0.024905094876885414,0.3710070848464966,-0.032677579671144485,0.11129076033830643,0.266073614358902,-0.1469779908657074,-0.023310411721467972,-0.09294837713241577,-0.10106579959392548,-0.06695444881916046,0.000016388759831897914,0.10292589664459229,-0.12973305583000183,-0.06937367469072342,-0.20628583431243896,-0.4590104818344116,0.01431639026850462,0.19991043210029602,0.030566424131393433,0.43548583984375,-0.03577756881713867,0.165153369307518,0.22423958778381348,-0.08641541004180908,0.059630364179611206,-0.25339844822883606,0.2733781039714813,0.19123630225658417,-0.11703012883663177,0.17230841517448425,-0.4255622625350952,-0.3092389404773712,-0.17895415425300598,-0.3913079798221588,0.24223223328590393,0.40237149596214294,-0.3259955942630768,0.42338064312934875,-0.2060825228691101,-0.7312958836555481,0.31928667426109314,0.004184618126600981,-0.08075331896543503,-0.437793493270874,0.2509332597255707,-0.3727763295173645,0.15175507962703705,-0.15977415442466736,0.20433101058006287,-0.5516111254692078,-0.5050227046012878,0.09487047791481018,0.27905428409576416,-0.004440220072865486,0.6225504279136658,0.3277628719806671,0.15676695108413696,-0.24624784290790558,0.6106019020080566,-0.14066945016384125,0.23570775985717773,-0.21054710447788239,-0.06483060121536255,-0.3086399734020233,-0.27824950218200684,-0.1828247457742691],[-0.14587260782718658,0.2020726352930069,-0.44192278385162354,0.09778657555580139,0.01170046254992485,-0.27795857191085815,-0.02968781255185604,-0.14721079170703888,0.05864742398262024,-0.3739985525608063,0.20095263421535492,-0.2915888726711273,-0.13588042557239532,-0.14563994109630585,0.22731652855873108,-0.10635003447532654,-0.30881384015083313,0.15486270189285278,0.17857196927070618,-0.17295712232589722,0.12863917648792267,0.22937360405921936,0.15274985134601593,-0.028018109500408173,-0.03589359670877457,-0.34672436118125916,0.10344387590885162,-0.019030610099434853,0.37776482105255127,0.2092800885438919,0.3943636417388916,-0.32449468970298767,-0.48971885442733765,-0.05412028357386589,0.15655885636806488,-0.34190458059310913,-0.242207869887352,-0.46487051248550415,-0.1734495609998703,0.11982354521751404,0.21474839746952057,0.029773637652397156,0.12370482087135315,-0.35233059525489807,0.22273355722427368,0.3147704601287842,0.36109399795532227,0.009348910301923752,0.26199305057525635,0.029329832643270493,0.021658621728420258,0.513555645942688,-0.14846254885196686,-0.12705281376838684,-0.22689297795295715,0.19339421391487122,-0.14587751030921936,-0.42702996730804443,0.08813835680484772,0.2118396908044815,-0.2406046986579895,0.011021589860320091,0.1409207135438919,0.28372326493263245,-0.23428454995155334,0.33682534098625183,0.2650277018547058,0.08708827197551727,0.08034880459308624,0.3154868185520172,-0.24605974555015564,0.02999766543507576,0.08070822060108185,0.44758448004722595,-0.2565041482448578,0.11439797282218933,0.13897903263568878,0.09128984808921814,0.26946112513542175,-0.06032894551753998,-0.095965676009655,0.0818181037902832,-0.055600691586732864,0.09500657021999359,0.01888328604400158,0.02415699139237404,0.23526862263679504,-0.08948546648025513,-0.05546102672815323,0.12300316989421844,0.12477824836969376,-0.4858708679676056,-0.22568275034427643,-0.1367921084165573,0.14207476377487183,-0.1759629249572754,-0.1497955173254013,0.005050689913332462,0.04505874216556549,0.18107286095619202,-0.2274530678987503,0.016316574066877365,-0.2999122142791748,-0.018807461485266685,-0.24590498208999634,-0.06280666589736938,0.15603943169116974,-0.14893141388893127,-0.3412138521671295,0.3316418528556824,-0.24350786209106445,-0.18024425208568573,-0.4221751391887665,0.6850634217262268,0.294108122587204,0.11376340687274933,-0.024549787864089012,0.0334601104259491,0.17222510278224945,0.05816631019115448,0.023406149819493294,-0.5372437834739685,-0.10004329681396484,0.044941190630197525,0.45593804121017456,0.3415500521659851,0.09045090526342392,-0.3753635287284851],[-0.3275243043899536,-0.10945261269807816,-0.21479515731334686,0.22659093141555786,-0.07777664065361023,-0.012770125642418861,-0.1479044258594513,0.3026913106441498,-0.04580984264612198,-0.30424872040748596,0.35167160630226135,0.11191853880882263,0.0942460373044014,-0.5075963735580444,0.39209553599357605,-0.29591384530067444,-0.19114582240581512,0.027833765372633934,-0.43921729922294617,-0.030008260160684586,-0.08155367523431778,0.2571508288383484,-0.02893402799963951,0.059156809002161026,-0.08801256865262985,0.033891431987285614,-0.09224262833595276,0.1507631540298462,-0.013912508264183998,0.0034292852506041527,0.03904265537858009,-0.09515256434679031,-0.34344929456710815,0.6746824383735657,-0.08244384825229645,-0.13525906205177307,-0.010931875556707382,0.1669836938381195,-0.13555650413036346,0.22765113413333893,-0.16680732369422913,0.10506221652030945,-0.07959938794374466,-0.07517256587743759,0.09669268131256104,-0.061184145510196686,0.04623201861977577,-0.13331566751003265,-0.01910991221666336,-0.25170645117759705,-0.20511101186275482,0.02578933723270893,-0.05242485553026199,0.2313900738954544,0.19051699340343475,-0.2401549518108368,0.12421377748250961,-0.1774735450744629,-0.2417713701725006,-0.10891788452863693,0.2876698076725006,-0.03246062621474266,0.07493503391742706,0.12967181205749512,-0.3941667675971985,0.2845146954059601,0.05452720448374748,0.16524463891983032,0.1872425377368927,-0.03884118050336838,0.05529731884598732,-0.1537656933069229,-0.2552710771560669,-0.02067883312702179,0.19471412897109985,0.09655691683292389,-0.22439582645893097,0.3073052763938904,0.17595626413822174,-0.008105243556201458,-0.013302505947649479,-0.30198073387145996,-0.0897943302989006,0.01667173206806183,0.19517351686954498,-0.2993766665458679,-0.15193645656108856,0.20174089074134827,-0.16969962418079376,0.029644247144460678,-0.005416341125965118,-0.2714138627052307,0.17942248284816742,0.09471406787633896,-0.19626718759536743,-0.2124762386083603,0.04569282382726669,0.6327728629112244,-0.08774477988481522,-0.21964184939861298,0.021865149959921837,0.21458332240581512,-0.1809784322977066,-0.03458375111222267,0.016426747664809227,0.023319406434893608,0.027009129524230957,0.2231249064207077,-0.11107271909713745,-0.23152056336402893,-0.08363615721464157,-0.15034939348697662,-0.0994444191455841,-0.32166656851768494,-0.28905007243156433,-0.220305934548378,-0.20683693885803223,-0.23265127837657928,0.015479509718716145,0.09635701030492783,-0.14927393198013306,-0.2140282690525055,-0.15354999899864197,0.10442114621400833,0.09753048419952393,0.3064706027507782,0.06486960500478745,-0.10860692709684372],[-0.11512032896280289,-0.11916127800941467,-0.20587746798992157,0.16478389501571655,-0.1484769880771637,-0.045768607407808304,0.19522985816001892,0.28378915786743164,0.5894674062728882,-0.12176463007926941,0.0665217787027359,0.014585410244762897,-0.08661457896232605,0.3069292902946472,0.010302695445716381,0.11425833404064178,0.03217257559299469,-0.08365540206432343,0.14695152640342712,0.38768377900123596,0.014498386532068253,0.037896059453487396,-0.0008458562660962343,0.27017590403556824,0.4848806858062744,-0.1543106585741043,-0.4672166407108307,0.019592301920056343,-0.1152656152844429,-0.19647839665412903,-0.12408294528722763,-0.061360958963632584,-0.2631772458553314,-0.0015993666602298617,-0.04793141782283783,-0.044436708092689514,-0.06513167917728424,0.3885633647441864,0.10133972018957138,-0.02350182831287384,0.08412173390388489,-0.3401017189025879,-0.2936026155948639,0.02574300579726696,-0.08566999435424805,-0.09568904340267181,0.24285799264907837,-0.023582715541124344,-0.2113720029592514,-0.21349367499351501,-0.00022828801593277603,-0.026677649468183517,-0.08773685991764069,-0.06308603286743164,-0.18929071724414825,0.10541025549173355,-0.04215306416153908,-0.10023941099643707,0.11716394871473312,-0.0874030739068985,0.09813550114631653,0.7460798621177673,-0.2487315833568573,-0.2226020097732544,0.47169607877731323,0.024815339595079422,-0.0032796685118228197,-0.03274419903755188,0.09917032718658447,-0.2175683230161667,-0.28563955426216125,-0.4443800449371338,-0.2311486154794693,-0.2435963898897171,0.1657572090625763,-0.3734748065471649,-0.18340502679347992,0.032970279455184937,-0.20696976780891418,0.260479211807251,-0.1613856554031372,-0.4064003825187683,-0.08306336402893066,0.21875138580799103,-0.12818977236747742,-0.08885147422552109,0.061749931424856186,0.36612915992736816,0.41604262590408325,-0.013128584250807762,0.16257771849632263,-0.25543418526649475,0.2608031928539276,0.2053942233324051,-0.10571946203708649,0.036926861852407455,-0.31750619411468506,0.21279653906822205,-0.01634792611002922,-0.051650434732437134,-0.4018591344356537,0.020782044157385826,0.13583333790302277,-0.23592554032802582,0.17050205171108246,0.11096243560314178,-0.22986669838428497,-0.055216144770383835,0.0877000167965889,-0.00011250088573433459,-0.005066478159278631,0.36651796102523804,0.21555683016777039,-0.0430770218372345,-0.17804867029190063,-0.1665751188993454,-0.31255772709846497,-0.2916543781757355,-0.361236572265625,-0.1221148744225502,0.16145993769168854,0.10576079040765762,-0.09063901007175446,-0.005556111223995686,0.14544880390167236,0.25432947278022766,-0.27999311685562134,-0.2974153757095337],[-0.11141684651374817,-0.23794789612293243,-0.11715157330036163,0.19217273592948914,-0.04825606197118759,-0.20430736243724823,-0.11260956525802612,0.011684502474963665,0.018173735588788986,-0.013311830349266529,0.08538070321083069,-0.11801186949014664,0.052774667739868164,-0.13049036264419556,-0.17056392133235931,-0.18481232225894928,0.10547836124897003,-0.04211265593767166,-0.22328367829322815,0.0448644794523716,-0.012709014117717743,0.00961824506521225,-0.1902816891670227,0.05381008982658386,0.05567403882741928,0.006353815086185932,-0.14297272264957428,-0.011226457543671131,-0.11849343776702881,-0.02068411372601986,-0.09106788784265518,-0.2474883496761322,-0.1629309058189392,-0.011630955152213573,-0.13046078383922577,-0.0819842740893364,-0.11581363528966904,-0.06175205856561661,-0.07426035404205322,-0.25188252329826355,0.04301520437002182,0.029566077515482903,-0.014981859363615513,0.022803643718361855,-0.1633731871843338,0.18689486384391785,-0.1710963100194931,0.01456532720476389,0.01242914143949747,-0.11243091523647308,-0.1583251655101776,0.09523313492536545,-0.0995146855711937,-0.07055425643920898,-0.11941856890916824,0.11608820408582687,-0.1437300592660904,-0.16021926701068878,-0.1392582803964615,-0.08163686841726303,-0.1191888153553009,-0.11978346854448318,-0.035349730402231216,-0.11955077201128006,0.1529451310634613,0.18841321766376495,-0.12928533554077148,0.07003897428512573,0.10736262053251266,0.0071287197060883045,-0.01557379961013794,0.08147451281547546,-0.2878744602203369,0.0042793406173586845,0.11759080737829208,-0.011937983334064484,0.09477312117815018,-0.09828218072652817,-0.037718888372182846,0.09353001415729523,0.02553846314549446,-0.159926176071167,0.031850192695856094,0.017193447798490524,-0.13978920876979828,-0.07324498146772385,0.09697427600622177,0.191934734582901,0.08789853006601334,-0.061331819742918015,0.044180940836668015,-0.22616934776306152,0.1904067099094391,0.11937220394611359,0.14007888734340668,-0.03196283429861069,0.015708856284618378,-0.040059659630060196,-0.13111048936843872,-0.160881906747818,0.04968490079045296,-0.16821803152561188,0.07466397434473038,-0.10552549362182617,0.030267369002103806,0.11745839565992355,-0.07636076211929321,0.06268264353275299,0.14089135825634003,-0.16016604006290436,-0.07948648929595947,0.03048655018210411,0.08553320914506912,-0.02485787495970726,-0.10307111591100693,-0.17177757620811462,-0.28226006031036377,-0.13554418087005615,-0.13312071561813354,-0.20571845769882202,-0.05154109746217728,0.059105582535266876,-0.20502959191799164,-0.11859697848558426,0.31224411725997925,-0.042944349348545074,-0.1289951056241989,0.13376961648464203],[0.2040562927722931,0.12357798963785172,-0.35663896799087524,0.008967786096036434,-0.23030054569244385,-0.0923876166343689,0.14216060936450958,-0.04493674263358116,0.06696124374866486,0.05729914456605911,-0.20174306631088257,0.0955388993024826,0.15296269953250885,0.010210436768829823,-0.16864202916622162,-0.04678487032651901,-0.19153060019016266,-0.04756959527730942,-0.11232601851224899,-0.06037614867091179,-0.2827697694301605,-0.2796221673488617,-0.05797787010669708,-0.08597171306610107,-0.2588818669319153,-0.2469252645969391,-0.27369463443756104,-0.07967408001422882,0.13449934124946594,-0.09515425562858582,0.010564274154603481,0.39400437474250793,-0.051065489649772644,0.23574551939964294,0.3446770906448364,0.21459729969501495,0.14684219658374786,0.19420520961284637,0.114301398396492,0.23156148195266724,-0.2584895193576813,0.34456518292427063,-0.0773492157459259,-0.20811204612255096,-0.04035450890660286,0.04874669387936592,0.0595635361969471,-0.1951616406440735,-0.06378385424613953,0.1596849262714386,0.1190415471792221,-0.12852506339550018,-0.13540172576904297,0.4860665202140808,-0.010454978793859482,-0.4802324175834656,0.1834632158279419,0.22477267682552338,-0.2961141765117645,0.1781475991010666,-0.16731993854045868,-0.13578593730926514,0.042672138661146164,0.24612687528133392,-0.07207628339529037,0.27334755659103394,0.19380375742912292,-0.12671121954917908,0.29384297132492065,-0.18925754725933075,-0.20763660967350006,-0.17282827198505402,-0.09351565688848495,-0.20608048141002655,0.15489071607589722,-0.27074676752090454,0.1994072049856186,-0.4462597966194153,0.06015271320939064,0.036994289606809616,0.10413212329149246,-0.045193061232566833,0.25179576873779297,-0.13801631331443787,0.2494872808456421,0.07789896428585052,-0.074769988656044,-0.2690306305885315,0.17696978151798248,0.6934401392936707,0.3257632553577423,0.024207744747400284,-0.20536139607429504,-0.45530474185943604,-0.19004182517528534,-0.3019522428512573,0.11931849271059036,0.485931396484375,-0.27864959836006165,-0.1172819435596466,-0.14924433827400208,-0.24305254220962524,-0.07651075720787048,-0.004324725363403559,0.17311495542526245,-0.32715362310409546,-0.08995773643255234,-0.08239813894033432,-0.119423046708107,-0.09596007317304611,0.037813425064086914,-0.15932443737983704,-0.22801101207733154,-0.4736209809780121,-0.025308124721050262,-0.055087391287088394,-0.04274540767073631,-0.0392938032746315,0.12918856739997864,0.06581707298755646,-0.0724874958395958,0.018317509442567825,0.12167281657457352,0.06044963747262955,-0.0687645822763443,-0.006637515500187874,-0.3614045977592468,0.02326025441288948],[0.14813421666622162,-0.035235583782196045,-0.08375462144613266,0.3495836853981018,-0.07553287595510483,0.08850393444299698,0.17403583228588104,0.27334505319595337,0.48896652460098267,-0.16400665044784546,-0.28463053703308105,0.4050883948802948,0.11091019958257675,-0.11548656970262527,-0.3161619305610657,0.19665436446666718,0.4970807433128357,-0.2403547167778015,-0.05814038962125778,-0.03206390142440796,0.07642833888530731,-0.027803238481283188,0.13528242707252502,-0.0236232690513134,0.1312864124774933,0.010907263495028019,-0.30384811758995056,0.06662741303443909,-0.4307688772678375,-0.22646957635879517,-0.26217466592788696,0.12281303852796555,0.03276607766747475,-0.3293408751487732,0.16081032156944275,-0.025598324835300446,-0.11844076216220856,0.19112399220466614,0.04591257870197296,-0.1133866235613823,0.015446311794221401,-0.4164240062236786,-0.3833666443824768,0.3244604468345642,0.2148027867078781,-0.044456545263528824,0.3150953948497772,-0.24228280782699585,0.06728381663560867,-0.18335336446762085,-0.28361910581588745,0.033927302807569504,0.4321754276752472,-0.03034079633653164,0.21378137171268463,0.00008173755486495793,-0.15524376928806305,0.08817350119352341,0.31995657086372375,-0.044062186032533646,0.10727615654468536,0.31231486797332764,-0.04713280871510506,-0.4606960713863373,-0.17963287234306335,-0.24936024844646454,-0.35516417026519775,-0.21683871746063232,0.14154450595378876,-0.225800022482872,-0.4318371117115021,-0.17234544456005096,-0.0642818734049797,-0.11214905977249146,0.36851879954338074,0.06808941811323166,-0.23041574656963348,0.1867310255765915,-0.04223208874464035,-0.010091654025018215,0.15280835330486298,-0.25964412093162537,-0.272472083568573,-0.08167234808206558,-0.34125709533691406,0.039837345480918884,0.17175230383872986,0.18081937730312347,0.03198286145925522,-0.1326054483652115,0.2547275125980377,-0.03883056715130806,0.16596493124961853,-0.11743775755167007,-0.03954070806503296,-0.13334067165851593,0.2148553878068924,0.4297623932361603,-0.10270342975854874,-0.0769176110625267,-0.2846703827381134,0.20571084320545197,0.17661961913108826,-0.007333642337471247,0.13819573819637299,0.4029446840286255,-0.17478236556053162,0.10919542610645294,-0.2762735188007355,-0.22820858657360077,0.051232755184173584,0.27299419045448303,0.14044314622879028,-0.3262341618537903,-0.319804310798645,0.10846535861492157,-0.1851014792919159,-0.23709452152252197,-0.22923512756824493,0.22083672881126404,0.3674955368041992,0.07496296614408493,0.19013312458992004,0.2104879468679428,0.17301364243030548,0.4974087178707123,0.06426496058702469,-0.29427245259284973],[-0.05668051540851593,-0.03507804498076439,-0.22673305869102478,-0.1916048228740692,-0.1821865439414978,0.019375676289200783,0.18647325038909912,-0.23729127645492554,0.04491059109568596,-0.18014684319496155,-0.05722728371620178,0.07142467796802521,-0.045403044670820236,0.06705339252948761,-0.31813138723373413,0.06614881753921509,0.028699884191155434,-0.03209758922457695,0.03407267481088638,-0.07037459313869476,0.08297717571258545,-0.030329395085573196,0.23057597875595093,-0.0592830628156662,-0.06912194937467575,-0.0010464638471603394,-0.2680569887161255,-0.2364979386329651,-0.012286962009966373,-0.16768179833889008,-0.06738170236349106,-0.0375448539853096,-0.030653582885861397,-0.16695567965507507,0.13324420154094696,0.013177835382521152,0.16029991209506989,0.10335168987512589,0.08028926700353622,-0.08378251641988754,0.04281574487686157,-0.019811224192380905,-0.15871071815490723,-0.26103368401527405,-0.1286720633506775,0.2968938946723938,0.007957161404192448,-0.052281882613897324,-0.08058000355958939,0.1790444403886795,0.07335225492715836,0.1823011189699173,-0.028925133869051933,-0.0977001041173935,-0.03011198155581951,0.2156534045934677,0.031164785847067833,-0.111397884786129,0.17025244235992432,-0.011041518300771713,-0.11466854810714722,0.05022025853395462,0.059618521481752396,-0.16906441748142242,0.04456385597586632,0.05312592163681984,0.08246041089296341,-0.18816962838172913,0.012154764495790005,-0.010116949677467346,-0.1257161945104599,-0.13227462768554688,-0.10066568106412888,-0.059455450624227524,-0.12370532006025314,-0.18379423022270203,0.18930451571941376,-0.12361285090446472,-0.09370192140340805,0.07599274814128876,-0.14385634660720825,-0.08585181832313538,0.047203000634908676,0.28436729311943054,-0.2357557713985443,-0.10502374917268753,0.28166067600250244,-0.11540114879608154,0.004648350644856691,-0.03390045836567879,-0.09332434833049774,0.19694583117961884,-0.12847021222114563,-0.15705615282058716,0.26314622163772583,0.132420614361763,-0.14197027683258057,0.09919994324445724,0.08051586896181107,0.0028742460999637842,0.12913638353347778,-0.03394759073853493,-0.0528038926422596,-0.07102122902870178,0.02534445747733116,0.017040470615029335,-0.193201944231987,-0.20256927609443665,0.0787166878581047,0.027550434693694115,-0.06491054594516754,-0.16634905338287354,0.10295774042606354,0.026706380769610405,0.0649845078587532,-0.2330297976732254,-0.05558066442608833,0.0480344258248806,-0.05731934309005737,0.000988809042610228,-0.019616099074482918,0.24529720842838287,0.24109463393688202,-0.06850339472293854,0.3491225838661194,-0.22821266949176788,0.07772882282733917,-0.024210724979639053],[0.2956048548221588,-0.2021564543247223,-0.12450794130563736,0.10223522037267685,-0.13603131473064423,-0.03484947606921196,-0.04795708879828453,0.10966973751783371,-0.1614595353603363,-0.051401056349277496,-0.1755608469247818,-0.16837100684642792,0.30443283915519714,-0.0915539339184761,-0.202922523021698,0.23892538249492645,-0.0188139658421278,-0.17895779013633728,-0.08155570924282074,-0.0421849749982357,-0.09791458398103714,-0.04593310132622719,-0.10552378743886948,0.008445833809673786,-0.43619611859321594,-0.24256479740142822,-0.1041683629155159,-0.20139500498771667,0.2172093689441681,-0.2674289643764496,-0.040491025894880295,0.06711303442716599,-0.11354657262563705,-0.025239570066332817,-0.3156191408634186,0.11020275950431824,0.28632625937461853,0.37951940298080444,0.31137949228286743,0.20380999147891998,-0.3033446967601776,0.2827748954296112,0.13425934314727783,-0.14540305733680725,-0.011528687551617622,-0.11994166672229767,-0.10579486191272736,0.21802687644958496,0.03384609892964363,-0.014821738004684448,0.2769954204559326,-0.011978965252637863,-0.12237226963043213,0.5582796335220337,-0.30662134289741516,-0.1503136157989502,0.1368725597858429,-0.000409104919526726,-0.008295669220387936,0.23321963846683502,-0.009896245785057545,-0.005234249867498875,-0.17963428795337677,-0.17062194645404816,-0.2373601794242859,0.02403184026479721,0.051591869443655014,-0.157049298286438,0.05103595182299614,-0.1287054866552353,0.14843758940696716,0.042711224406957626,0.07295648008584976,-0.21200725436210632,0.09793238341808319,0.04468874633312225,0.05946769937872887,-0.1631193459033966,-0.16439127922058105,0.10149554163217545,-0.14467953145503998,-0.2137194126844406,0.1292993724346161,-0.07325498759746552,0.2934849262237549,0.06737460196018219,0.06456009298563004,0.07949758321046829,0.16704575717449188,0.1938764750957489,0.10197638720273972,0.06733269989490509,-0.2575570046901703,-0.2606562674045563,0.00008484037971356884,0.11485738307237625,-0.07742840051651001,0.4432826340198517,-0.12350428104400635,0.04693188518285751,0.010836194269359112,-0.2087796926498413,-0.29356688261032104,-0.09288796782493591,0.048683710396289825,-0.19485026597976685,-0.12819117307662964,-0.07526189833879471,0.05719674006104469,-0.24747951328754425,0.04424993693828583,0.02759378030896187,0.00910798367112875,-0.5147565603256226,0.005149548873305321,-0.10233573615550995,-0.12256334722042084,0.007715200074017048,-0.28286468982696533,-0.30443981289863586,-0.14886066317558289,0.19047319889068604,-0.06940406560897827,-0.3291768431663513,-0.08194585144519806,-0.2156497687101364,-0.17892904579639435,0.20602935552597046],[-0.10468915104866028,-0.018141549080610275,0.01663048379123211,0.12666931748390198,0.1404981166124344,0.019333552569150925,0.08864951878786087,0.4653264880180359,-0.1078643947839737,0.02769019454717636,-0.3500949740409851,0.3508509397506714,0.16922086477279663,-0.49839410185813904,-0.07398395240306854,0.21842826902866364,0.22240161895751953,-0.23671568930149078,0.02152090147137642,-0.004441544879227877,0.0039342958480119705,0.3399306833744049,-0.0026850546710193157,-0.1434495747089386,-0.07421237230300903,0.10929591208696365,-0.21440911293029785,0.1139448955655098,-0.3191867172718048,-0.20760147273540497,0.112997867166996,-0.007697036489844322,0.2767266035079956,-0.2852332592010498,0.09657589346170425,-0.19867809116840363,-0.035577934235334396,0.05946137011051178,-0.19268344342708588,-0.055074580013751984,0.17829197645187378,-0.19891907274723053,-0.24876293540000916,0.29931342601776123,0.42222046852111816,0.13318581879138947,0.47017064690589905,-0.3262331783771515,-0.008393016643822193,-0.2768082916736603,-0.21056891977787018,-0.0058479611761868,0.7342709302902222,0.20135942101478577,0.1401190161705017,-0.09969402104616165,-0.11657098680734634,-0.08605924248695374,0.5781110525131226,-0.018868843093514442,-0.030951566994190216,0.20132198929786682,-0.1438104510307312,-0.3441959619522095,-0.2546766400337219,-0.0020523415878415108,-0.3167767822742462,-0.22280855476856232,-0.0861353799700737,-0.1627582162618637,-0.23858985304832458,-0.5403141975402832,-0.05323142558336258,-0.028266726061701775,0.24083930253982544,-0.07354868203401566,0.003805417800322175,0.17261545360088348,0.09827375411987305,0.09798479080200195,0.27644190192222595,-0.09660805016756058,-0.30355390906333923,-0.17301017045974731,-0.23392878472805023,0.4264537990093231,-0.05599827691912651,0.164409339427948,0.1721125692129135,-0.012351441197097301,0.5699366927146912,0.029939744621515274,-0.004600358661264181,-0.23575085401535034,-0.2425561398267746,-0.14061762392520905,0.09833592176437378,0.36944690346717834,-0.12291508167982101,-0.20533610880374908,-0.25502893328666687,0.2664569020271301,0.14852000772953033,0.022507382556796074,0.1020912304520607,0.6118866205215454,-0.23919838666915894,0.19411489367485046,-0.2655751705169678,-0.2955150306224823,-0.030134201049804688,0.08325831592082977,0.08626656234264374,-0.2767963707447052,-0.1635686159133911,0.28858205676078796,-0.1420411616563797,-0.1383848637342453,-0.2974799871444702,0.3407526910305023,0.5774598121643066,-0.004975290969014168,0.07874610275030136,-0.016233239322900772,-0.14867550134658813,0.44249460101127625,0.4078253507614136,-0.40940403938293457],[-0.13193528354167938,0.2907409071922302,-0.006828170735388994,-0.022279582917690277,-0.24797587096691132,0.05369942635297775,0.15832369029521942,-0.24030430614948273,0.026386862620711327,0.27569836378097534,-0.2587863504886627,0.2503868043422699,-0.2317330688238144,0.0939992293715477,-0.10973075777292252,0.044799573719501495,-0.04481220617890358,0.19404885172843933,0.06065930053591728,-0.16522909700870514,0.06329195201396942,0.025360755622386932,0.3015119135379791,0.17308616638183594,0.12090343236923218,-0.11782883107662201,-0.2972589433193207,0.062253452837467194,-0.025662099942564964,0.12456206232309341,0.0576985664665699,0.13045428693294525,0.24524998664855957,-0.036105770617723465,0.2651459276676178,0.044942498207092285,-0.05891694128513336,-0.3607722818851471,-0.15999257564544678,0.1563480645418167,0.020769130438566208,-0.13959981501102448,-0.00978362187743187,-0.031027810648083687,-0.0038080604281276464,0.2972979247570038,-0.002268662443384528,-0.3582703173160553,-0.3159136176109314,0.16282394528388977,-0.015892524272203445,0.1749815046787262,0.22445432841777802,0.056054506450891495,0.24490544199943542,-0.20816774666309357,-0.13192419707775116,0.1203283742070198,0.22930540144443512,0.27898576855659485,-0.38455596566200256,-0.00633666617795825,-0.04910644516348839,-0.017116358503699303,-0.016288258135318756,0.06367762386798859,-0.09377200901508331,-0.17366346716880798,-0.14534896612167358,0.013727583922445774,-0.3258514404296875,0.18025244772434235,-0.0905398577451706,0.18946734070777893,-0.3206595182418823,-0.1804434061050415,0.4207732081413269,-0.23348703980445862,0.07952313870191574,0.15804119408130646,-0.06688012182712555,0.04574297368526459,-0.08537796139717102,0.20113340020179749,-0.30627384781837463,0.060721490532159805,0.13769899308681488,-0.3398832082748413,0.14093776047229767,-0.08578880876302719,0.09862323105335236,-0.062253665179014206,-0.03984370827674866,0.0817541554570198,-0.0666595920920372,0.0355127714574337,-0.34162724018096924,-0.027224550023674965,-0.1154993548989296,-0.17360912263393402,-0.08023279905319214,-0.08114703744649887,0.21877048909664154,0.1202227920293808,-0.09968274086713791,-0.0834803506731987,0.21727079153060913,-0.250805526971817,-0.0001781930768629536,0.10674694180488586,-0.02829822339117527,-0.22228729724884033,-0.2177978754043579,0.13312005996704102,0.03498537465929985,0.05391094088554382,-0.26680025458335876,-0.10183102637529373,-0.05212942883372307,0.2893509268760681,0.16655084490776062,0.20234334468841553,0.1510763317346573,0.11871753633022308,0.23708482086658478,0.06593197584152222,0.001362987095490098,-0.22220532596111298],[-0.08781479299068451,-0.06533809751272202,0.021632736548781395,0.07894980162382126,0.11328920722007751,0.07622187584638596,0.19768355786800385,-0.20689350366592407,-0.31458351016044617,-0.08891615271568298,-0.14918652176856995,-0.012209850363433361,0.3364168703556061,-0.13576269149780273,-0.2617225646972656,0.27043721079826355,-0.029018783941864967,-0.35661235451698303,0.047062501311302185,0.10939836502075195,0.1747443825006485,-0.07162150740623474,0.08212044835090637,0.39739277958869934,-0.10773645341396332,-0.016350464895367622,-0.26364922523498535,-0.1336500495672226,-0.1679341048002243,-0.29816409945487976,-0.3378247320652008,0.030066968873143196,-0.10041938722133636,0.16558338701725006,0.07230531424283981,0.15690095722675323,0.1033254936337471,0.036272305995225906,0.16491259634494781,-0.009700870141386986,-0.04652029648423195,0.016354892402887344,0.1703525334596634,-0.19695910811424255,0.11840634047985077,0.03896594047546387,0.057456742972135544,0.07447807490825653,-0.21409271657466888,0.03967474400997162,0.14594542980194092,0.17560827732086182,-0.12494362890720367,0.3643830716609955,-0.02109578624367714,-0.18171188235282898,0.19793875515460968,0.021274808794260025,-0.22393737733364105,0.04787427559494972,-0.0271915253251791,-0.081951804459095,-0.21162238717079163,-0.135358065366745,-0.15669037401676178,-0.02140927128493786,-0.004844544921070337,-0.11996816843748093,-0.05154486000537872,-0.1920928657054901,-0.06923966109752655,-0.05360476300120354,-0.0014224963961169124,-0.24935948848724365,0.0017059061210602522,0.04653143137693405,0.16471855342388153,-0.18179480731487274,-0.21317264437675476,0.4011768102645874,-0.23573791980743408,-0.1693754643201828,0.2829349935054779,-0.08002661168575287,0.09425335377454758,-0.15561935305595398,-0.1025301069021225,0.14068031311035156,0.18768620491027832,0.07380449771881104,0.045033279806375504,0.165370374917984,0.016407765448093414,-0.14540326595306396,-0.03476385027170181,0.1902589499950409,0.07913901656866074,0.38746437430381775,0.1724146455526352,0.04410325735807419,0.10341359674930573,-0.09507978707551956,-0.15577039122581482,-0.12601248919963837,0.13048332929611206,-0.29712802171707153,-0.09408120065927505,0.02734728343784809,0.13858939707279205,-0.2790761888027191,0.35134875774383545,0.23617200553417206,0.17787481844425201,-0.36560332775115967,-0.1802813559770584,-0.19061748683452606,-0.24708077311515808,-0.011874097399413586,-0.42410406470298767,0.022740531712770462,0.07638764381408691,0.20255813002586365,0.0022339506540447474,-0.22735734283924103,-0.009853358380496502,-0.01714835688471794,-0.37555330991744995,0.18645434081554413],[-0.3275403380393982,-0.05353683978319168,-0.11309683322906494,0.06932664662599564,-0.02249949984252453,-0.18451876938343048,0.007115575950592756,0.4325568675994873,-0.20396099984645844,-0.27052319049835205,-0.05627254396677017,0.20266424119472504,-0.259466290473938,-0.274519145488739,0.08297695219516754,-0.08108396083116531,0.17475739121437073,-0.22905614972114563,-0.1721149981021881,0.13271895051002502,0.003556392155587673,0.6310510039329529,-0.0017099932301789522,-0.13473427295684814,0.22226592898368835,0.19354519248008728,-0.3456842601299286,0.13048897683620453,-0.34255310893058777,-0.18715688586235046,0.03739972785115242,-0.24141135811805725,0.218506321310997,-0.10039450228214264,-0.018334273248910904,-0.3858228027820587,0.003752197604626417,0.05388263985514641,-0.1854349672794342,-0.3988874852657318,0.18062596023082733,-0.44492393732070923,-0.26406410336494446,0.23044270277023315,0.19178380072116852,-0.10428570210933685,0.3120614290237427,-0.5448797345161438,-0.045436687767505646,-0.4615504741668701,-0.34023618698120117,-0.1925022304058075,0.8951507210731506,0.04475105181336403,0.31727591156959534,-0.3242027759552002,-0.301672101020813,-0.3247339427471161,0.674830436706543,-0.15164166688919067,0.38238275051116943,0.37695032358169556,-0.06991854310035706,-0.19206003844738007,0.09280704706907272,-0.12260524183511734,-0.3276471197605133,-0.16586896777153015,0.11725307255983353,-0.11612977087497711,-0.32260626554489136,-0.6707067489624023,-0.0008767696563154459,-0.10142363607883453,0.29951047897338867,-0.08084548264741898,-0.21599413454532623,0.35085517168045044,0.08993890881538391,0.08291012793779373,0.04582349583506584,-0.025029746815562248,-0.10757999122142792,0.05317024886608124,-0.29725638031959534,0.3118869960308075,0.08063962310552597,0.10623430460691452,-0.11996142566204071,0.08997392654418945,0.3859749436378479,-0.11611319333314896,0.19088385999202728,0.03947018086910248,-0.4077666401863098,-0.11982177197933197,0.20944249629974365,0.2759537398815155,-0.17103387415409088,-0.20368227362632751,-0.34053555130958557,0.3651820719242096,-0.02782192826271057,-0.1213429719209671,0.10626653581857681,0.6750425100326538,-0.36009371280670166,0.26290780305862427,-0.5261529088020325,-0.23422826826572418,0.12582707405090332,0.011105149053037167,0.0568106435239315,0.023343060165643692,-0.3661516308784485,0.22343580424785614,0.007477442733943462,-0.20990778505802155,-0.023790419101715088,0.31605011224746704,0.3117164373397827,-0.32397162914276123,0.04174637049436569,0.07229521125555038,0.06606706231832504,0.6032955646514893,0.5792720317840576,-0.12800677120685577],[-0.1644534170627594,0.14902201294898987,0.2517181634902954,0.0014869940932840109,-0.15461981296539307,0.24335530400276184,0.23685584962368011,-0.12627170979976654,-0.050939470529556274,-0.15503881871700287,-0.03283543884754181,0.3042733073234558,-0.352456271648407,0.10024188458919525,0.05466396361589432,-0.22569693624973297,-0.013867674395442009,0.17102760076522827,0.0763765349984169,-0.29032403230667114,0.06358032673597336,0.10124562680721283,0.10151418298482895,0.002279861131682992,-0.21045026183128357,-0.0985419824719429,-0.06378378719091415,-0.014968079514801502,0.06089100241661072,0.16168007254600525,0.44572913646698,0.267904669046402,0.05894181504845619,0.2618757486343384,0.4303835332393646,-0.21790356934070587,-0.17107363045215607,-0.39410898089408875,-0.15076565742492676,-0.12231247872114182,0.11831380426883698,-0.2917713224887848,-0.2697273790836334,0.08247952163219452,0.11828218400478363,-0.053843770176172256,-0.03858543187379837,-0.32145559787750244,-0.26634591817855835,0.15649908781051636,-0.09228364378213882,0.023073969408869743,0.2531474232673645,0.14263473451137543,0.06443140655755997,-0.24967403709888458,-0.2459329217672348,0.21638663113117218,0.20100337266921997,0.056681737303733826,-0.26902925968170166,-0.04139519855380058,0.34849628806114197,0.30964040756225586,-0.037794146686792374,-0.07958772778511047,-0.17988640069961548,0.23013469576835632,-0.09190532565116882,0.24370642006397247,-0.18596510589122772,0.03805923089385033,-0.08932135254144669,0.005876220762729645,-0.18239791691303253,0.004826175980269909,-0.1253993660211563,-0.21608956158161163,0.18267285823822021,0.007226200774312019,-0.09565716236829758,0.04441265016794205,-0.3550828695297241,0.2459065318107605,-0.20051351189613342,-0.11456868052482605,0.1640751212835312,-0.16500580310821533,-0.23854583501815796,0.008401906117796898,-0.16922639310359955,-0.1063343733549118,0.13977459073066711,0.17766746878623962,-0.09307454526424408,-0.09249561280012131,0.17223773896694183,0.14240123331546783,-0.1397101879119873,0.12263145297765732,-0.10223841667175293,-0.10163410753011703,0.2134927213191986,0.18093687295913696,-0.34586745500564575,-0.15097664296627045,0.35269156098365784,-0.1500159502029419,-0.016854938119649887,0.32898813486099243,-0.2248799204826355,-0.17012716829776764,-0.32701408863067627,0.13089337944984436,-0.1690087616443634,0.12557949125766754,0.09208432585000992,-0.13176418840885162,0.4794829189777374,0.21777866780757904,0.25757333636283875,-0.3310554027557373,0.1765514761209488,0.3201354742050171,0.15896105766296387,0.1500435769557953,0.2747056186199188,-0.29316604137420654],[-0.15962867438793182,-0.10780303180217743,0.1701347678899765,0.05655629560351372,0.10124082118272781,0.09172243624925613,0.05008796975016594,-0.07998701930046082,-0.2818109691143036,0.046409737318754196,-0.0741339698433876,0.1873464733362198,0.16791464388370514,-0.25924932956695557,0.018386535346508026,0.10524266958236694,0.08875444531440735,0.015902642160654068,-0.25957009196281433,0.023575305938720703,0.14872220158576965,-0.08618732541799545,-0.10005497932434082,