{"model_type":"mlp","input_size":63,"labels":["A","B","C","D","E","F","G","H","I","K","L","N","O","P","Q","S","T","U","V","W","X","Y"],"layers":[{"name":"dense_Dense1","input_size":63,"output_size":128,"activation":"relu","weights":[[0.0438433475792408,-0.1285638064146042,-0.026211583986878395,0.07043083757162094,-0.08024975657463074,0.10030669718980789,0.02718759886920452,0.16734614968299866,0.043180983513593674,-0.05554313212633133,0.06668102741241455,0.08825815469026566,0.11601576954126358,-0.09496895223855972,-0.04366837441921234,-0.029587486758828163,0.14151552319526672,0.10153934359550476,-0.12919624149799347,-0.08274044096469879,0.06216605380177498,0.0607353076338768,0.19384180009365082,0.19651983678340912,-0.008772021159529686,0.14423157274723053,0.011259694583714008,-0.008406933397054672,-0.18649932742118835,0.20109574496746063,-0.11348841339349747,-0.09119502454996109,0.19480298459529877,-0.08140160143375397,0.11521801352500916,0.16608573496341705,0.05597886070609093,-0.13788381218910217,-0.04869003966450691,0.1302594393491745,0.036484867334365845,-0.10774745792150497,0.0029061937239021063,-0.025795185938477516,-0.07773583382368088,0.010819044895470142,-0.08619125932455063,0.13083189725875854,-0.02923966571688652,-0.11965639144182205,0.01615474745631218,-0.04610717296600342,0.0028088735416531563,0.11868906766176224,-0.06868982315063477,0.022974077612161636,-0.04324771836400032,0.10352790355682373,-0.05368858575820923,0.010995388962328434,0.03152221441268921,-0.044171418994665146,-0.05802606791257858,0.08962304890155792,0.11078568547964096,-0.08876527100801468,-0.05605286732316017,0.0076990630477666855,-0.19706639647483826,-0.08263736963272095,-0.05153705179691315,0.010042869485914707,-0.07587110996246338,0.023181157186627388,0.0917765349149704,-0.029219750314950943,-0.03512249514460564,0.008166207000613213,0.12573696672916412,0.0031055384315550327,-0.12741845846176147,-0.044233329594135284,-0.20362763106822968,0.10238103568553925,0.0954144224524498,-0.10153409093618393,-0.10106454789638519,0.038419339805841446,0.16323408484458923,-0.07304923236370087,0.055555470287799835,0.11259588599205017,-0.058866195380687714,-0.08436067402362823,-0.03176795691251755,-0.044377103447914124,-0.1956731081008911,0.06326320022344589,0.1716240644454956,0.025617413222789764,-0.018721017986536026,0.08524415642023087,0.045416396111249924,-0.028783414512872696,-0.019375324249267578,-0.042737361043691635,0.03644352778792381,-0.029307859018445015,0.006654446478933096,-0.07313604652881622,0.051585253328084946,-0.17230835556983948,0.00233973516151309,0.005788611713796854,0.06895226985216141,0.12047643214464188,0.07314455509185791,-0.004853108432143927,0.16825799643993378,0.1296771913766861,0.005572099704295397,-0.13338974118232727,0.13674326241016388,-0.003316792892292142,0.13337275385856628,-0.0316702164709568,0.15943089127540588,0.07316556572914124],[-0.060297660529613495,-0.05748214200139046,0.03133007511496544,0.1332332044839859,0.18016093969345093,-0.1138201579451561,-0.09119032323360443,-0.11528511345386505,-0.1837119609117508,0.03857116028666496,-0.07614350318908691,0.0035950415767729282,-0.029462620615959167,0.03699808940291405,0.11563523858785629,0.10931457579135895,-0.1433124840259552,-0.06655341386795044,0.035958562046289444,-0.08773506432771683,0.11332627385854721,0.0906071811914444,0.07020911574363708,-0.06886537373065948,0.10109861940145493,0.08222207427024841,-0.11666228622198105,-0.02277727797627449,-0.010380224324762821,-0.17162759602069855,-0.0977783203125,-0.02443041279911995,-0.15940676629543304,-0.18388113379478455,-0.1989344358444214,-0.0989358127117157,-0.08342309296131134,-0.019413039088249207,0.004558790009468794,0.15464875102043152,0.0799340158700943,-0.0862661600112915,-0.10312864184379578,-0.133457213640213,-0.11106233298778534,0.10369639843702316,0.0013165413402020931,-0.15681084990501404,0.15902812778949738,0.12187709659337997,-0.09712011367082596,0.057696934789419174,0.1698448359966278,0.10487683862447739,0.04112168028950691,0.07229874283075333,-0.10205776244401932,-0.07193969935178757,0.00756131112575531,0.0074915955774486065,-0.04472185671329498,-0.1402008831501007,0.0034003721084445715,0.15686661005020142,-0.04759833216667175,0.027436112985014915,0.14584152400493622,0.04903169348835945,-0.030145172029733658,-0.0322517491877079,0.0819069892168045,0.01054668240249157,0.11880777776241302,-0.06517362594604492,0.07924596220254898,0.010253533720970154,0.12342403084039688,0.01017150841653347,-0.08111229538917542,0.1384405940771103,-0.022226398810744286,-0.11826598644256592,0.04689415544271469,-0.05158941447734833,0.14807865023612976,0.03380635380744934,0.09393122792243958,0.15125560760498047,0.07556821405887604,-0.04160338267683983,-0.09010501205921173,-0.0847986489534378,-0.06254726648330688,-0.001436405349522829,0.031748514622449875,0.09451399743556976,-0.025331104174256325,0.10198883712291718,0.09599403291940689,0.020358121022582054,-0.04444235563278198,0.003550275694578886,0.1245562955737114,0.056651923805475235,-0.04064551368355751,-0.10464590042829514,-0.11506188660860062,-0.000013887106433685403,-0.0016402939800173044,-0.04925047606229782,-0.039109233766794205,-0.0009839868871495128,0.029300570487976074,-0.025112787261605263,-0.0015558942686766386,-0.05771481245756149,-0.08018273115158081,-0.12478673458099365,0.043201833963394165,-0.09686532616615295,-0.06387360394001007,-0.19886940717697144,-0.08786971122026443,0.11790265142917633,-0.11259740591049194,0.10095853358507156,0.02745922841131687,0.08899707347154617],[-0.011402677744626999,0.08795402944087982,0.011006924323737621,0.07527337968349457,0.18370673060417175,-0.06956297904253006,-0.01690858229994774,-0.0637156069278717,0.03558781370520592,0.07944352179765701,-0.03295494616031647,-0.08203405141830444,0.1923345923423767,0.06986000388860703,-0.04010164365172386,-0.15476171672344208,-0.10116402059793472,0.012974700890481472,0.1282297521829605,0.009861331433057785,-0.1187533512711525,-0.004684449173510075,-0.07649242132902145,0.030821993947029114,-0.020646829158067703,-0.08210229128599167,-0.102394238114357,-0.01742376945912838,-0.030259693041443825,0.09095462411642075,0.008751862682402134,-0.043802447617053986,0.08888570219278336,0.19168245792388916,0.09925524145364761,-0.1730176955461502,-0.03359221667051315,0.0227060467004776,-0.1738997995853424,-0.08706527948379517,-0.0226016566157341,-0.060973890125751495,0.03438476100564003,0.08440547436475754,0.03428215906023979,0.04312031716108322,0.0672333762049675,-0.14567087590694427,-0.1210848018527031,-0.14381727576255798,-0.003017506329342723,0.07277172803878784,-0.07540350407361984,0.014381526969373226,0.16176466643810272,-0.0026774017605930567,-0.10100305825471878,-0.20068413019180298,0.023541051894426346,-0.0014941731933504343,0.12167812138795853,-0.08204255253076553,-0.06502223014831543,0.13810665905475616,-0.20121149718761444,-0.07936949282884598,-0.07345065474510193,-0.14706359803676605,-0.026592373847961426,-0.07284166663885117,0.018582597374916077,0.1090293824672699,-0.03495769947767258,-0.05061096325516701,-0.0517234206199646,-0.06448587775230408,-0.009810416027903557,0.11686099320650101,-0.04287247359752655,-0.023510238155722618,-0.01591022126376629,0.07031897455453873,-0.04639102518558502,-0.011989057995378971,0.07685267925262451,-0.11293340474367142,0.13865366578102112,-0.033868007361888885,0.10455065965652466,-0.17822816967964172,-0.06327643990516663,-0.06298252940177917,0.08163314312696457,0.055306609719991684,-0.04102570563554764,0.1519259661436081,0.08452881872653961,0.03771860525012016,0.041523344814777374,-0.03204216808080673,-0.04592859372496605,-0.0852121040225029,0.010544014163315296,0.0546618215739727,-0.18623825907707214,0.07410649955272675,-0.013194920495152473,-0.05681193247437477,0.06075477600097656,-0.08396431058645248,-0.17393876612186432,0.015882227569818497,0.06955411285161972,-0.19219225645065308,-0.09282476454973221,-0.06254175305366516,-0.1387646198272705,0.1976836770772934,-0.07416890561580658,-0.02789802849292755,-0.023225149139761925,0.1593945026397705,0.01764441467821598,0.09844429790973663,-0.0452846959233284,-0.15246060490608215,0.11094731837511063,0.16170920431613922],[-0.0032453108578920364,-0.3672398626804352,0.23974157869815826,0.17183390259742737,-0.03499743714928627,0.0180189311504364,-0.12166549265384674,0.15514230728149414,0.16783615946769714,-0.20412996411323547,-0.335662841796875,-0.042434755712747574,-0.07526739686727524,-0.17010295391082764,0.17982999980449677,0.11985348165035248,0.1996888369321823,-0.1345434933900833,0.23026449978351593,-0.061664603650569916,0.04881202429533005,-0.17706669867038727,0.18442849814891815,0.01188575942069292,0.18618954718112946,0.1295757293701172,-0.03617961332201958,-0.07601951062679291,0.007607916835695505,0.12765459716320038,0.05094970390200615,0.03649047762155533,-0.11331148445606232,0.12854473292827606,-0.167205810546875,0.33529719710350037,0.051539573818445206,0.07205912470817566,-0.20284481346607208,0.2045399695634842,-0.1889098435640335,0.06547034531831741,-0.08009296655654907,-0.006845678668469191,-0.005656654946506023,-0.06899946928024292,0.09767607599496841,-0.02962711825966835,0.1775067150592804,-0.11402813345193863,-0.01638328656554222,-0.04713611304759979,0.0071132611483335495,0.10814881324768066,-0.14885836839675903,0.08423174917697906,0.010600946843624115,-0.14210082590579987,-0.10579054802656174,-0.000993151217699051,0.08801179379224777,-0.07254422456026077,0.26653358340263367,-0.1647685021162033,0.05562106892466545,-0.04430580139160156,0.11802320927381516,-0.16297262907028198,-0.019253410398960114,0.16290800273418427,0.08181139826774597,-0.059713684022426605,0.07889991253614426,0.09494756162166595,-0.2306332141160965,-0.07543644309043884,-0.3430338501930237,0.2637283205986023,0.13778690993785858,0.17305676639080048,-0.2579011023044586,-0.06564725190401077,0.038544025272130966,-0.17262932658195496,0.03213494271039963,0.06241193041205406,0.2589212656021118,-0.013477982953190804,0.15300235152244568,-0.04410317912697792,-0.03248924762010574,-0.12671628594398499,-0.14220604300498962,0.14141207933425903,-0.22191102802753448,-0.14901380240917206,-0.17543217539787292,0.11879456043243408,-0.21419303119182587,-0.3002696633338928,0.1792219579219818,-0.32898378372192383,0.049155279994010925,-0.2633219063282013,-0.0017211376689374447,0.06638255715370178,-0.11217939108610153,0.008923394605517387,-0.13433663547039032,-0.11996544152498245,-0.22075587511062622,0.0357375331223011,-0.25739097595214844,-0.026780348271131516,0.022398998960852623,0.21505866944789886,-0.11543001979589462,-0.1407461017370224,-0.07757189869880676,-0.15191048383712769,0.18354631960391998,-0.20723432302474976,0.2933443486690521,0.2151804268360138,-0.15012489259243011,0.005248778499662876,0.061418138444423676,-0.1419800966978073],[0.04943186789751053,-0.17805543541908264,0.11003563553094864,0.5335289239883423,0.11196983605623245,-0.11430278420448303,-0.09706752747297287,0.28915005922317505,-0.13159815967082977,-0.09572497755289078,0.24508008360862732,0.3355235159397125,0.03389301151037216,0.10086705535650253,0.11735259741544724,0.17145098745822906,0.01764155551791191,0.006437663920223713,0.26841726899147034,-0.07966618239879608,-0.12193988263607025,-0.24689358472824097,-0.05696390941739082,-0.17304980754852295,0.014385920949280262,0.3454488515853882,0.08174701780080795,-0.29885053634643555,0.09100710600614548,0.07799908518791199,-0.21036159992218018,0.3284318447113037,-0.21297653019428253,-0.14411482214927673,-0.09360731393098831,-0.13637381792068481,-0.3078724443912506,0.17002220451831818,0.1854054182767868,-0.24774743616580963,0.18918657302856445,-0.2163209766149521,0.08580919355154037,0.15492725372314453,-0.06704466789960861,0.07862337678670883,0.35871708393096924,0.0163918137550354,-0.2437613159418106,-0.17145313322544098,0.11736038327217102,0.1215035542845726,-0.0413258858025074,-0.005197410937398672,-0.2964724600315094,0.05651205778121948,0.29288041591644287,-0.02413383312523365,-0.04320310428738594,0.015003775246441364,0.024515528231859207,-0.058375608175992966,0.34400075674057007,-0.15795770287513733,-0.08680472522974014,-0.25180336833000183,0.08256673812866211,-0.06921544671058655,-0.1995728313922882,-0.3440733551979065,-0.4945720136165619,-0.06373489648103714,0.1356474608182907,-0.16562366485595703,0.3150946795940399,0.04508798569440842,-0.16897577047348022,0.285582572221756,0.20820148289203644,-0.017042458057403564,-0.008390826173126698,-0.11527351289987564,0.13873985409736633,0.12443133443593979,-0.2864617705345154,0.1396663635969162,0.09464599192142487,0.2142103910446167,-0.1591074913740158,0.10739200562238693,0.11652708053588867,0.19567319750785828,0.12782077491283417,-0.12577208876609802,-0.667706310749054,-0.4427686035633087,-0.3693157434463501,0.41258275508880615,-0.1277899593114853,-0.1779453605413437,-0.23895670473575592,0.07191550731658936,-0.05983085185289383,-0.1695186197757721,0.04198634624481201,0.13962361216545105,0.08404833823442459,0.17311394214630127,-0.021507015451788902,-0.0036968581844121218,-0.20620617270469666,-0.033010974526405334,0.10823670029640198,0.08702898770570755,-0.10381262004375458,-0.045497920364141464,-0.18304352462291718,-0.07349739968776703,0.22154566645622253,0.22226740419864655,-0.3876968324184418,0.21441879868507385,-0.2532271444797516,0.13512027263641357,0.155588760972023,0.04763977974653244,0.0448240227997303,-0.25878116488456726],[-0.05718763917684555,0.03534848615527153,0.26776769757270813,-0.4595698416233063,-0.42880818247795105,0.09749264270067215,-0.01380161102861166,-0.5400024056434631,0.2113887071609497,0.04771668463945389,-0.11696895211935043,-0.09976761043071747,-0.208872988820076,-0.08315274864435196,0.166010782122612,-0.21861080825328827,-0.1817949265241623,0.10145468264818192,-0.08050793409347534,0.15259897708892822,-0.01778470166027546,0.3125852644443512,0.21086132526397705,0.40129920840263367,0.37846627831459045,-0.42629432678222656,0.2646704614162445,0.07893563061952591,-0.07933729887008667,-0.29105204343795776,-0.16566728055477142,-0.43226197361946106,0.018354427069425583,0.22497117519378662,-0.17185239493846893,-0.31089410185813904,0.33411088585853577,-0.1726946383714676,-0.14295214414596558,0.8217287659645081,-0.016311535611748695,-0.21175475418567657,-0.15643328428268433,0.08645875006914139,0.12882409989833832,0.5182954668998718,-0.06877216696739197,0.06521938741207123,0.4511558413505554,0.1413966864347458,0.10908161848783493,-0.05397883057594299,-0.27310910820961,0.15943168103694916,-0.20019668340682983,-0.37181708216667175,-0.19548436999320984,-0.2755560278892517,-0.29866310954093933,-0.21391496062278748,0.10288198292255402,0.03654594346880913,-0.1812225729227066,-0.15466831624507904,0.276882141828537,-0.3680160641670227,-0.034200310707092285,0.37109458446502686,0.2063407301902771,-0.09211846441030502,0.6821610927581787,-0.23805485665798187,-0.3749130964279175,-0.3057306408882141,-0.18489475548267365,-0.12314556539058685,-0.4480891525745392,0.008222144097089767,0.15085215866565704,-0.28970447182655334,-0.0974416732788086,0.12578921020030975,-0.42839542031288147,0.0642489492893219,0.5053629875183105,-0.0623064748942852,-0.2850460112094879,-0.10377895832061768,0.7501255869865417,-0.3546596169471741,-0.015920540317893028,-0.17734573781490326,-0.1655340939760208,0.28980493545532227,0.22736148536205292,0.4185561537742615,0.2468620389699936,-0.21134069561958313,-0.009659300558269024,-0.08957571536302567,0.47344180941581726,-0.06553129106760025,-0.062343329191207886,-0.0929165631532669,0.036663953214883804,-0.11546172946691513,-0.03603449463844299,0.09448233991861343,0.41588538885116577,-0.07765647768974304,0.011608715169131756,-0.1768312156200409,-0.012583202682435513,-0.3064981997013092,-0.14146120846271515,-0.2172684669494629,0.29242536425590515,0.05600705370306969,-0.016345545649528503,0.06289246678352356,0.39531809091567993,0.13402855396270752,-0.04920107498764992,-0.23512037098407745,0.31685903668403625,-0.19224703311920166,-0.05108608677983284,0.18902771174907684],[-0.1732960045337677,-0.31121915578842163,0.4468739330768585,0.14998957514762878,-0.07444119453430176,0.29258525371551514,0.17263247072696686,-0.10202063620090485,0.4435618221759796,0.33681726455688477,0.07583121210336685,-0.18079614639282227,0.02183559350669384,-0.08594967424869537,-0.07310023158788681,-0.11087671667337418,0.0448281429708004,0.16324248909950256,0.0019122372614219785,-0.29224565625190735,0.0026236081030219793,0.006168736144900322,-0.18959470093250275,0.07215391099452972,0.3648843765258789,0.294550359249115,0.13024857640266418,0.2006680965423584,0.040667325258255005,0.08439148962497711,0.216875821352005,-0.04631158336997032,-0.18429158627986908,-0.09563128650188446,0.23790955543518066,0.40784162282943726,0.15028142929077148,-0.3721269965171814,-0.16797928512096405,0.36878734827041626,-0.1350553333759308,0.00628121430054307,-0.18378843367099762,-0.16480858623981476,0.2807510197162628,-0.41672638058662415,0.10005524009466171,-0.15414245426654816,0.4818696975708008,0.3218437731266022,-0.061120107769966125,-0.14253610372543335,-0.04338342323899269,-0.23790834844112396,-0.1770465224981308,-0.10668788850307465,0.19083210825920105,-0.2721725404262543,-0.3140450119972229,-0.15270932018756866,-0.15360525250434875,0.20477327704429626,0.013613026589155197,-0.19244948029518127,0.20125848054885864,-0.11594228446483612,-0.03458709642291069,-0.021564625203609467,-0.087624691426754,0.23057764768600464,-0.03446485102176666,0.13536475598812103,-0.2086217701435089,-0.022945232689380646,0.020949076861143112,0.06284736096858978,-0.35069313645362854,0.2304467409849167,0.14920218288898468,-0.15258798003196716,-0.12914803624153137,0.019208071753382683,0.000135821319418028,-0.3303084373474121,0.12611477077007294,-0.11632634699344635,0.09674453735351562,0.008194442838430405,0.013615841045975685,0.01642517000436783,-0.006615012418478727,-0.2528637647628784,0.04677259549498558,-0.0783652737736702,0.021874582394957542,-0.13314524292945862,-0.37998467683792114,-0.1310058832168579,-0.3111993372440338,-0.28164348006248474,0.17864809930324554,-0.2741227447986603,0.06926200538873672,-0.0042373319156467915,-0.14532914757728577,-0.4317958950996399,0.03803980350494385,-0.2596915662288666,-0.2319481521844864,-0.06138750910758972,-0.29795554280281067,-0.2727806270122528,-0.01986076310276985,-0.02321062609553337,0.16123884916305542,0.1462785005569458,-0.05633150041103363,-0.22090096771717072,-0.1568717360496521,-0.24405941367149353,0.16945847868919373,-0.16422326862812042,0.15067891776561737,-0.07968129217624664,-0.2242252379655838,-0.114990234375,-0.2915455400943756,0.09627041220664978],[-0.19003623723983765,0.029966752976179123,-0.11269929260015488,0.31061986088752747,0.06292689591646194,-0.1190871000289917,-0.3330502510070801,0.2738374173641205,-0.19787470996379852,-0.2611406743526459,0.1747628152370453,0.05948229134082794,-0.10425443947315216,0.04603349417448044,-0.08084040880203247,0.11120536923408508,-0.0007571887108497322,-0.23842619359493256,0.2815818190574646,0.01380969863384962,-0.09225903451442719,-0.14727002382278442,0.2192239612340927,0.18439945578575134,0.03096822090446949,0.03688843548297882,-0.3147965967655182,-0.2162250429391861,-0.19357192516326904,0.03250022605061531,-0.19435203075408936,0.09511370956897736,-0.0889558494091034,-0.040653374046087265,-0.12194988876581192,0.13907192647457123,-0.41289106011390686,0.3251151740550995,0.1589631736278534,0.014062665402889252,0.20736634731292725,-0.014455875381827354,0.15776510536670685,-0.03791813924908638,0.10601428896188736,0.27263689041137695,0.13102589547634125,-0.011739173904061317,0.00654255598783493,-0.38221046328544617,-0.021069347858428955,0.1807461827993393,0.06981204450130463,0.04396023973822594,-0.2449842393398285,0.09073188155889511,0.06796325743198395,0.023480409756302834,0.11724702268838882,0.03733944892883301,-0.012213464826345444,-0.015901530161499977,0.12647588551044464,-0.0011851616436615586,0.19224263727664948,0.0335993617773056,0.12441503256559372,-0.24416950345039368,-0.16838166117668152,-0.02921638824045658,-0.22398650646209717,-0.09007693082094193,0.2676938474178314,-0.06192117556929588,0.25423628091812134,0.1472024768590927,0.02963486686348915,0.11929289251565933,0.10504372417926788,0.26737886667251587,-0.06092660129070282,0.06346147507429123,0.25507721304893494,0.009705337695777416,-0.18696719408035278,0.0006768594612367451,0.020795470103621483,0.26165536046028137,0.04112999513745308,0.0849025771021843,0.19773532450199127,0.2746177017688751,0.09597128629684448,0.14852336049079895,-0.3553629219532013,-0.23019590973854065,-0.00992028322070837,0.20451802015304565,-0.12314312160015106,-0.025175059214234352,-0.2659176290035248,0.24599586427211761,-0.05263632908463478,-0.285619854927063,-0.14328376948833466,0.2907898724079132,-0.04703301936388016,0.19720396399497986,-0.01661769300699234,-0.03303070366382599,0.00001165090361610055,0.2074708491563797,-0.0022623478434979916,-0.06810441613197327,-0.08566975593566895,-0.02156059257686138,-0.07253757119178772,-0.08342716097831726,0.256556898355484,0.1901499330997467,-0.21811647713184357,0.16729849576950073,-0.18133020401000977,0.10734963417053223,0.24385836720466614,0.19084465503692627,0.2549979090690613,-0.3838958144187927],[-0.033495914191007614,0.08476149290800095,0.12943214178085327,-0.4417184591293335,-0.19458384811878204,-0.05475679039955139,-0.23637382686138153,-0.1561497449874878,0.24572888016700745,-0.19125258922576904,-0.08982869982719421,-0.18884968757629395,-0.12370309978723526,-0.0523318350315094,0.14187225699424744,-0.14713241159915924,-0.04034678265452385,-0.021405767649412155,-0.0929969772696495,-0.02485204115509987,-0.17399458587169647,-0.013514998368918896,0.3541162610054016,0.1536674201488495,0.25215694308280945,-0.15630370378494263,0.11260076612234116,0.07287734001874924,-0.21150833368301392,-0.24275708198547363,-0.024445388466119766,-0.47904151678085327,0.14695283770561218,-0.027891146019101143,-0.2994561493396759,-0.08999442309141159,0.46545398235321045,-0.14127564430236816,-0.22228379547595978,0.7045100331306458,0.024729818105697632,-0.05305708944797516,-0.12818284332752228,-0.09078411757946014,-0.04023643955588341,0.4501699209213257,-0.147537499666214,0.255349338054657,0.3785887062549591,0.04441872239112854,-0.046932801604270935,0.06751267611980438,-0.29447314143180847,0.07941849529743195,-0.1829381287097931,-0.2279110550880432,-0.2025226652622223,-0.21426911652088165,-0.14886215329170227,-0.19081410765647888,-0.08891028165817261,0.1333402842283249,-0.28417131304740906,-0.1483815610408783,0.2507530748844147,-0.2659105956554413,-0.05752868950366974,0.009449825622141361,-0.05179128795862198,0.07124938070774078,0.560340404510498,-0.28074824810028076,-0.24991580843925476,-0.16929417848587036,-0.2802577316761017,-0.22220104932785034,-0.38109728693962097,0.010511738248169422,0.07361043244600296,-0.11514145880937576,-0.11918942630290985,0.19657179713249207,-0.44850727915763855,0.12411908805370331,0.16667068004608154,-0.06519625335931778,-0.1571250706911087,-0.14018231630325317,0.6806049942970276,-0.14855575561523438,-0.14500480890274048,-0.24615299701690674,-0.100367471575737,0.26005059480667114,0.06048478186130524,0.20949244499206543,0.24392569065093994,-0.10557732731103897,-0.05698230117559433,0.001587660750374198,0.18662062287330627,-0.018060820177197456,-0.12158487737178802,-0.21312329173088074,-0.004463216755539179,-0.14183785021305084,-0.08235058933496475,-0.12486078590154648,0.21983012557029724,-0.3000049293041229,0.04905607923865318,-0.17976927757263184,-0.16548685729503632,-0.23926682770252228,-0.1925216019153595,-0.03453231602907181,0.13481618463993073,0.07031893730163574,-0.01838241145014763,-0.09683308750391006,0.377365380525589,0.1551191508769989,-0.07288184762001038,-0.3595239222049713,0.04607190936803818,-0.11854655295610428,-0.03649237006902695,0.17359700798988342],[-0.06673455238342285,0.054570335894823074,0.32598841190338135,0.04311465099453926,0.1237962543964386,0.3788311779499054,0.13880528509616852,0.025876544415950775,0.12742754817008972,0.15624377131462097,0.3337269127368927,-0.3424309492111206,0.1157730296254158,0.05729715898633003,0.10719963163137436,-0.25820642709732056,0.13469132781028748,0.13105152547359467,-0.16898074746131897,-0.10222955793142319,0.020183198153972626,0.039144132286310196,-0.272470086812973,-0.06853051483631134,0.1986757218837738,-0.007775750942528248,0.20960703492164612,0.40837904810905457,-0.05557198077440262,0.0659257173538208,0.16956254839897156,0.07924040406942368,0.056229185312986374,-0.1059187799692154,-0.02836696244776249,0.5063656568527222,0.3892713785171509,-0.45237505435943604,-0.14294013381004333,0.33543893694877625,0.055816154927015305,-0.042237088084220886,-0.47497355937957764,-0.25291499495506287,0.30164653062820435,-0.35679706931114197,0.2176547795534134,0.037220366299152374,0.46387481689453125,0.3033750653266907,0.11118779331445694,-0.03547896072268486,0.23463445901870728,-0.15818442404270172,-0.14778710901737213,0.13025376200675964,-0.014471866190433502,-0.2155604511499405,-0.4862253665924072,-0.07673244178295135,0.13549256324768066,0.13124850392341614,-0.35404375195503235,-0.49762865900993347,0.09046473354101181,-0.17294681072235107,0.1874169558286667,0.0979323536157608,0.18246358633041382,0.17667950689792633,-0.1356617510318756,0.30831897258758545,-0.2543596625328064,0.32908642292022705,0.01255365926772356,0.2719092071056366,-0.5939471125602722,0.2587548792362213,0.3165959119796753,0.17017532885074615,-0.0014786613173782825,-0.16211821138858795,0.2650490701198578,-0.426628440618515,0.25599899888038635,-0.02116667851805687,0.3417274057865143,0.1932409107685089,0.12581586837768555,0.19797569513320923,0.02143970876932144,-0.09876633435487747,0.13656355440616608,0.319777250289917,0.08359666168689728,-0.2115854024887085,-0.5663856267929077,-0.2403283268213272,-0.3344278037548065,-0.019399311393499374,0.11767148226499557,-0.13664932548999786,0.13725315034389496,-0.09519630670547485,-0.03125305101275444,-0.2164941430091858,0.14812617003917694,-0.45502811670303345,-0.27988511323928833,-0.3937871754169464,-0.3873216211795807,-0.16589532792568207,0.02943730168044567,0.0735321119427681,0.22042535245418549,0.12586037814617157,0.17634303867816925,-0.04036906734108925,0.0577998012304306,-0.38056454062461853,0.3749452829360962,-0.1031198725104332,0.201688751578331,0.08830687403678894,-0.297954797744751,-0.25122109055519104,-0.1579209268093109,0.33761054277420044],[-0.2562708258628845,0.061153363436460495,0.0772223100066185,-0.0038633376825600863,-0.13039354979991913,-0.255669504404068,-0.38007861375808716,0.10942620038986206,0.07722321897745132,-0.2796211540699005,0.0629919096827507,0.11787135899066925,-0.13211241364479065,0.1856166124343872,0.10471687465906143,0.1309390515089035,-0.10894815623760223,-0.1692981868982315,0.13950003683567047,-0.025513872504234314,-0.16227015852928162,-0.3895750045776367,0.16130799055099487,0.20652303099632263,-0.08136970549821854,-0.13176654279232025,-0.30373695492744446,-0.30790501832962036,-0.11944346874952316,-0.03190477192401886,-0.10814181715250015,0.020952681079506874,-0.10968338698148727,-0.14502348005771637,-0.26141056418418884,0.12755247950553894,-0.13056917488574982,0.1725897639989853,-0.06283021718263626,-0.1193525642156601,0.15257732570171356,0.0798342153429985,0.12774565815925598,0.2778417468070984,0.005252910312265158,0.19441023468971252,-0.01682916469871998,0.0293874554336071,0.06193691864609718,-0.3528691828250885,-0.010002377443015575,0.20540137588977814,0.011924014426767826,-0.12611164152622223,-0.3230462074279785,-0.0882212296128273,0.03392764925956726,0.019879987463355064,0.03609909862279892,0.04588685557246208,-0.1404569000005722,-0.2713894248008728,0.20755401253700256,0.034949127584695816,0.10739868879318237,-0.1116107925772667,0.07976727932691574,-0.07005191594362259,-0.21153387427330017,-0.19167779386043549,-0.16734004020690918,-0.011185258626937866,0.27399390935897827,-0.0766334980726242,0.2821282148361206,0.03978461027145386,-0.16050837934017181,0.10637353360652924,0.23421551287174225,0.06793473660945892,0.16582828760147095,0.2137511670589447,-0.02371668629348278,-0.0522104874253273,-0.21411705017089844,0.13250945508480072,0.19393078982830048,0.25449755787849426,0.27602067589759827,0.1764858216047287,0.2707456350326538,0.19071604311466217,0.4175476133823395,-0.0638306736946106,-0.3556200861930847,-0.12610073387622833,0.04165196418762207,0.10337403416633606,0.001759782899171114,-0.18317723274230957,-0.09597306698560715,0.19357287883758545,-0.08569369465112686,-0.13214832544326782,-0.05015670880675316,0.13767965137958527,-0.08578643202781677,-0.12373609095811844,0.1583489179611206,-0.14501401782035828,0.055892568081617355,0.13501682877540588,-0.15084250271320343,-0.11455744504928589,-0.04654312506318092,-0.11767514050006866,0.04635922983288765,-0.09907440841197968,0.1919552981853485,0.04081591218709946,-0.2835763394832611,-0.10620032995939255,-0.12643152475357056,0.07025682181119919,0.06359285861253738,0.10857715457677841,0.09243734925985336,-0.3018801212310791],[-0.17197173833847046,-0.04135674610733986,0.010155695490539074,-0.27395501732826233,-0.06576404720544815,0.09123726934194565,-0.07147389650344849,-0.3797401487827301,0.18965016305446625,-0.14149032533168793,-0.3395380973815918,0.09265254437923431,-0.025064745917916298,-0.05642564594745636,0.09706679731607437,-0.13475501537322998,-0.2655171751976013,0.00005057105590822175,-0.09234338253736496,-0.02881549671292305,-0.12310609966516495,0.06862787157297134,0.08873124420642853,0.03378450870513916,0.1258675903081894,-0.06388863176107407,0.03747306391596794,0.04692022129893303,-0.1315956562757492,-0.24451906979084015,-0.09973970800638199,-0.21769863367080688,0.07052680104970932,-0.0807647854089737,-0.10895884037017822,-0.2866595685482025,0.1485709547996521,-0.29654765129089355,0.025588246062397957,0.49644219875335693,-0.3207387626171112,-0.0761430561542511,-0.045773714780807495,0.10222577303647995,-0.06262586265802383,0.33237695693969727,-0.24882669746875763,0.19093561172485352,0.32780319452285767,0.06113189831376076,0.08423292636871338,-0.12800785899162292,-0.2799786627292633,0.21781231462955475,-0.26513874530792236,-0.2693023383617401,-0.00272214668802917,-0.22924210131168365,-0.10628741979598999,-0.2996259033679962,-0.15798643231391907,0.10485111176967621,-0.21475358307361603,-0.261061429977417,-0.09774214029312134,-0.15791161358356476,0.03308136388659477,0.10441240668296814,0.1544816792011261,-0.02155185304582119,0.4971146881580353,-0.17129763960838318,-0.10347779095172882,-0.02579520083963871,-0.1677526831626892,-0.10974935442209244,-0.3277934193611145,-0.23038986325263977,-0.018761681392788887,-0.12528690695762634,-0.09740693122148514,0.0901479423046112,-0.23844140768051147,-0.10141769796609879,0.18501655757427216,-0.2088940441608429,0.002730035688728094,-0.08528324216604233,0.2644454538822174,-0.019904347136616707,-0.23215292394161224,-0.15151207149028778,-0.11686302721500397,0.07245039194822311,0.07548990845680237,0.3314080536365509,0.13519655168056488,-0.1940653771162033,0.013752488419413567,-0.09821731597185135,0.1641615778207779,-0.07672872394323349,0.07679827511310577,-0.28556764125823975,0.16356207430362701,-0.29712846875190735,-0.10981729626655579,0.006769407074898481,0.0333673469722271,0.03465699031949043,-0.04983599856495857,-0.05876309052109718,-0.034565601497888565,-0.25445660948753357,-0.04894339293241501,-0.09833978116512299,-0.00806774478405714,0.06993728876113892,0.02657736837863922,0.03141237422823906,0.33454862236976624,0.20992867648601532,-0.20591206848621368,-0.20535141229629517,0.13157491385936737,-0.011326130479574203,0.18497586250305176,0.014803456142544746],[-0.19743071496486664,0.4108203649520874,-0.15000946819782257,-0.01907176524400711,0.1297944188117981,0.2149844616651535,-0.16433511674404144,0.685470461845398,0.1312374770641327,-0.34142249822616577,0.3844521939754486,-0.24590431153774261,0.3832858204841614,0.05224410444498062,-0.22534938156604767,-0.046259406954050064,0.45599353313446045,0.15863069891929626,0.1107143759727478,0.17762494087219238,0.00868870597332716,-0.34890931844711304,0.33567509055137634,-0.1955316811800003,-0.0073311044834554195,-0.2929190397262573,-0.3600217401981354,0.5581017732620239,-0.8835368156433105,0.579635500907898,0.13108885288238525,-0.20778819918632507,0.24808891117572784,-0.832640528678894,-0.4810512065887451,0.5174193978309631,-0.06261200457811356,-0.4020109474658966,0.15247750282287598,0.1810096949338913,-0.23378971219062805,-0.12457592040300369,-0.23778074979782104,0.18911337852478027,0.1410975307226181,0.05320652574300766,0.13393692672252655,-0.017071856185793877,0.09801308810710907,-0.31085237860679626,0.19461950659751892,-0.07703522592782974,0.20667576789855957,-0.00043035662383772433,-0.3670559525489807,0.22883360087871552,-0.7182617783546448,0.590558648109436,0.29748228192329407,-0.47859981656074524,0.7157909870147705,-0.20160652697086334,-0.4590320885181427,-0.6745434999465942,0.1271190196275711,0.10829558968544006,0.7375690937042236,-0.47608259320259094,0.019857557490468025,0.1735391467809677,0.0002471420739311725,0.26420333981513977,0.24650931358337402,0.3279305100440979,0.03773492947220802,0.18323609232902527,-0.869474470615387,0.18699824810028076,0.7431584596633911,0.8085335493087769,0.003007094142958522,-0.36166390776634216,0.4858301281929016,-0.26235321164131165,-0.08870262652635574,0.03246109560132027,0.9985078573226929,0.5252345204353333,0.6449150443077087,0.16825133562088013,0.10915102809667587,-0.30544590950012207,-0.008260292932391167,0.836683988571167,0.04677112400531769,-0.04474750906229019,-0.22992783784866333,0.03475801274180412,-0.07547743618488312,0.7624733448028564,-0.11553588509559631,-0.06861117482185364,0.3983551859855652,-0.009549085050821304,0.28335970640182495,0.3640691041946411,0.21084481477737427,-0.3016699254512787,-0.6073186993598938,-0.15198242664337158,-0.3321363031864166,0.41835275292396545,-0.7104076147079468,-0.010396046563982964,0.3399140238761902,0.12842178344726562,0.1392175257205963,0.5304622650146484,-0.03658250346779823,-0.23298577964305878,0.2147882878780365,0.2143734246492386,0.19926044344902039,0.5269076228141785,-0.5625097155570984,0.2653234004974365,0.4256361126899719,-0.14317375421524048],[-0.3329211473464966,0.2584904134273529,0.0495951846241951,0.1679079383611679,-0.24219273030757904,-0.0334637425839901,-0.38534459471702576,-0.15679630637168884,0.13746431469917297,-0.3076445162296295,0.36672383546829224,0.2465410828590393,-0.023944787681102753,0.15114620327949524,0.07317457348108292,0.20062261819839478,-0.12247686833143234,-0.12506414949893951,0.3859040141105652,-0.08569048345088959,-0.09806932508945465,-0.35997211933135986,0.29123443365097046,0.22554412484169006,0.33230113983154297,-0.005360002163797617,-0.10044752061367035,-0.13504286110401154,-0.1372632384300232,0.021058592945337296,-0.1428261697292328,-0.18776986002922058,-0.027993876487016678,-0.05736270919442177,-0.22165988385677338,0.1860693395137787,-0.12521173059940338,0.18479865789413452,-0.06254648417234421,0.020661039277911186,0.3815835118293762,0.11671857535839081,0.10477914661169052,0.3409636616706848,-0.18606352806091309,0.3144857883453369,0.3040942847728729,-0.1087496355175972,-0.04039273038506508,-0.3763573169708252,0.06450744718313217,0.2350812554359436,0.012911804020404816,0.07688821107149124,-0.44320422410964966,-0.02256287820637226,-0.058061592280864716,0.15603291988372803,-0.0005839088698849082,0.07643143087625504,0.037080202251672745,-0.3827674686908722,0.2693711519241333,-0.1193707287311554,0.03881070390343666,-0.23708617687225342,0.09004194289445877,-0.192657470703125,-0.311099112033844,-0.22985166311264038,-0.09499913454055786,-0.09507261961698532,0.19408230483531952,-0.0218732338398695,0.2808980345726013,-0.0014850037405267358,-0.12631480395793915,0.14730259776115417,0.18079085648059845,0.04256264865398407,0.31198474764823914,0.07876939326524734,0.07138273864984512,0.2573496103286743,-0.09719190746545792,0.36001038551330566,-0.007958759553730488,0.03062485158443451,0.43237748742103577,0.10463939607143402,0.3224421441555023,0.39154940843582153,0.17905041575431824,0.054238177835941315,-0.29862335324287415,-0.27984508872032166,0.1597689688205719,0.2155730277299881,0.15684175491333008,0.03825824335217476,-0.16943612694740295,0.2552131414413452,0.02014244720339775,-0.30491554737091064,-0.10586614906787872,0.2033032923936844,-0.16073518991470337,0.1819790005683899,0.20829012989997864,0.04657597839832306,0.07761593908071518,-0.03322465345263481,-0.3141745328903198,-0.22390617430210114,-0.12366431951522827,-0.03304580971598625,0.03492416813969612,0.11664479970932007,0.2431289404630661,0.3052353858947754,-0.10143739730119705,0.1987663358449936,-0.2856437563896179,0.12922194600105286,0.2247069925069809,0.32973045110702515,0.0781673938035965,-0.32615408301353455],[0.006849436089396477,0.09970924258232117,0.13969124853610992,0.002208164194598794,-0.0661945566534996,0.1472690999507904,-0.018365899100899696,-0.04619035869836807,0.2859095335006714,0.04008447378873825,0.015737643465399742,-0.001512216287665069,-0.1560809463262558,0.0064130560494959354,0.07422824949026108,-0.23023837804794312,-0.09491534531116486,0.008126373402774334,0.15746019780635834,0.012028364464640617,-0.0005054879584349692,-0.01068377960473299,0.274868369102478,0.03019845299422741,0.16600096225738525,-0.09749986231327057,-0.008297421969473362,0.04589089751243591,-0.11101634800434113,-0.07093489915132523,-0.051194485276937485,-0.17837564647197723,-0.0414564274251461,-0.11292187869548798,-0.21000021696090698,-0.31276148557662964,0.09696196019649506,-0.18342359364032745,-0.01958342455327511,0.7186163067817688,-0.09146767109632492,-0.010934103280305862,-0.14375486969947815,-0.040747787803411484,-0.11759717762470245,0.28519606590270996,-0.14687208831310272,0.013553237542510033,0.1922612190246582,-0.0040748231112957,-0.008836346678435802,0.0021317205391824245,-0.3533184826374054,0.0447516031563282,-0.22637805342674255,-0.05674997717142105,-0.044628698378801346,-0.230134978890419,-0.08890216052532196,-0.08424973487854004,0.0029318537563085556,0.19982561469078064,0.02717769704759121,-0.20492789149284363,0.03184612840414047,-0.13693223893642426,-0.1244005560874939,-0.06396413594484329,-0.10851815342903137,-0.13582998514175415,0.6803291440010071,-0.20505809783935547,-0.04516853392124176,0.022611362859606743,-0.010416827164590359,0.056070681661367416,-0.30600249767303467,0.015729933977127075,0.034775909036397934,0.07059584558010101,-0.03843940794467926,-0.091563880443573,-0.00807140488177538,-0.013407859951257706,0.09247007966041565,-0.18535400927066803,-0.06384960561990738,0.031940340995788574,0.3690623939037323,-0.08777463436126709,-0.19307900965213776,-0.2222120612859726,-0.13611234724521637,0.1925705224275589,-0.08768574148416519,0.14879755675792694,0.1701299101114273,-0.12347593158483505,-0.04253453016281128,-0.12164746969938278,0.09072400629520416,-0.06738016754388809,-0.1910758912563324,-0.26025059819221497,0.057365406304597855,-0.16081012785434723,0.0028554433956742287,0.035539623349905014,0.20549237728118896,0.05926447734236717,0.0015781859401613474,0.12237892299890518,-0.23033306002616882,-0.2861357033252716,-0.40928390622138977,-0.1534317135810852,-0.022601207718253136,-0.10888457298278809,-0.20810556411743164,-0.07505093514919281,0.2492803931236267,-0.049944110214710236,-0.20100344717502594,-0.28080928325653076,-0.011824221350252628,-0.033293839544057846,0.015980590134859085,-0.15134641528129578],[-0.03481302410364151,-0.12625493109226227,0.22052109241485596,0.047000009566545486,-0.12124615907669067,0.032889362424612045,-0.26490136981010437,-0.21220074594020844,0.4260908365249634,0.13961541652679443,0.03999574854969978,-0.055607862770557404,-0.20312537252902985,-0.06703484058380127,0.11963129043579102,0.02639969252049923,0.12816840410232544,-0.19242127239704132,0.2386244535446167,-0.14451344311237335,0.03116358071565628,-0.011058900505304337,0.16091753542423248,0.23600080609321594,0.2269655168056488,0.020201921463012695,-0.037526246160268784,-0.1815507858991623,-0.018817152827978134,-0.021377896890044212,0.2502807676792145,-0.36151596903800964,-0.18099857866764069,0.10731853544712067,0.14784984290599823,0.07630034536123276,-0.06833013892173767,0.16722367703914642,-0.0497070774435997,0.28758639097213745,0.06935951113700867,0.07403239607810974,0.011602718383073807,-0.013173257932066917,0.02904423512518406,-0.06305456161499023,0.27595850825309753,0.23944813013076782,0.11669421195983887,-0.18613530695438385,-0.03514762222766876,0.12834063172340393,-0.04102063924074173,-0.10220424085855484,-0.24373912811279297,0.017323167994618416,0.08039430528879166,-0.19249485433101654,-0.2411518692970276,0.020170826464891434,-0.17131491005420685,-0.06831153482198715,0.2167019098997116,0.049226921051740646,0.07032939791679382,0.25471216440200806,-0.11829157918691635,-0.1436285376548767,-0.0992199033498764,0.07061226665973663,0.07110100984573364,-0.21227030456066132,-0.08133124560117722,-0.05250198394060135,-0.1116689145565033,-0.19801780581474304,-0.008299673907458782,0.05868628993630409,-0.043123405426740646,-0.13561975955963135,-0.002850824734196067,0.26924726366996765,-0.1032077744603157,-0.16284587979316711,-0.047573648393154144,0.18899549543857574,-0.06772749125957489,-0.01940574124455452,-0.021763203665614128,-0.2211109846830368,0.1583499163389206,-0.014693217352032661,-0.05097421631217003,0.06160065531730652,0.09254133701324463,-0.08508045226335526,-0.023154398426413536,-0.1423523724079132,-0.22744858264923096,-0.1817062497138977,0.4326615631580353,0.14878146350383759,-0.06460247188806534,-0.5387126803398132,0.15997593104839325,0.07652273774147034,0.23910632729530334,-0.00847165659070015,0.027309924364089966,0.2401820719242096,0.010747481137514114,-0.19853709638118744,-0.07555048167705536,0.08413875848054886,0.1907905638217926,0.26846843957901,-0.09916364401578903,-0.17755672335624695,-0.03539326414465904,-0.28052324056625366,0.37212076783180237,-0.15864327549934387,0.15275946259498596,0.18966493010520935,0.0823540985584259,0.07360855489969254,-0.10294003784656525,-0.24300625920295715],[-0.07521893084049225,-0.2928192913532257,-0.06282339245080948,-0.08602868020534515,0.02776319347321987,0.10813524574041367,-0.004582409746944904,0.011776354163885117,-0.17717473208904266,0.06510885804891586,0.06801891326904297,0.10250803083181381,0.030557483434677124,0.1544775664806366,0.11433067172765732,-0.02374577522277832,-0.09395788609981537,0.10498692840337753,-0.1406015306711197,-0.1277906745672226,-0.031600866466760635,-0.006684132385998964,-0.12728437781333923,-0.07786593586206436,0.09374596178531647,0.18239666521549225,-0.060914501547813416,-0.059420350939035416,-0.030467236414551735,-0.04994919151067734,0.04759930446743965,-0.2291869968175888,-0.09564708173274994,-0.06227049231529236,-0.060537200421094894,-0.13008549809455872,-0.1102496087551117,-0.071290522813797,0.06346531212329865,-0.13335470855236053,0.1983005553483963,-0.15572737157344818,-0.09229706227779388,0.0033531312365084887,-0.029613519087433815,0.05797313153743744,-0.11761736124753952,-0.09054633229970932,0.08475227653980255,0.07152056694030762,-0.13141553103923798,0.1885451078414917,-0.0693102478981018,-0.1412622630596161,-0.10632624477148056,-0.06247513368725777,0.09634709358215332,-0.20203985273838043,-0.23578636348247528,-0.046858448535203934,-0.18467497825622559,0.028082875534892082,-0.06989797949790955,0.020792372524738312,0.04055248200893402,-0.19396257400512695,0.03316684067249298,-0.003521751146763563,0.017873359844088554,-0.08941542357206345,-0.105002261698246,0.18958863615989685,-0.22018131613731384,-0.012140452861785889,0.03847815841436386,-0.009432225488126278,-0.2217337042093277,0.10411393642425537,-0.16493679583072662,-0.23625615239143372,0.21196165680885315,-0.02339429222047329,0.06604334712028503,0.14159779250621796,-0.04347729682922363,0.17122775316238403,-0.1721045821905136,0.05590326339006424,0.025845274329185486,-0.17498579621315002,0.17527346312999725,0.07472754269838333,0.09374414384365082,-0.08359217643737793,-0.284442663192749,-0.09902369976043701,-0.24548445641994476,0.15668031573295593,-0.18133299052715302,-0.04912438243627548,-0.15872709453105927,-0.045000240206718445,-0.20428553223609924,0.01363286841660738,-0.23483985662460327,-0.12284331768751144,0.058140829205513,-0.19415777921676636,-0.03533530235290527,-0.05317458510398865,-0.22112016379833221,-0.094664067029953,-0.06751152873039246,-0.014638189226388931,0.03713236376643181,0.03957044333219528,0.13214680552482605,-0.22532601654529572,0.022658521309494972,-0.22004170715808868,-0.1335485726594925,-0.07595867663621902,0.20339526236057281,-0.04374435916543007,0.05457981303334236,-0.18616554141044617,-0.1170700341463089,0.13717107474803925],[0.25861337780952454,0.09167606383562088,-0.15450897812843323,-0.36035770177841187,0.1445869356393814,-0.30923181772232056,-0.1837151050567627,0.09419851005077362,-0.02822740003466606,-0.18751530349254608,-0.15426072478294373,-0.051942918449640274,0.22794771194458008,-0.0522393062710762,0.03133260831236839,0.23648710548877716,0.08038589358329773,0.000622657360509038,0.016327762976288795,0.19827957451343536,-0.08541754633188248,-0.14778102934360504,-0.11608633399009705,0.10445016622543335,-0.21312853693962097,0.21222169697284698,-0.09539715200662613,-0.27123913168907166,-0.08053960651159286,-0.006299567874521017,-0.1830054670572281,-0.1391904205083847,-0.005151756573468447,0.006010496988892555,0.10149279981851578,-0.12403643876314163,-0.22956910729408264,0.3202842175960541,0.19649344682693481,0.44470441341400146,0.032569508999586105,-0.25725048780441284,0.19065241515636444,0.30830737948417664,-0.3898549973964691,0.10267317295074463,0.15029112994670868,0.006223929114639759,-0.013722795993089676,-0.1770227998495102,0.16888128221035004,-0.0026207854971289635,-0.22078736126422882,0.3451053202152252,0.17595559358596802,0.3872281312942505,-0.11089159548282623,0.17958828806877136,0.3849950134754181,-0.031043214723467827,-0.05581666901707649,0.18551062047481537,0.048529088497161865,0.3489615321159363,-0.17310991883277893,0.1484365165233612,-0.11646183580160141,-0.17230306565761566,0.03114226460456848,0.005081761162728071,0.5440731048583984,0.08587484806776047,0.30637258291244507,-0.09331507980823517,-0.11087922751903534,-0.2538954019546509,-0.07018172740936279,-0.02531093917787075,-0.34251323342323303,0.03780786693096161,-0.13042062520980835,-0.1357938051223755,-0.28002989292144775,0.04703637957572937,-0.2334902435541153,-0.17023061215877533,-0.27419108152389526,0.06643108278512955,-0.2540886104106903,-0.2123740017414093,-0.015516168437898159,-0.14864642918109894,-0.05590641126036644,-0.0844770297408104,0.10670505464076996,-0.0006432816735468805,-0.01427044253796339,0.1444728672504425,0.18172724545001984,0.2229706346988678,-0.05662640929222107,-0.13038016855716705,0.537932276725769,-0.22709667682647705,0.29083701968193054,0.2221776247024536,0.05851977318525314,0.026781167834997177,-0.12889650464057922,0.33164089918136597,-0.05002738907933235,0.39407283067703247,0.39117202162742615,-0.0758059024810791,-0.07663927972316742,-0.23221352696418762,0.2981469929218292,0.27077341079711914,-0.2600206136703491,0.02470463328063488,0.329280823469162,0.3734295964241028,0.0015808839816600084,0.43995457887649536,-0.24952763319015503,0.15743350982666016,0.12870220839977264,0.10328340530395508],[-0.10664240270853043,-0.2042231559753418,-0.04865177348256111,-0.14137990772724152,-0.14276936650276184,-0.18778248131275177,-0.0687870904803276,-0.25927895307540894,0.4985354542732239,0.002226192271336913,-0.11790525913238525,-0.060565970838069916,0.0009048216743394732,0.04855358228087425,0.21741029620170593,0.007058854680508375,0.23968136310577393,-0.1504931002855301,0.17721347510814667,0.13331815600395203,-0.019793523475527763,-0.12459952384233475,0.11083041876554489,0.014749536290764809,0.10330308973789215,0.03293183445930481,-0.08489710092544556,-0.16242125630378723,0.12002183496952057,-0.02511514537036419,-0.0023888046853244305,-0.3956126272678375,0.08630172163248062,-0.08098633587360382,-0.04280070215463638,0.06594206392765045,0.05456027016043663,0.002827702322974801,0.04997122287750244,0.19433963298797607,0.05746632069349289,0.035104863345623016,-0.007809858303517103,0.19162777066230774,-0.060322925448417664,-0.13152755796909332,0.1967635601758957,0.16373351216316223,0.2384095937013626,-0.17254701256752014,0.16119812428951263,0.06624346226453781,-0.09522837400436401,-0.084904745221138,-0.10738681256771088,0.33764204382896423,-0.2295820266008377,-0.11571777611970901,0.002188583370298147,0.13626858592033386,-0.2101840376853943,-0.13580863177776337,0.14160750806331635,0.059782981872558594,0.07670284062623978,0.22333018481731415,-0.020126448944211006,-0.20725783705711365,-0.19737839698791504,0.1417868435382843,0.22018252313137054,-0.18861371278762817,-0.1564696878194809,-0.33158788084983826,-0.0035941083915531635,-0.01358889415860176,-0.008633316494524479,0.05181363970041275,-0.05564090237021446,-0.04019368812441826,0.04739345982670784,0.11057399213314056,-0.09750370681285858,-0.3458312153816223,0.14998668432235718,0.13098947703838348,-0.17629975080490112,-0.006131849717348814,-0.16969037055969238,0.024714859202504158,-0.07054929435253143,0.09279850125312805,0.07228713482618332,-0.15830855071544647,0.11331434547901154,0.044409289956092834,-0.020487653091549873,-0.15220864117145538,-0.14826025068759918,-0.06709594279527664,0.26665541529655457,-0.1124073937535286,0.1581435650587082,-0.2531163692474365,0.14160870015621185,0.04325394704937935,0.12724661827087402,0.009517431259155273,-0.05240652337670326,0.30641859769821167,-0.1706739068031311,0.08203370124101639,0.10089382529258728,-0.14829815924167633,0.09810461103916168,0.2779121696949005,-0.023590106517076492,-0.040749553591012955,-0.13032996654510498,-0.10927019268274307,0.18948546051979065,-0.0309646874666214,0.10012739151716232,0.2914433479309082,0.13669532537460327,0.0021511251106858253,-0.02982543222606182,-0.16789448261260986],[0.06585525721311569,0.08070213347673416,0.039714474231004715,-0.20092172920703888,-0.16070646047592163,-0.14357435703277588,-0.12406119704246521,-0.15317335724830627,-0.04924125596880913,-0.20819644629955292,0.3165414035320282,0.18446050584316254,0.06663479655981064,0.11094969511032104,0.03146108612418175,0.020298665389418602,0.11433504521846771,-0.030811164528131485,0.07457610964775085,0.06344091892242432,0.15214066207408905,0.09404655545949936,-0.026824580505490303,0.04466170445084572,-0.2556210160255432,-0.17683427035808563,-0.09546338021755219,-0.12004409730434418,-0.21380235254764557,-0.024339737370610237,0.05990958586335182,-0.06415992975234985,-0.01531999371945858,-0.17396456003189087,-0.05327995494008064,0.013964753597974777,-0.002879824722185731,-0.172378271818161,0.17668870091438293,-0.033535681664943695,0.2660581171512604,0.2283216118812561,0.10472583770751953,0.04110283777117729,-0.2338915765285492,-0.0935516282916069,-0.04536819085478783,0.2090701460838318,0.0023563446011394262,-0.09691449999809265,-0.05815795436501503,0.3722779452800751,0.062215544283390045,0.2088325470685959,0.024426385760307312,-0.1015908345580101,-0.28096693754196167,0.060611385852098465,0.06539550423622131,-0.07547865808010101,0.06536679714918137,-0.1726219803094864,-0.09710541367530823,0.04436933994293213,-0.025911502540111542,0.03910576552152634,0.02490113489329815,-0.011103099212050438,0.03993828594684601,-0.22864919900894165,-0.14497317373752594,-0.1965482234954834,0.08294347673654556,0.09330025315284729,0.14915809035301208,0.0775361880660057,-0.14050748944282532,0.011053305119276047,-0.11015778034925461,0.04022028669714928,0.24836543202400208,-0.14072275161743164,-0.07941744476556778,0.04223915934562683,-0.11121166497468948,0.1881626844406128,-0.09265761822462082,-0.04136713966727257,0.14218343794345856,-0.0673258975148201,0.09617149829864502,0.27499279379844666,0.267572283744812,0.045034583657979965,-0.19519414007663727,-0.03086150623857975,-0.07281921058893204,0.14348512887954712,0.04719162359833717,-0.08244534581899643,-0.05749257653951645,0.05983270704746246,-0.11598554253578186,-0.18054305016994476,0.0317385196685791,-0.11672060936689377,0.06464053690433502,-0.12548714876174927,0.21670261025428772,-0.007697243709117174,-0.007570341695100069,0.10070262849330902,-0.07503031194210052,-0.19290271401405334,0.09264253079891205,0.010758998803794384,0.0006618641782552004,0.02293754182755947,0.031778592616319656,-0.17240284383296967,-0.1818363219499588,-0.03467806801199913,0.11553581058979034,0.03891107812523842,0.09120051562786102,0.058905504643917084,-0.04616403952240944,-0.21225835382938385],[0.18120816349983215,-0.08969844877719879,-0.0301973856985569,-0.2930661141872406,0.03382614627480507,-0.17869405448436737,-0.0024453410878777504,-0.04690594971179962,0.03352503478527069,0.02836436592042446,-0.3802325427532196,0.13926315307617188,0.1818518042564392,-0.14277637004852295,0.04208104684948921,-0.10396583378314972,0.03209861367940903,0.14166319370269775,0.050280533730983734,0.27582409977912903,-0.20648260414600372,-0.058133337646722794,0.0489959791302681,0.028744930401444435,-0.22520597279071808,0.1299409717321396,0.16495753824710846,-0.17988288402557373,-0.13467510044574738,-0.12459500879049301,-0.127330482006073,-0.08541344851255417,0.14102114737033844,-0.09721682220697403,0.010898933745920658,-0.0623096264898777,0.06586610525846481,0.03732039034366608,0.09643808752298355,0.5002804398536682,-0.17161107063293457,-0.19328704476356506,0.06623182445764542,-0.0334809310734272,-0.07301617413759232,-0.02446962706744671,-0.071225106716156,-0.10843584686517715,-0.08139227330684662,-0.12127599865198135,0.013758370652794838,-0.11368650943040848,-0.28733980655670166,0.16618143022060394,0.008198032155632973,0.22475871443748474,0.017889009788632393,-0.10969668626785278,0.3080497086048126,-0.11723776906728745,-0.1336178183555603,0.15267974138259888,-0.06927616149187088,0.10071171820163727,0.05176445096731186,0.028855586424469948,0.046314600855112076,-0.1761072725057602,0.2969730496406555,-0.09681593626737595,0.5542997121810913,0.02691418118774891,0.09948866814374924,-0.14828777313232422,0.03058188036084175,-0.0711909681558609,-0.242279052734375,-0.04814665764570236,-0.031215067952871323,-0.14585378766059875,0.01973450742661953,-0.2595936357975006,-0.24302394688129425,0.021672211587429047,-0.257720023393631,0.08930648118257523,-0.3355177938938141,0.20611879229545593,-0.1637182980775833,-0.3338419497013092,-0.060504790395498276,0.060098323971033096,-0.16958707571029663,-0.027958830818533897,0.04342098906636238,0.1960660070180893,-0.15719251334667206,-0.0016409237869083881,0.10086937993764877,0.17871692776679993,0.09488679468631744,-0.0723886489868164,0.11890929937362671,-0.32820186018943787,-0.02183516137301922,-0.10980342328548431,0.05552525818347931,0.013712616637349129,-0.06652386486530304,0.1318407505750656,0.07907482236623764,0.1591690629720688,0.2162226289510727,-0.12749458849430084,-0.25353091955184937,-0.1919371336698532,0.3048872947692871,0.08838678151369095,-0.30375775694847107,-0.0753239244222641,0.04112187772989273,0.2632080018520355,-0.2651628851890564,-0.07200951874256134,0.07178132981061935,-0.006263760384172201,0.19503426551818848,0.028022203594446182],[-0.1348886340856552,-0.05792028829455376,-0.3510506749153137,-0.1136602908372879,-0.4791356027126312,-0.13609349727630615,-0.27335965633392334,-0.17857179045677185,0.3088793456554413,0.05794362351298332,-0.12242915481328964,-0.08792798221111298,0.0824664756655693,-0.0023080119863152504,0.08483284711837769,-0.05865634232759476,-0.0733955129981041,0.010612592101097107,-0.00584432715550065,0.4470493197441101,-0.04722696170210838,-0.20770832896232605,-0.08752787858247757,-0.024822667241096497,-0.007303403224796057,0.0028817332349717617,-0.27908769249916077,-0.0738522931933403,0.0274003017693758,0.08976255357265472,-0.17467232048511505,-0.43488678336143494,-0.05484235659241676,0.05394122004508972,0.06631592661142349,0.3954930007457733,-0.02625158056616783,0.22041797637939453,0.11498712748289108,0.1827654242515564,0.04792658984661102,-0.03348396718502045,0.07261878997087479,0.29317566752433777,-0.3186565935611725,-0.14799682796001434,0.020708011463284492,-0.06254393607378006,0.08849290013313293,-0.18173101544380188,0.2345513552427292,0.07627898454666138,0.11944396048784256,-0.12632538378238678,-0.005780756939202547,0.4109291434288025,-0.37981003522872925,-0.02447342313826084,0.2272857427597046,-0.019463909789919853,-0.002385371597483754,-0.13443641364574432,0.28090059757232666,0.10894028842449188,-0.02863609977066517,0.1707841157913208,0.0734199807047844,-0.1326143592596054,0.007253656163811684,0.2484939694404602,-0.02976585552096367,-0.12465639412403107,-0.030161196365952492,-0.3550335764884949,0.07188482582569122,0.11525990813970566,-0.17666035890579224,-0.21257860958576202,-0.05975418910384178,-0.16368307173252106,-0.2022205889225006,0.11820226907730103,-0.21216879785060883,-0.14075954258441925,0.26461002230644226,0.1573970913887024,-0.06048937141895294,0.18654002249240875,-0.022920770570635796,0.05731123685836792,-0.01604652591049671,-0.04729444906115532,-0.019891371950507164,-0.2766205072402954,0.11779490858316422,-0.04989733174443245,0.12519757449626923,0.10105765610933304,0.11129005998373032,0.03911285474896431,0.04097162187099457,-0.1284802407026291,0.04852689057588577,-0.32426947355270386,0.25799688696861267,0.19685621559619904,0.25027960538864136,-0.07896269112825394,0.163153737783432,0.14954084157943726,0.10524876415729523,-0.030046585947275162,-0.18238864839076996,-0.14838731288909912,0.08766085654497147,-0.07404293119907379,0.06209934130311012,0.06446706503629684,-0.11116813868284225,-0.16549237072467804,0.09285483509302139,0.11400432139635086,-0.20794989168643951,0.31987887620925903,0.19507919251918793,0.04698678478598595,-0.08598083257675171,0.061762262135744095],[0.13711793720722198,0.024797890335321426,0.04368908703327179,-0.2422034591436386,0.10167943686246872,-0.1845209151506424,0.006929337978363037,0.09020642936229706,-0.22136454284191132,-0.16977369785308838,0.3311895728111267,-0.08724422752857208,-0.13855953514575958,0.10976425558328629,-0.07426129281520844,-0.0519966185092926,-0.01604287326335907,0.1895306408405304,-0.16280286014080048,0.000051704118959605694,0.016719596460461617,0.2895629107952118,0.026097603142261505,0.18270523846149445,-0.27484291791915894,-0.3134671151638031,-0.067783884704113,0.02701989747583866,-0.27737292647361755,-0.027226123958826065,-0.005415181629359722,0.12474720925092697,-0.09604011476039886,0.10810408741235733,-0.3623550236225128,-0.1581284999847412,-0.10969966650009155,0.07897962629795074,0.07716740667819977,0.009066016413271427,0.37805670499801636,0.22448381781578064,0.042292702943086624,0.11461959034204483,-0.2266651839017868,-0.2796427011489868,-0.28247156739234924,-0.08384910970926285,-0.386493444442749,0.13038672506809235,0.02931685745716095,0.2538549602031708,-0.1928739696741104,0.07629577815532684,0.0678194984793663,-0.18119384348392487,-0.29167163372039795,-0.05678148195147514,0.09524337202310562,0.08737730979919434,0.028929611667990685,-0.04755842313170433,-0.157724991440773,0.16877302527427673,-0.1753135472536087,0.017666591331362724,-0.04983063042163849,0.14110448956489563,0.1005239188671112,-0.11969878524541855,-0.2359144538640976,0.06076237931847572,-0.18681903183460236,0.035583604127168655,-0.02755449153482914,-0.05077773705124855,0.17983898520469666,-0.30747249722480774,-0.13422635197639465,0.19006074965000153,0.3388083875179291,0.07161374390125275,0.11307699978351593,0.09213333576917648,-0.17737171053886414,0.20306678116321564,0.014961606822907925,-0.35594642162323,-0.05945171043276787,-0.08648814260959625,0.202445849776268,0.38128772377967834,0.23858042061328888,-0.013262312859296799,0.06956381350755692,-0.11327191442251205,0.11580739170312881,0.04455431178212166,0.0684015229344368,0.12864039838314056,-0.33662474155426025,0.11161148548126221,-0.18860390782356262,0.10469409823417664,0.08223988860845566,-0.09795458614826202,-0.05223450809717178,-0.042100027203559875,0.04798389598727226,-0.09817036241292953,0.15808193385601044,0.06617340445518494,0.14005398750305176,-0.033214207738637924,0.0374920591711998,-0.00008406926644966006,-0.07542025297880173,-0.0043217637576162815,0.14943289756774902,-0.16292235255241394,-0.008772621862590313,-0.0664803683757782,0.006487556733191013,-0.16389797627925873,0.03217494860291481,0.10158708691596985,-0.016019292175769806,0.050519783049821854],[0.15232457220554352,-0.38487690687179565,0.203713521361351,-0.19486969709396362,0.035590026527643204,0.004215073771774769,0.023474421352148056,-0.008401958271861076,0.19605638086795807,0.026155903935432434,-0.33809229731559753,0.019060682505369186,-0.008826442994177341,0.08874699473381042,0.18695290386676788,-0.261883020401001,-0.1877177208662033,0.2600630819797516,-0.19245465099811554,-0.015292076393961906,-0.08692776411771774,-0.01562882773578167,-0.044680532068014145,0.005454878322780132,-0.038272250443696976,-0.0006994401337578893,0.21851637959480286,-0.0971979945898056,-0.04753904044628143,-0.14806480705738068,-0.23048338294029236,-0.0961419865489006,0.024953113868832588,0.11870096623897552,-0.06622075289487839,-0.030554967001080513,0.21138960123062134,-0.18558980524539948,0.04678408056497574,0.3318560719490051,-0.22818335890769958,-0.23371072113513947,-0.13417156040668488,0.009988825768232346,-0.16766509413719177,-0.27535319328308105,0.011880191043019295,-0.0002988204942084849,0.22622697055339813,-0.06248632073402405,-0.01598437875509262,0.04724382236599922,-0.2094935029745102,0.06876702606678009,0.03809939697384834,-0.22719897329807281,0.07585978507995605,-0.3246227502822876,0.01647130213677883,0.03310752660036087,-0.1031540185213089,0.23793041706085205,-0.1920105218887329,0.1940499097108841,0.024363437667489052,0.0048004621639847755,0.016971860080957413,-0.1796782910823822,0.06258751451969147,-0.0039489795453846455,0.654801607131958,0.21658535301685333,-0.05037641525268555,-0.1528969407081604,-0.13159522414207458,-0.2570479214191437,-0.23266319930553436,-0.007857011631131172,-0.1908176690340042,-0.1166522353887558,0.03563868626952171,-0.29106295108795166,-0.10994578897953033,0.12815165519714355,-0.01165024470537901,-0.1608918458223343,-0.26647070050239563,-0.11004026234149933,0.060178931802511215,-0.2902728021144867,-0.09823834151029587,-0.22627705335617065,-0.13801832497119904,0.04099681228399277,-0.10263371467590332,0.1369195133447647,-0.1782979518175125,-0.055165957659482956,-0.0035298459697514772,-0.04041082412004471,0.14024287462234497,-0.047308411449193954,0.11115044355392456,-0.028451809659600258,-0.15581771731376648,-0.43573588132858276,-0.08002123981714249,0.06726956367492676,-0.0043334043584764,-0.0963674783706665,0.026578189805150032,0.09105058014392853,0.2357945740222931,0.11174672096967697,-0.2579368054866791,-0.0016533373855054379,0.0010548371355980635,0.17122527956962585,-0.19220834970474243,0.06888069212436676,0.09203854948282242,0.02779681608080864,-0.04784806817770004,-0.24752750992774963,-0.013416829518973827,-0.18392370641231537,-0.06689339131116867,0.3256376385688782],[-0.19380579888820648,0.037307191640138626,-0.2327612042427063,-0.3703497350215912,-0.3350508213043213,-0.1684512048959732,-0.18242862820625305,-0.20800921320915222,0.33642318844795227,-0.09930253028869629,0.04430650919675827,-0.15717893838882446,0.11365225911140442,-0.03155973181128502,0.23295441269874573,-0.014408079907298088,-0.3515363037586212,0.008016475476324558,-0.029013710096478462,0.5776022672653198,-0.0005149351200088859,0.12564313411712646,-0.1439746767282486,-0.13897934556007385,-0.1317659467458725,-0.16472002863883972,-0.15504497289657593,0.0681319534778595,-0.17333436012268066,-0.09628262370824814,-0.3215201497077942,-0.5917808413505554,0.21782243251800537,0.0426265187561512,0.09709896147251129,0.17128746211528778,-0.004550295416265726,-0.12251294404268265,-0.043590009212493896,0.28845733404159546,-0.16436070203781128,-0.16899532079696655,-0.11294544488191605,0.5488002896308899,-0.2379777580499649,-0.17974157631397247,-0.003953423351049423,-0.1515563577413559,0.021281838417053223,-0.0026212160009890795,0.37964627146720886,-0.06263118982315063,0.2200135588645935,-0.31107208132743835,0.30548954010009766,0.297316312789917,-0.3700976073741913,0.0260612852871418,0.3571621775627136,-0.2531338036060333,-0.07760915905237198,-0.07807347178459167,0.01928703673183918,0.15388257801532745,-0.07510107755661011,0.34360194206237793,0.13692981004714966,0.12681806087493896,-0.2261720448732376,0.2899530529975891,-0.09743548929691315,0.2081153243780136,-0.006460265256464481,-0.591281533241272,0.13960158824920654,-0.024451594799757004,0.07101455330848694,-0.24622687697410583,-0.11451016366481781,-0.037175096571445465,-0.04858022928237915,0.21760506927967072,-0.3576929271221161,-0.11457359790802002,0.10154350101947784,0.03360144421458244,-0.12099144607782364,0.4116807281970978,-0.07330236583948135,0.10635042190551758,0.23521845042705536,-0.19423697888851166,-0.18320342898368835,-0.5433663129806519,0.05730361491441727,-0.0388684906065464,0.29595085978507996,0.01920728199183941,0.10921701043844223,0.07283490896224976,-0.08317491412162781,0.06486295163631439,-0.020426327362656593,-0.15229432284832,0.2886582612991333,0.19365590810775757,0.33979105949401855,-0.08399595320224762,0.2536099851131439,0.34888800978660583,-0.13416960835456848,0.3347110450267792,0.2685651481151581,-0.3485369086265564,0.11419520527124405,0.05999811738729477,0.41574254631996155,0.18373075127601624,0.056363869458436966,-0.14459067583084106,0.20276333391666412,-0.09251898527145386,-0.08213969320058823,0.19582515954971313,0.11226649582386017,0.10919348150491714,-0.30378901958465576,0.15373393893241882],[0.2831977307796478,0.18627896904945374,0.025795727968215942,-0.2619660496711731,-0.05543234571814537,0.03229469805955887,0.2781258523464203,-0.17346541583538055,0.07324827462434769,-0.22778655588626862,0.5355657339096069,-0.23309572041034698,-0.06777404248714447,-0.010484482161700726,-0.13013426959514618,-0.23645980656147003,0.029957527294754982,0.27499327063560486,-0.45377132296562195,0.018721695989370346,0.03925137594342232,0.5039151906967163,-0.0036716896574944258,0.1414853185415268,-0.2513117790222168,-0.3996180593967438,-0.17928659915924072,0.13640111684799194,-0.42112165689468384,0.014550590887665749,-0.10223507136106491,-0.15867295861244202,0.3687879145145416,0.22505198419094086,-0.3486562967300415,-0.12093010544776917,0.4153403341770172,-0.21996547281742096,0.032131463289260864,-0.004367123823612928,0.18872681260108948,0.1645757257938385,-0.0022088135592639446,0.029238903895020485,-0.14435163140296936,-0.44800329208374023,-0.25536197423934937,0.03661913797259331,-0.352693110704422,0.21796417236328125,0.004516368731856346,0.27746883034706116,-0.32863345742225647,0.09663274884223938,0.4425075948238373,-0.08903009444475174,-0.18376880884170532,-0.31355002522468567,0.10254533588886261,0.08808562904596329,-0.0817580595612526,-0.2527433931827545,-0.5466089844703674,0.03165707737207413,-0.4172064960002899,0.09734690934419632,-0.08752482384443283,0.40384790301322937,0.16898664832115173,-0.1764974147081375,-0.03620807081460953,0.09274610877037048,-0.4179029166698456,-0.17977052927017212,0.3311609923839569,0.2959167957305908,0.19163498282432556,-0.4033653140068054,-0.05828632786870003,0.05715371295809746,0.1847131848335266,-0.07924024015665054,0.30268144607543945,0.2220139056444168,0.20173032581806183,0.1626238077878952,0.09927310794591904,-0.21250863373279572,-0.1719469577074051,-0.2031840831041336,0.2830215096473694,0.30292245745658875,0.28511738777160645,-0.01845555007457733,0.22206193208694458,0.039162326604127884,0.32456403970718384,-0.055047400295734406,0.09125181287527084,-0.07193388789892197,-0.10845067352056503,0.32265177369117737,-0.07629803568124771,0.33834609389305115,-0.08659757673740387,-0.09374944865703583,-0.042034413665533066,-0.020686134696006775,0.1935129463672638,-0.036815986037254333,0.3544679284095764,-0.027730045840144157,0.1736631989479065,-0.0050294711254537106,0.08311428874731064,0.13383635878562927,-0.16618864238262177,0.027712909504771233,0.5198700428009033,-0.4133337438106537,-0.21469715237617493,-0.04278517886996269,-0.031982067972421646,-0.07725094258785248,0.04024128615856171,0.1618732064962387,-0.11969777196645737,0.033197153359651566],[-0.09869042783975601,-0.3437454104423523,0.1006588414311409,-0.07987479120492935,-0.031036073341965675,0.33107343316078186,0.19901466369628906,-0.08927091956138611,0.12701527774333954,0.19600513577461243,-0.14237761497497559,-0.02004719339311123,-0.07996930181980133,-0.08385922014713287,0.04704376310110092,-0.2513860762119293,-0.022290976718068123,0.20318765938282013,-0.2082207202911377,-0.2100057452917099,-0.23997555673122406,0.03217613697052002,-0.03170770779252052,0.027651721611618996,0.21906952559947968,0.08727892488241196,0.2159503847360611,-0.019667349755764008,0.19576498866081238,0.10108046233654022,-0.08100786060094833,0.001607884420081973,-0.010848212987184525,-0.007652732543647289,-0.14628443121910095,-0.10031526535749435,0.23510609567165375,-0.33384189009666443,0.044998034834861755,0.39591363072395325,-0.09095481038093567,-0.20198772847652435,-0.0918281227350235,-0.08240138739347458,0.11121413856744766,-0.1661273092031479,-0.23069781064987183,0.11306752264499664,0.0960249975323677,0.14665114879608154,0.09116944670677185,-0.2250467985868454,-0.35494187474250793,0.04962063580751419,0.22548718750476837,-0.2741900682449341,0.09883078932762146,-0.33355578780174255,-0.11768417060375214,0.16503097116947174,-0.08184848725795746,0.15231099724769592,-0.40925270318984985,0.05422968044877052,0.038857199251651764,-0.14424145221710205,0.09459123015403748,-0.15493696928024292,0.035239774733781815,0.08914263546466827,0.7905369400978088,0.19376936554908752,-0.22895431518554688,-0.2904398739337921,-0.1605825424194336,-0.10693180561065674,-0.2799876630306244,0.08195056021213531,-0.13192729651927948,-0.1163308173418045,-0.033312052488327026,-0.18905992805957794,-0.0005274447030387819,0.08554968237876892,0.01258544810116291,-0.10406850278377533,0.15645992755889893,-0.17066030204296112,-0.18858295679092407,-0.35508492588996887,0.049990441650152206,0.02948952466249466,-0.06308450549840927,-0.13786132633686066,0.17699965834617615,0.2132548987865448,-0.045256324112415314,0.006516479887068272,-0.20563308894634247,-0.23180614411830902,0.26862311363220215,-0.08425614982843399,-0.1887184977531433,0.06482639908790588,-0.24341771006584167,-0.43506401777267456,-0.001840416924096644,-0.222591370344162,0.002648812485858798,-0.19744189083576202,-0.17584876716136932,-0.0730665996670723,0.23647931218147278,-0.014977136626839638,-0.24938558042049408,-0.09303772449493408,0.0013973626773804426,0.039991557598114014,-0.04964493215084076,-0.2652758061885834,0.028766708448529243,0.20025214552879333,-0.15134471654891968,-0.21629154682159424,0.12178603559732437,-0.0012160483747720718,-0.13242140412330627,0.1288014054298401],[-0.005266223568469286,-0.26030951738357544,0.35385239124298096,0.17542092502117157,-0.15392647683620453,-0.19817142188549042,-0.11881913989782333,-0.04908888414502144,0.22642463445663452,0.04916342347860336,-0.020478209480643272,-0.11559686809778214,-0.2674059569835663,-0.1490490734577179,-0.0008258246816694736,0.07466871291399002,0.4767903685569763,-0.29723215103149414,0.09650354087352753,-0.21216383576393127,0.14494502544403076,-0.06684377789497375,-0.12376377731561661,0.27235671877861023,0.14457003772258759,0.05699247121810913,-0.07378000020980835,-0.2538926899433136,0.05828956514596939,-0.01885899342596531,0.10995717346668243,-0.13484914600849152,-0.06708154827356339,0.12431875616312027,-0.059036046266555786,0.14057940244674683,-0.2558504641056061,0.04245635122060776,0.08085891604423523,0.18606655299663544,-0.07969697564840317,0.14242063462734222,-0.015447658486664295,0.019631780683994293,0.016873136162757874,-0.299399733543396,0.3244986832141876,0.2504712641239166,0.2721438705921173,-0.12962445616722107,0.10930126905441284,0.16306599974632263,0.01489942241460085,-0.0066300081089138985,-0.1759132742881775,-0.08066512644290924,0.06104828789830208,-0.20924042165279388,0.037469398230314255,0.201582133769989,-0.15151196718215942,-0.005565186031162739,0.27340295910835266,0.16634906828403473,0.015144663862884045,0.2820350229740143,0.026396023109555244,-0.031855903565883636,-0.03542828559875488,0.11148831248283386,0.3425431251525879,-0.18849290907382965,0.08747352659702301,0.04233730584383011,0.2040112465620041,-0.08611224591732025,0.02617448754608631,0.003572826972231269,-0.179578498005867,-0.02628391422331333,0.2234003245830536,0.2352980673313141,-0.1352173089981079,-0.3496704399585724,0.03393033891916275,0.1343774050474167,-0.12229140102863312,-0.06761255115270615,-0.07047686725854874,-0.22272391617298126,0.007369341794401407,0.20821194350719452,0.08356337994337082,-0.105722576379776,0.13448494672775269,-0.07263818383216858,-0.05849234759807587,0.01926332153379917,-0.15947669744491577,-0.14596563577651978,0.4515918493270874,-0.013976439833641052,0.3782103657722473,-0.4908114969730377,0.1416536122560501,-0.05141732841730118,0.2206304669380188,0.06589522212743759,0.10271771997213364,0.14221279323101044,0.080742746591568,-0.3747132420539856,0.10032131522893906,-0.02361266501247883,0.1356116533279419,0.28803303837776184,-0.08444799482822418,-0.13868431746959686,-0.2705395817756653,-0.18119268119335175,0.40536966919898987,-0.0810600072145462,0.33849582076072693,0.4467717707157135,0.23814541101455688,-0.059955768287181854,-0.016968484967947006,-0.1939333975315094],[-0.05675384774804115,-0.3050506114959717,-0.12971055507659912,0.09513487666845322,0.019692717120051384,0.1072627454996109,-0.12769682705402374,-0.14194908738136292,-0.053080298006534576,-0.053113970905542374,-0.17461681365966797,0.1477312296628952,0.07208520919084549,0.2225424200296402,0.10502103716135025,-0.10024736076593399,-0.009714029729366302,-0.010429170913994312,-0.1295032948255539,0.11648615449666977,0.058599282056093216,-0.03804071992635727,-0.061202190816402435,0.07528194040060043,0.09839785844087601,0.03834386542439461,0.03414788097143173,-0.20503246784210205,-0.004097047261893749,0.10821185261011124,0.21655674278736115,0.06226739287376404,-0.10920620709657669,-0.07942194491624832,0.07092045247554779,-0.042323287576436996,0.10154351592063904,-0.02354268729686737,-0.07224705815315247,-0.1962442398071289,0.05793077126145363,-0.08860990405082703,-0.011010948568582535,-0.12497511506080627,-0.17329555749893188,-0.026078982278704643,0.14871005713939667,-0.0663926899433136,0.03283239156007767,-0.02260502427816391,0.060240719467401505,0.07310957461595535,0.029396193102002144,-0.07521021366119385,0.01966208592057228,0.06798187643289566,0.06167030334472656,-0.08998452126979828,0.0009111916879191995,0.013320839032530785,-0.08443449437618256,-0.01569538004696369,-0.16987106204032898,-0.16521212458610535,0.17861869931221008,-0.10760220140218735,0.030257930979132652,0.11677442491054535,-0.05455959215760231,0.10048828274011612,-0.09983007609844208,-0.0817025750875473,-0.0467388778924942,0.05934252589941025,0.01125174481421709,-0.23814304172992706,-0.18921956419944763,-0.0012679139617830515,-0.16410493850708008,-0.06838808953762054,0.022524723783135414,-0.1605321615934372,-0.03469172865152359,0.08734823018312454,0.056321147829294205,-0.012441364116966724,-0.003040345385670662,0.11145488917827606,-0.01937083713710308,-0.07521325349807739,0.07194279879331589,0.13885585963726044,-0.08393300324678421,-0.11740832775831223,-0.040767159312963486,-0.11335615068674088,-0.22573095560073853,0.0907539427280426,-0.2646041512489319,-0.25438934564590454,-0.14128440618515015,0.1409323811531067,0.03171966224908829,-0.2186315357685089,-0.014293103478848934,-0.14307524263858795,0.07158833742141724,-0.08189895749092102,0.09939374774694443,-0.09978605061769485,-0.11867193877696991,-0.20062638819217682,-0.04880902171134949,0.0403926819562912,0.18988807499408722,0.011101029813289642,-0.10563402622938156,-0.14569835364818573,-0.17232643067836761,-0.1082104742527008,0.002474892418831587,-0.03529985249042511,0.07313671708106995,-0.016090277582406998,-0.08032389730215073,-0.06817980855703354,0.03788754343986511,-0.00554018747061491],[0.20399942994117737,-0.2389686405658722,-0.007807107642292976,-0.08274254202842712,0.22949908673763275,-0.14345014095306396,-0.12925846874713898,0.012184316292405128,0.154146209359169,0.017070891335606575,-0.33001190423965454,0.10212628543376923,0.0749199166893959,-0.23699256777763367,0.09234373271465302,0.17988118529319763,0.061387982219457626,0.06916449964046478,-0.09711850434541702,0.1627586930990219,-0.2815473973751068,-0.16273723542690277,-0.04914721101522446,-0.1985275000333786,-0.37737777829170227,0.3625839948654175,-0.17980161309242249,-0.0728553980588913,-0.18009108304977417,-0.04591905325651169,-0.16269370913505554,-0.028152966871857643,0.09219711273908615,-0.13978184759616852,-0.05665087327361107,0.04193064942955971,-0.2874542474746704,0.16011610627174377,0.20744168758392334,0.4692656099796295,-0.007411652710288763,-0.31324201822280884,0.22436675429344177,0.15345656871795654,-0.19648338854312897,-0.2665948271751404,0.024927200749516487,-0.14308878779411316,-0.3371410071849823,-0.14510202407836914,0.017525564879179,0.07926889508962631,-0.11969871819019318,0.15660041570663452,0.2986985743045807,0.21215669810771942,-0.05054854974150658,0.03859253227710724,0.2697001099586487,0.05604831874370575,-0.34229832887649536,0.16182421147823334,-0.08573150634765625,0.42701658606529236,-0.18277205526828766,0.3102680444717407,-0.06732998788356781,-0.22804537415504456,-0.05827198550105095,0.036164212971925735,0.24125716090202332,0.034978706389665604,0.3085034191608429,-0.09230844676494598,-0.2716234624385834,-0.25700968503952026,0.08298072963953018,-0.16984465718269348,-0.31522566080093384,0.02915470488369465,0.011175455525517464,-0.029080189764499664,-0.18344272673130035,-0.0007193138590082526,-0.3526366055011749,-0.14298559725284576,-0.38907402753829956,0.11218459159135818,-0.6587554812431335,-0.24108418822288513,-0.14700351655483246,0.15592524409294128,-0.1647576093673706,-0.2826157808303833,-0.16325707733631134,0.24401190876960754,-0.2886371612548828,0.13356934487819672,0.0643310695886612,0.2171703726053238,-0.2764934301376343,-0.0818287581205368,0.24456900358200073,-0.10731127858161926,0.09689106792211533,0.06519170105457306,-0.05681813135743141,-0.23422886431217194,-0.1750762015581131,0.21194708347320557,0.24763759970664978,0.29542380571365356,0.309997022151947,-0.017896447330713272,-0.10805072635412216,-0.225876584649086,-0.0609356127679348,-0.19973355531692505,-0.3398030400276184,0.1203191801905632,0.3265930116176605,0.1906394511461258,-0.22438733279705048,0.09013953059911728,-0.21245557069778442,-0.12699362635612488,0.09487093985080719,-0.14475689828395844],[0.01633104681968689,-0.07927949726581573,0.255271852016449,0.1550603210926056,-0.02171175181865692,-0.12261098623275757,-0.030986683443188667,-0.011889097280800343,0.1523997038602829,0.11527583003044128,-0.19242863357067108,-0.19828113913536072,-0.4084845781326294,-0.07335779815912247,-0.2947976887226105,0.18430280685424805,0.8470306992530823,-0.05236639454960823,0.0690537616610527,-0.21392367780208588,0.025412416085600853,-0.13148459792137146,0.013765059411525726,-0.05059095844626427,0.10591696947813034,0.10542120039463043,0.01543359737843275,-0.08494176715612411,0.26178327202796936,-0.16460773348808289,0.13200436532497406,0.14861850440502167,-0.28688907623291016,-0.09422995150089264,0.08502566814422607,0.27326667308807373,-0.24629594385623932,0.2629016637802124,-0.1369008719921112,0.14408133924007416,-0.0975397527217865,0.18077673017978668,0.2752526104450226,-0.13362130522727966,0.004950375761836767,-0.2838584780693054,0.2660030126571655,0.5565136671066284,-0.11690149456262589,-0.11526655405759811,0.061600521206855774,0.046861156821250916,0.02447238378226757,0.2396499216556549,-0.22090677917003632,-0.2064937949180603,0.14348247647285461,-0.040511585772037506,-0.13044069707393646,0.3049086332321167,0.04005444794893265,-0.012651477009057999,0.10864955186843872,0.156222864985466,-0.026025567203760147,0.20938386023044586,0.06256788223981857,-0.11099804937839508,-0.10563371330499649,0.2173985242843628,0.07574784755706787,-0.4278063178062439,0.21358045935630798,0.1673487424850464,0.11178959906101227,-0.26342901587486267,0.3632350564002991,-0.0478300005197525,-0.02887631021440029,-0.0857519656419754,0.0365179181098938,0.09753119945526123,0.22361533343791962,-0.3108304738998413,-0.2204916626214981,-0.026726316660642624,0.03242892771959305,-0.32765093445777893,-0.12405148148536682,-0.12915466725826263,-0.012119496241211891,-0.039102621376514435,-0.014405999332666397,0.24380221962928772,-0.15857774019241333,-0.06450361758470535,0.08146604895591736,-0.11535777896642685,0.013564921915531158,-0.14855369925498962,0.4285323917865753,0.0009313456248492002,0.41794872283935547,-0.18518733978271484,-0.3852998912334442,-0.04968895763158798,0.19432386755943298,0.44668421149253845,0.11650922149419785,-0.020780116319656372,0.15481163561344147,-0.12299338728189468,-0.21643732488155365,0.07307300716638565,0.07321491092443466,0.12521350383758545,-0.36525213718414307,-0.18863935768604279,0.07369477301836014,0.2145083248615265,0.4828358292579651,-0.29913198947906494,-0.0050267563201487064,-0.091084323823452,0.11986324191093445,-0.035631973296403885,0.41954168677330017,-0.28724923729896545],[-0.1512429118156433,0.1728377640247345,-0.10108431428670883,0.0904383659362793,-0.08419348299503326,-0.15067970752716064,0.01415465772151947,-0.0761384665966034,0.062327511608600616,-0.00925273634493351,0.12769711017608643,0.1613505631685257,-0.008563181385397911,0.14619998633861542,-0.044623617082834244,0.14943107962608337,-0.035439226776361465,0.0180212389677763,0.09467175602912903,-0.13788475096225739,0.3301691710948944,-0.279163658618927,0.041169699281454086,0.026002230122685432,0.06667646765708923,-0.15641412138938904,-0.18597903847694397,-0.15475104749202728,0.12573830783367157,0.027109233662486076,-0.035502947866916656,-0.014162261970341206,-0.16833671927452087,0.13463860750198364,0.006990186870098114,-0.08832406997680664,-0.07456560432910919,-0.030046289786696434,-0.0036808939184993505,-0.19433081150054932,0.38281068205833435,0.04378010332584381,0.17868757247924805,-0.0499730184674263,-0.10922352224588394,0.1458595097064972,-0.16212022304534912,-0.060110997408628464,-0.011482655070722103,0.13774019479751587,0.07936690747737885,0.31287339329719543,-0.05721808224916458,-0.08122024685144424,-0.11137621849775314,-0.07867874950170517,-0.1500459760427475,-0.02894137054681778,-0.008999330922961235,0.03452553600072861,-0.010485470294952393,0.0941627100110054,0.1034977063536644,0.026513507589697838,-0.01577528566122055,0.10664304345846176,0.04894047975540161,-0.07764498144388199,-0.05794547498226166,0.08434584736824036,0.02023637853562832,-0.15449506044387817,0.10475953668355942,-0.1439961940050125,0.1855824887752533,0.07453427463769913,-0.041543446481227875,-0.07287927716970444,0.0654171034693718,0.0988609790802002,0.2214929312467575,0.1635555624961853,-0.003206640249118209,0.1499081552028656,-0.015468827448785305,0.16473014652729034,-0.14289189875125885,0.032319314777851105,-0.14637744426727295,-0.061442356556653976,0.26361390948295593,0.11588319391012192,0.261185884475708,0.009888984262943268,-0.01683458313345909,0.017162617295980453,-0.10762681812047958,-0.009893848560750484,0.04896023869514465,0.10055884718894958,-0.031222952529788017,0.3133784830570221,-0.0795849859714508,-0.058698225766420364,-0.01206856220960617,0.03978575021028519,0.09834703803062439,0.007572377100586891,-0.04563063755631447,0.0646982342004776,-0.06809140741825104,-0.0432940237224102,-0.017093565315008163,-0.06782207638025284,0.2333647757768631,0.034244734793901443,0.002078692428767681,0.048753488808870316,-0.012841593474149704,-0.20386140048503876,-0.0650377869606018,0.018359139561653137,0.036388199776411057,0.06134289130568504,-0.23314304649829865,-0.08275358378887177,0.05791383981704712,0.06260496377944946],[0.005543082021176815,-0.1545504480600357,-0.3211776614189148,-0.13057097792625427,-0.11514289677143097,-0.2271064966917038,-0.3915958106517792,0.025920026004314423,-0.09602146595716476,-0.08724251389503479,-0.2590080201625824,-0.13181960582733154,0.00310214189812541,-0.0655202567577362,0.20169848203659058,0.10917125642299652,-0.08173622190952301,-0.04285305365920067,0.19815337657928467,0.15027038753032684,0.01591048203408718,-0.3520404100418091,0.272114634513855,-0.08516375720500946,-0.21652692556381226,-0.08673657476902008,-0.09050171822309494,-0.10782835632562637,-0.2302989959716797,-0.13011766970157623,-0.15537254512310028,-0.28163209557533264,0.06490948796272278,-0.3271654546260834,-0.15413202345371246,-0.10715238749980927,-0.34972235560417175,-0.13024838268756866,0.22889506816864014,0.33857420086860657,0.09963469952344894,-0.17644928395748138,0.1214374229311943,0.26526114344596863,-0.24779221415519714,0.08456697314977646,0.13814447820186615,-0.02246355265378952,0.03402458876371384,-0.09863985329866409,0.2323889136314392,0.017925575375556946,-0.24938853085041046,0.17492924630641937,-0.09680843353271484,0.19450627267360687,-0.16816677153110504,0.09071673452854156,0.20813952386379242,0.026767507195472717,-0.020972181111574173,0.0893615111708641,0.019230715930461884,0.21996265649795532,-0.08741770684719086,0.09604047983884811,0.01203883159905672,-0.23697352409362793,-0.050289832055568695,-0.17140504717826843,0.40417882800102234,0.124226875603199,0.30213508009910583,-0.08863862603902817,-0.1029549092054367,-0.15660806000232697,-0.052631258964538574,-0.13344401121139526,-0.11983410269021988,-0.0680200532078743,0.13769042491912842,-0.08669162541627884,-0.04904688149690628,-0.00023535676882602274,-0.18442510068416595,-0.09395834058523178,-0.015028341673314571,0.06821747869253159,-0.14751549065113068,-0.34473463892936707,-0.05917813628911972,0.08410541713237762,-0.006765179801732302,-0.10037220269441605,0.10727452486753464,-0.12878955900669098,-0.13020436465740204,0.202201709151268,0.12515683472156525,0.14679588377475739,0.15636825561523438,-0.12308156490325928,0.19655324518680573,-0.2066175788640976,-0.02348197065293789,0.18798144161701202,-0.08668694645166397,-0.250892698764801,-0.1825425922870636,0.18223191797733307,0.26403528451919556,0.37281692028045654,-0.12100165337324142,-0.11035579442977905,-0.41476690769195557,-0.23916955292224884,-0.0423431396484375,0.18906687200069427,-0.09274817258119583,0.07266594469547272,0.1238667294383049,0.12391062825918198,-0.06061391159892082,-0.029083283618092537,0.02511865831911564,0.16248881816864014,0.32097187638282776,-0.17877452075481415],[0.12883350253105164,-0.12774494290351868,0.17459969222545624,0.16486428678035736,0.32539811730384827,-0.2630026340484619,-0.12748564779758453,-0.10782914608716965,0.42911291122436523,0.476949006319046,0.10402556508779526,0.17158731818199158,-0.48258355259895325,-0.17566485702991486,-0.38442665338516235,0.3322313725948334,0.7138463258743286,-0.06968391686677933,0.009820123203098774,-0.2477361410856247,-0.07399538904428482,-0.23342880606651306,0.10773012787103653,0.13352708518505096,0.18734927475452423,-0.056845977902412415,0.0051668668165802956,-0.11539090424776077,0.41534581780433655,-0.20178939402103424,0.03256255015730858,0.3574851155281067,-0.3934400975704193,-0.010757901705801487,0.29496076703071594,0.07646626979112625,-0.13976117968559265,0.4061102867126465,-0.1092909425497055,0.24379821121692657,-0.09628859907388687,-0.1616048812866211,0.17791296541690826,-0.3104080557823181,0.20146030187606812,-0.13100077211856842,0.09351451694965363,0.5424004197120667,-0.21625326573848724,-0.0023751265835016966,-0.268964946269989,-0.13587956130504608,0.033571768552064896,0.193792924284935,-0.19937445223331451,-0.48540499806404114,0.20292603969573975,0.21542736887931824,-0.10893616825342178,0.3524538278579712,-0.1940755546092987,-0.11670387536287308,0.15939387679100037,0.3142959475517273,-0.2184031754732132,0.4425109624862671,-0.1992480754852295,-0.24231193959712982,-0.12464773654937744,-0.14671479165554047,-0.22597479820251465,-0.12402807921171188,0.2878689169883728,0.07365880906581879,-0.05738656222820282,0.17126215994358063,0.35737672448158264,-0.04239434376358986,-0.25438567996025085,-0.14969612658023834,0.002508794888854027,0.11935016512870789,0.10873310267925262,-0.38459089398384094,-0.06824623793363571,0.011123353615403175,0.11244353652000427,-0.361093133687973,-0.09013669937849045,0.08392137289047241,-0.19090376794338226,-0.1756085604429245,0.08262225240468979,0.2266075760126114,-0.07775722444057465,-0.03743918240070343,0.2577047348022461,0.046013619750738144,0.14286646246910095,-0.32499930262565613,0.17060934007167816,-0.11776706576347351,0.18956570327281952,0.0056678419932723045,-0.4652620553970337,0.04874065890908241,-0.16316919028759003,0.42006731033325195,0.17342829704284668,-0.04127897694706917,0.41403624415397644,0.010213599540293217,-0.10732617229223251,0.20830783247947693,0.18893250823020935,-0.1603822559118271,-0.4542059004306793,-0.09064465016126633,-0.16999393701553345,0.11281630396842957,0.502537727355957,-0.283277690410614,-0.026679398491978645,-0.3806311786174774,0.22827008366584778,-0.18168681859970093,0.48293933272361755,-0.1929657757282257],[-0.014913438819348812,0.09259767830371857,-0.12312325835227966,0.07358109951019287,0.2058124542236328,-0.2756037414073944,0.18994617462158203,0.05879693478345871,0.05071298032999039,0.03646387532353401,0.1416885405778885,0.40716055035591125,-0.05311620980501175,0.2711085379123688,0.1052049845457077,0.16150309145450592,-0.015901582315564156,-0.011143078096210957,0.056988123804330826,-0.15248781442642212,0.11717776209115982,0.041588086634874344,-0.035663094371557236,-0.0002130156644852832,-0.07838999480009079,-0.06951525062322617,-0.15859009325504303,-0.15263694524765015,0.23983140289783478,0.3738015592098236,0.04002998396754265,0.2337280958890915,-0.12327788770198822,0.2083567976951599,-0.04359610751271248,0.056881293654441833,-0.08233270049095154,0.3543992340564728,-0.2035161554813385,0.15224583446979523,0.12741327285766602,0.10174603760242462,0.15941156446933746,-0.0006374463555403054,-0.17296501994132996,-0.09522247314453125,-0.17373478412628174,-0.16822046041488647,-0.22576969861984253,-0.08692920953035355,-0.21750743687152863,-0.018312091007828712,0.24985003471374512,0.1806521862745285,0.029353825375437737,0.029391711577773094,-0.09851917624473572,0.057280033826828,0.06016073003411293,0.15334036946296692,-0.040762487798929214,0.11172915995121002,0.03922075778245926,0.08294416964054108,-0.2745533883571625,0.06926445662975311,-0.06595410406589508,-0.07943464815616608,-0.22492234408855438,0.27471044659614563,0.11581514030694962,-0.06046018749475479,-0.06611964106559753,-0.1297377347946167,0.25104036927223206,0.18029384315013885,0.10622098296880722,-0.11244061589241028,-0.11730197817087173,0.04789547249674797,0.05210914462804794,0.09704142808914185,0.05188126116991043,-0.00397747615352273,-0.08694878965616226,0.12093333899974823,-0.08121957629919052,-0.000018261293007526547,-0.11238306015729904,0.28985652327537537,0.235871359705925,-0.07518816739320755,0.18335303664207458,-0.14594358205795288,0.06894343346357346,0.037447698414325714,0.2150541990995407,-0.20718710124492645,0.20124714076519012,0.1105218455195427,-0.08411876112222672,0.2353353649377823,0.034165848046541214,0.2750568389892578,-0.019423913210630417,0.22575488686561584,0.15341390669345856,0.0951760783791542,-0.23130397498607635,0.10167112201452255,0.20325562357902527,0.10750363022089005,0.115725576877594,-0.3610062003135681,0.06685051321983337,0.11032034456729889,-0.1344326138496399,0.0801519975066185,0.1855875700712204,-0.059218525886535645,0.17883379757404327,-0.06324110925197601,-0.14107777178287506,-0.136930450797081,-0.15688887238502502,-0.06600912660360336,-0.3156474530696869,-0.09064090996980667],[-0.023423582315444946,0.08706295490264893,-0.17909550666809082,0.0617850124835968,-0.05020180717110634,-0.07800949364900589,-0.057025909423828125,0.25685495138168335,0.15316039323806763,-0.0969485193490982,-0.21215221285820007,0.2993939220905304,0.0634835958480835,-0.13249865174293518,0.06904979795217514,0.3374055325984955,0.09921000897884369,-0.21595792472362518,0.15409918129444122,-0.04208771884441376,0.0024410344194620848,-0.37463849782943726,0.4023621678352356,0.11396532505750656,0.020421428605914116,0.08800816535949707,0.03369936719536781,-0.11989821493625641,0.09930486977100372,0.2683526873588562,-0.14168694615364075,-0.00670925946906209,-0.08151392638683319,-0.1815580576658249,-0.2187006026506424,0.1324528604745865,-0.2671487033367157,0.1064232885837555,-0.05453938990831375,0.38172081112861633,-0.026920123025774956,0.04389669746160507,0.23146481812000275,-0.05673893168568611,-0.12165212631225586,0.022632146254181862,0.11300080269575119,0.021830519661307335,-0.10818519443273544,-0.24693088233470917,0.21614183485507965,0.0257601048797369,-0.2294853925704956,0.21846497058868408,-0.1329178363084793,-0.14829906821250916,-0.19606232643127441,0.29043349623680115,0.03054475598037243,0.16483932733535767,0.1494125872850418,0.07690583169460297,0.2545137405395508,0.2109857052564621,0.046894509345293045,0.014979218132793903,0.23062650859355927,-0.3229735791683197,-0.14565399289131165,-0.0648847222328186,0.6101564168930054,0.10653358697891235,0.10906318575143814,-0.32200106978416443,0.10546449571847916,-0.21097442507743835,-0.07738792151212692,0.16962534189224243,-0.027777621522545815,0.249989852309227,0.15019117295742035,-0.16041846573352814,-0.10123790800571442,-0.007482174318283796,-0.3832533061504364,0.022958284243941307,0.020757393911480904,-0.0965639278292656,-0.18214628100395203,-0.033774908632040024,-0.020301437005400658,0.13196446001529694,0.05256456881761551,0.05733969807624817,-0.20369520783424377,0.06505632400512695,-0.09626404196023941,0.11472898721694946,0.27172574400901794,0.08824772387742996,0.036191314458847046,0.1326013207435608,-0.21008740365505219,-0.18056750297546387,-0.08340469002723694,-0.041973717510700226,0.0011837756028398871,0.07291793823242188,-0.13479776680469513,0.11294854432344437,-0.10520853847265244,0.09695012867450714,-0.25078070163726807,-0.15111729502677917,-0.1272038072347641,0.049426279962062836,-0.26340287923812866,0.05116918683052063,-0.06189342588186264,0.22784163057804108,-0.14540034532546997,0.21907663345336914,-0.045569468289613724,-0.09101664274930954,-0.08700975030660629,0.2140674591064453,0.09895974397659302,-0.12776167690753937],[0.43996575474739075,-0.204464852809906,0.3612498342990875,0.14199557900428772,0.27806681394577026,0.13721182942390442,0.07067721337080002,-0.16192443668842316,0.3370554447174072,0.5267742276191711,0.2762684226036072,0.10617280751466751,-0.33104076981544495,-0.0961986556649208,-0.45606881380081177,-0.043176814913749695,0.6592248678207397,-0.05122905969619751,-0.12173939496278763,-0.5329787731170654,-0.2684231996536255,-0.00008594998507760465,-0.19358880817890167,-0.11538232862949371,-0.028666071593761444,0.012674436904489994,0.07133260369300842,-0.13137014210224152,0.2457498162984848,-0.058586232364177704,-0.35096099972724915,0.47751402854919434,-0.16140377521514893,-0.0500517301261425,0.1527583748102188,-0.03831060603260994,-0.13969513773918152,0.19864879548549652,-0.13026805222034454,0.3232068121433258,-0.2284042090177536,-0.2786060571670532,0.33677634596824646,-0.3424079716205597,-0.0840684249997139,-0.04873311519622803,0.07477066665887833,0.14591923356056213,-0.3292314112186432,0.134408637881279,-0.265153706073761,-0.29381686449050903,0.06408017873764038,0.13253138959407806,-0.064482681453228,-0.35010913014411926,0.2670697569847107,0.12402964383363724,-0.24872392416000366,0.21245092153549194,-0.0633106678724289,-0.153941810131073,-0.18652638792991638,0.36496368050575256,-0.06125996261835098,0.4803013503551483,-0.10314296931028366,0.0705011710524559,0.08273805677890778,-0.18761418759822845,-0.29621294140815735,-0.26290398836135864,0.3049047589302063,0.07744093239307404,-0.014584096148610115,0.23096847534179688,-0.03993181139230728,-0.06971771270036697,-0.32747945189476013,-0.3690621256828308,-0.06958486884832382,0.14188747107982635,0.14804327487945557,-0.42397502064704895,-0.22687125205993652,-0.11849427223205566,0.10665737092494965,-0.18749111890792847,-0.2978949546813965,0.17210984230041504,-0.11331244558095932,-0.16267040371894836,-0.0902443677186966,0.25478753447532654,-0.12192588299512863,-0.13125048577785492,0.25761890411376953,-0.0824691653251648,0.06693973392248154,-0.24812187254428864,0.2857699990272522,-0.247267484664917,0.22518810629844666,0.055235378444194794,-0.5262830257415771,-0.32971814274787903,0.01979643478989601,0.4608505070209503,0.02591880038380623,-0.1882815808057785,0.2796359062194824,-0.21313981711864471,-0.11714250594377518,0.3298860490322113,0.01443974208086729,-0.23121552169322968,-0.50987309217453,-0.14274153113365173,-0.18751861155033112,0.2028447538614273,0.5535706877708435,-0.1301475316286087,-0.1272486299276352,-0.19804078340530396,0.18110020458698273,0.02090129628777504,0.3121277987957001,-0.2140011489391327],[0.18027062714099884,0.12978678941726685,-0.21317307651042938,-0.11165046691894531,0.09970506280660629,-0.10340945422649384,0.19675536453723907,0.0242437943816185,0.14300397038459778,-0.03603265807032585,0.3357377052307129,-0.13230210542678833,-0.07527179270982742,0.302213579416275,-0.13040179014205933,0.03172743692994118,0.19301287829875946,0.11613891273736954,-0.2584536373615265,-0.11816249787807465,-0.07463612407445908,0.3127598762512207,-0.19929665327072144,-0.03398822247982025,-0.19242554903030396,-0.24833813309669495,0.11084360629320145,-0.08348327875137329,0.007845388725399971,0.08395014703273773,-0.08207335323095322,0.26157933473587036,0.08533661812543869,0.39038532972335815,0.0821048766374588,-0.05178298428654671,0.16310814023017883,0.2696022093296051,-0.4022994041442871,0.15132150053977966,0.16825419664382935,-0.1473206728696823,-0.07828498631715775,-0.05042227730154991,-0.031658727675676346,0.0700986459851265,-0.19673025608062744,-0.30448418855667114,-0.39406517148017883,0.2711719870567322,0.10781262069940567,0.022701503708958626,0.20942813158035278,0.026251496747136116,0.21575705707073212,-0.04382931441068649,-0.13179075717926025,-0.039845507591962814,-0.07055898010730743,-0.09061730653047562,-0.2284282147884369,-0.22326165437698364,-0.2368074357509613,-0.17044766247272491,-0.5122252106666565,0.10942120850086212,0.030535437166690826,0.2172785848379135,-0.1433912217617035,0.33844539523124695,-0.010623001493513584,-0.06668083369731903,-0.2181786596775055,-0.1616242378950119,0.19084827601909637,0.30931025743484497,0.06483081728219986,-0.5400823950767517,-0.22084754705429077,-0.11187390983104706,-0.020930612459778786,0.03022606484591961,-0.0314202643930912,0.057762082666158676,0.035993531346321106,0.11708518862724304,-0.1645994484424591,-0.1386466920375824,-0.09895480424165726,0.4310770332813263,0.2782038748264313,-0.3628249764442444,0.05905822664499283,-0.18127129971981049,0.33094272017478943,0.24591733515262604,0.45390474796295166,-0.4460262656211853,0.26264655590057373,0.05248522385954857,-0.25570622086524963,-0.0620829239487648,0.16512224078178406,0.32328560948371887,0.018924087285995483,0.06276082247495651,0.06002260744571686,0.014407940208911896,0.12930695712566376,0.09897533059120178,0.19971740245819092,0.02929677814245224,0.13344991207122803,-0.35279154777526855,0.19785188138484955,0.008429210633039474,0.1129244789481163,0.13284119963645935,0.3187166452407837,0.008807124570012093,0.0818859413266182,-0.0479697547852993,-0.0007983507821336389,-0.12996017932891846,-0.01246704813092947,0.027223454788327217,-0.44120413064956665,0.042045578360557556],[-0.11497500538825989,-0.08950101584196091,-0.1983613520860672,0.32199719548225403,0.06675301492214203,-0.19349807500839233,0.05469558760523796,0.22066745162010193,0.05897092819213867,-0.04339011013507843,-0.2686031758785248,