{"model_type":"mlp","input_size":63,"labels":["A","B","C","D","E","F","G","H","I","K","L","N","O","P","Q","S","T","U","V","W","X","Y"],"layers":[{"name":"dense_Dense1","input_size":63,"output_size":128,"activation":"relu","weights":[[-0.011891309171915054,0.1600540429353714,0.04720734804868698,0.04795364290475845,-0.04473183676600456,-0.19923879206180573,0.0842674970626831,0.030014215037226677,-0.0077321529388427734,-0.002010711468756199,0.016760356724262238,-0.0476076677441597,0.06448366492986679,-0.005073461215943098,-0.08355432748794556,-0.04219110310077667,0.05147293955087662,-0.06113381311297417,0.10371610522270203,0.01232113130390644,0.1560267210006714,0.09272302687168121,-0.0037869084626436234,0.010422722436487675,-0.028002459555864334,-0.14723962545394897,-0.06556598097085953,0.04052744805812836,0.08861307799816132,-0.12161779403686523,0.03689343482255936,0.10520847141742706,-0.15115535259246826,0.13507062196731567,0.017875362187623978,-0.058526549488306046,0.1332760602235794,-0.12505291402339935,0.023923974484205246,-0.0018232560250908136,-0.17525891959667206,-0.0334072969853878,0.14849761128425598,0.17290543019771576,0.07720690965652466,0.05169522389769554,0.07530603557825089,0.10750610381364822,0.08318997174501419,0.08924516290426254,0.0976262018084526,-0.09014420211315155,0.1454787403345108,-0.0000933516348595731,-0.07356259226799011,0.04133260250091553,-0.03513311594724655,0.1300266534090042,0.06793862581253052,0.15350286662578583,0.03686106950044632,-0.04440156742930412,-0.0967300608754158,-0.10947946459054947,0.10522182285785675,0.149979367852211,0.06180724874138832,-0.025686699897050858,-0.08407695591449738,-0.021669698879122734,0.06185820326209068,0.16760076582431793,0.13576699793338776,0.05408993735909462,-0.14831142127513885,-0.11974575370550156,-0.06504078954458237,-0.026247095316648483,-0.03200358524918556,0.044259652495384216,0.1389944851398468,0.0320616252720356,-0.09831707179546356,-0.11715398728847504,0.08035895228385925,0.12155216187238693,-0.01002319436520338,-0.09723712503910065,-0.0665636882185936,0.016344372183084488,0.019386060535907745,0.02790502831339836,-0.08756157010793686,-0.0680755078792572,0.05161714926362038,-0.047522492706775665,0.12283433228731155,0.07505111396312714,0.010197905823588371,-0.1650509387254715,0.0701952651143074,0.03419169411063194,0.03782389312982559,-0.0534772090613842,0.13343964517116547,0.14294886589050293,-0.020704012364149094,-0.1119641438126564,0.032735828310251236,0.11766276508569717,-0.1055518165230751,0.19838422536849976,0.07546106725931168,-0.1005520448088646,0.08602914959192276,0.08719023317098618,0.04348350688815117,0.19197681546211243,0.0600014366209507,0.13749122619628906,0.16312679648399353,0.05597564950585365,0.10669300705194473,-0.1041751503944397,-0.098998062312603,-0.0003893947578035295,-0.054434921592473984,0.13365793228149414],[-0.06960003077983856,-0.05408047139644623,-0.013148253783583641,-0.10428556054830551,-0.14211754500865936,0.0665207952260971,-0.002050834009423852,-0.04595864191651344,0.0852530226111412,0.014207926578819752,0.011680040508508682,0.19137166440486908,0.13145330548286438,-0.02637711726129055,0.1134769544005394,0.09329012781381607,-0.03955629840493202,0.1565731167793274,0.02205653488636017,0.05544383451342583,-0.023480022326111794,0.00175595807377249,-0.0395694226026535,-0.0014708865201100707,0.044914424419403076,-0.0034128627739846706,-0.12073475867509842,0.041750870645046234,-0.016022568568587303,0.04879245162010193,0.004339106846600771,0.19184648990631104,0.15249423682689667,-0.11969977617263794,-0.04909530282020569,-0.08745384961366653,-0.0957382544875145,0.18947358429431915,0.04603864625096321,-0.12614718079566956,-0.16666297614574432,0.07790538668632507,-0.12686915695667267,0.055543266236782074,-0.06322906166315079,-0.02320205606520176,-0.1274053007364273,-0.0705798864364624,-0.19166919589042664,-0.0315869078040123,0.01107129454612732,-0.12402459233999252,-0.03870884329080582,0.05596885085105896,-0.151107057929039,0.18154314160346985,0.07652022689580917,0.05629100278019905,0.016068680211901665,-0.02524084411561489,-0.003071744693443179,-0.012083460576832294,0.1029152125120163,0.16371746361255646,-0.13339458405971527,-0.1786835491657257,0.15889737010002136,-0.09918173402547836,-0.18586017191410065,-0.012114092707633972,-0.0016411372926086187,-0.05877188965678215,-0.10295366495847702,-0.1139485165476799,-0.17336934804916382,0.038318101316690445,0.04601823538541794,-0.09286309778690338,-0.08137700706720352,0.026215719059109688,0.1831180453300476,0.06136157363653183,0.0007784228655509651,0.036903783679008484,0.03669465705752373,0.06757530570030212,-0.11303986608982086,0.048841457813978195,-0.04622054100036621,0.01788516156375408,-0.07953590154647827,-0.06359883397817612,-0.11786775290966034,-0.03565005213022232,0.030596967786550522,0.01820153370499611,0.05037394165992737,-0.13610891997814178,-0.010135676711797714,-0.05833577737212181,-0.05134040489792824,0.049587495625019073,0.07417742162942886,-0.065897636115551,0.13676784932613373,0.015289857983589172,0.034932538866996765,0.05934925749897957,-0.05651400238275528,0.14263440668582916,-0.12411762028932571,0.11671830713748932,0.04919947683811188,0.03994037210941315,0.06160110980272293,-0.15991736948490143,-0.08227416127920151,0.03584902361035347,-0.02025666832923889,0.09332852810621262,-0.010474658571183681,0.16954897344112396,-0.08618545532226562,-0.08848041296005249,0.024631137028336525,0.11341403424739838,-0.08971888571977615,0.019898148253560066],[0.004893396981060505,-0.022653333842754364,0.14187873899936676,0.15831860899925232,0.013845264911651611,0.04434834420681,0.025666318833827972,-0.011419334448873997,0.023405572399497032,0.0791616290807724,-0.1647423803806305,0.05644300580024719,0.027357161045074463,0.03894328325986862,0.06093759089708328,0.01120517123490572,0.030080314725637436,0.020696410909295082,-0.07522956281900406,-0.0839623436331749,0.012896000407636166,0.17063023149967194,0.053746890276670456,0.02122238464653492,-0.04307657480239868,0.004319039173424244,0.18485534191131592,-0.03473246842622757,0.12242481112480164,0.039203133434057236,-0.09656934440135956,-0.009566269814968109,-0.10943952947854996,0.07937897741794586,-0.12777306139469147,-0.15395499765872955,-0.12510015070438385,0.18877418339252472,-0.19500575959682465,0.07397687435150146,0.13896186649799347,-0.12214557826519012,0.01998596079647541,0.0985267236828804,-0.08413895219564438,0.18041782081127167,-0.1987919956445694,-0.019409961998462677,-0.0585060715675354,0.04176846146583557,0.0983649343252182,0.10954766720533371,-0.05990081652998924,0.06300227344036102,-0.07187823206186295,0.004288378171622753,0.11309176683425903,0.07900629192590714,0.18746134638786316,0.05731095373630524,-0.1158791109919548,0.10649485886096954,-0.07869215309619904,-0.1101229265332222,0.08588767051696777,0.1358131766319275,0.1909412294626236,0.016629613935947418,0.047838691622018814,0.023449808359146118,-0.06115643307566643,0.008702119812369347,0.06565115600824356,-0.05588912591338158,-0.05277296528220177,-0.11052004992961884,0.013987750746309757,0.005140603519976139,-0.20018821954727173,0.10634799301624298,-0.16302324831485748,-0.03265758231282234,-0.03723524883389473,-0.14604905247688293,-0.03529259189963341,-0.017972683534026146,0.037595972418785095,0.07418503612279892,-0.08224774897098541,0.06980045139789581,-0.07246691733598709,0.03265964612364769,-0.08112525939941406,-0.0642104223370552,-0.03779590129852295,0.1337236762046814,-0.010086544789373875,-0.11086956411600113,-0.1269856095314026,-0.15052518248558044,-0.03120557963848114,0.07630768418312073,0.06210155040025711,0.012231740169227123,-0.04402003437280655,0.004231551196426153,0.014162587933242321,-0.17892470955848694,0.03922654688358307,-0.02777804620563984,-0.06055445224046707,0.1091281846165657,0.029387207701802254,-0.037830669432878494,0.03272530436515808,0.09025086462497711,-0.08668707311153412,0.04226235672831535,-0.133841410279274,0.004182902164757252,0.028251418843865395,0.014227085746824741,-0.07067394256591797,0.019257429987192154,-0.07170876115560532,-0.06047381833195686,0.00019232458726037294,0.09102986007928848],[0.19566211104393005,-0.17796394228935242,-0.007620163727551699,-0.07452229410409927,-0.026951361447572708,-0.1308840960264206,-0.14395835995674133,0.05976550281047821,0.05053902789950371,-0.12523873150348663,0.09019248187541962,-0.1561243087053299,0.0689699798822403,-0.28262317180633545,0.18580330908298492,0.18836823105812073,-0.07147514820098877,-0.07572782039642334,-0.1683172881603241,-0.11285693943500519,-0.21192888915538788,-0.19023948907852173,-0.3073139786720276,0.17853054404258728,-0.1982036530971527,-0.2311357706785202,-0.01640421897172928,-0.24269704520702362,0.07521945238113403,-0.1474694013595581,-0.04538042098283768,0.09613877534866333,0.1318868100643158,-0.3460942506790161,-0.050904810428619385,-0.23298867046833038,-0.04549133777618408,0.14459264278411865,-0.12033822387456894,-0.0008192278910428286,0.10837577283382416,-0.10665026307106018,0.2065090537071228,-0.15480178594589233,-0.12737177312374115,0.05367261543869972,-0.011019591242074966,-0.10604562610387802,0.03346613049507141,0.16179683804512024,-0.014363463036715984,0.07986999303102493,0.0969403013586998,0.031608812510967255,0.020840724930167198,0.07593299448490143,0.15219035744667053,-0.029588546603918076,0.22902293503284454,-0.12701845169067383,0.08723434060811996,-0.006635473575443029,-0.0015406929887831211,0.11766432970762253,-0.1050945520401001,-0.11565268784761429,-0.3352937400341034,-0.2119179517030716,0.09496673941612244,0.06815981864929199,0.20338915288448334,-0.04676060378551483,0.025682812556624413,0.3209246098995209,-0.029286246746778488,-0.04504901543259621,-0.19255495071411133,0.10152137279510498,-0.10173596441745758,0.12321208417415619,0.024801652878522873,-0.01238275971263647,0.018430812284350395,0.13974884152412415,0.10548881441354752,-0.08678670972585678,0.09514950215816498,0.03918610140681267,0.264545738697052,-0.2970781922340393,0.2616468667984009,0.1762610226869583,0.19660578668117523,0.21578994393348694,-0.210031658411026,-0.23955753445625305,0.08782528340816498,0.13759812712669373,0.13349087536334991,0.05662161111831665,-0.1319982409477234,-0.06747005134820938,-0.19551293551921844,-0.03322003036737442,0.24812456965446472,-0.135746031999588,-0.22456489503383636,-0.15649054944515228,-0.0003389993216842413,0.09731829911470413,0.11624139547348022,-0.12899881601333618,0.37583085894584656,-0.1598949283361435,0.14437682926654816,0.22633716464042664,0.2786071002483368,0.1876940131187439,0.05020320788025856,-0.3924422860145569,0.04698710888624191,-0.18639512360095978,0.05755038186907768,-0.14602746069431305,-0.08552438765764236,-0.11122962832450867,0.024330496788024902,0.0593678317964077],[0.20682735741138458,0.05275838077068329,0.18814033269882202,0.07701344788074493,0.08393830060958862,-0.5514131188392639,0.05765540897846222,0.1874280869960785,0.0004753328103106469,0.04531845822930336,-0.012344451621174812,-0.3080466389656067,-0.20371684432029724,-0.21604612469673157,0.05555957183241844,0.13018177449703217,-0.07169364392757416,-0.08051075041294098,-0.13646851480007172,0.2718634009361267,0.11248547583818436,0.07042524218559265,-0.13690632581710815,0.08534993976354599,-0.06070757284760475,-0.16189053654670715,0.0722324401140213,0.11385353654623032,0.1097935363650322,-0.005870783235877752,0.07159322500228882,-0.22008401155471802,0.17802055180072784,-0.0829644724726677,0.2106734663248062,-0.30480489134788513,0.19587555527687073,0.24716496467590332,0.21403761208057404,-0.20698969066143036,-0.08071894943714142,-0.21396568417549133,0.20004740357398987,-0.020045321434736252,-0.0636613592505455,0.12916140258312225,0.162051722407341,0.28355079889297485,-0.3829842805862427,0.1408316195011139,-0.1234767884016037,-0.14457820355892181,-0.43622028827667236,0.08026566356420517,0.04331119358539581,0.22961437702178955,-0.021914541721343994,0.17486071586608887,0.17769871652126312,0.03207165747880936,0.0977613553404808,-0.1413646936416626,-0.08882227540016174,0.16340641677379608,-0.13362208008766174,-0.12807296216487885,-0.13963496685028076,-0.23497678339481354,0.0014576594112440944,-0.06618262082338333,0.1931636482477188,-0.24981018900871277,-0.046834442764520645,-0.007883314974606037,-0.04221048206090927,-0.013637905940413475,-0.1095687597990036,-0.000514902058057487,0.08823775500059128,0.09105180948972702,0.09415586292743683,0.10257194191217422,-0.19822168350219727,0.04376799985766411,0.059168606996536255,-0.10246791690587997,-0.06283146888017654,-0.06341290473937988,0.1655515432357788,-0.00027131562819704413,0.19383130967617035,0.039668742567300797,0.10870958119630814,0.29640769958496094,-0.20736576616764069,-0.10450515896081924,-0.019621338695287704,-0.16002783179283142,-0.04919007793068886,0.16266073286533356,-0.10634244233369827,0.1858961433172226,0.15535473823547363,0.05691191554069519,-0.4668049216270447,0.11207299679517746,0.5127070546150208,0.04161455109715462,0.09629788249731064,0.15096411108970642,0.12710018455982208,0.04642600193619728,-0.3682559132575989,-0.23930278420448303,0.06533937156200409,0.04347117990255356,-0.04189395532011986,-0.20189563930034637,0.1907833218574524,-0.060856010764837265,0.04323936253786087,0.10109695047140121,0.1101120263338089,-0.05559364706277847,-0.05218150094151497,0.17372070252895355,-0.12434618920087814,-0.09451325237751007],[-0.31949862837791443,-0.04464596137404442,-0.22732190787792206,-0.097768634557724,0.5505347847938538,0.10076960921287537,-0.07713933289051056,-0.11016448587179184,-0.12286499887704849,0.022669749334454536,-0.038224704563617706,0.12455041706562042,-0.24081939458847046,0.057830847799777985,-0.178323432803154,-0.2019248604774475,-0.043905358761548996,0.08193869143724442,-0.002634425414726138,-0.26669344305992126,-0.017632197588682175,-0.4474359154701233,-0.17983850836753845,-0.22569508850574493,-0.1353362649679184,0.10023948550224304,-0.096061572432518,-0.08200797438621521,-0.24575191736221313,0.10508935898542404,-0.3468584418296814,-0.13708440959453583,-0.12429944425821304,0.015731632709503174,-0.16619230806827545,0.20460271835327148,-0.5108225345611572,0.358458012342453,0.15059809386730194,-0.056390631943941116,0.22027947008609772,0.1282695233821869,-0.05842740461230278,0.5151255130767822,-0.1007336676120758,-0.2695838510990143,-0.0997171625494957,-0.12738946080207825,0.17230233550071716,-0.04143042117357254,-0.2265356481075287,-0.412557989358902,1.0158909559249878,0.20662523806095123,-0.09750693291425705,-0.1951155960559845,-0.1060086190700531,-0.39220643043518066,-0.11274290829896927,0.49857327342033386,0.03221782296895981,-0.002851000288501382,-0.11032120138406754,-0.18147766590118408,0.16999584436416626,0.1332627385854721,0.09311174601316452,-0.21205037832260132,-0.38182976841926575,-0.24261592328548431,-0.25519976019859314,-0.19491226971149445,-0.06383148580789566,-0.2353091984987259,0.046357668936252594,0.35159051418304443,0.18662045896053314,-0.04265814647078514,-0.28077128529548645,-0.12677665054798126,-0.008708016946911812,-0.1380288302898407,0.10637080669403076,0.18730583786964417,-0.1340535581111908,-0.0878959521651268,0.11917584389448166,0.32165297865867615,-0.22200679779052734,0.0057884277775883675,0.11164326965808868,-0.017869999632239342,-0.13394317030906677,-0.3951549232006073,0.2763034701347351,-0.1981106400489807,-0.12490907311439514,-0.29619100689888,0.08958395570516586,0.23345506191253662,-0.40826743841171265,-0.2611497640609741,-0.11859438568353653,-0.05167289823293686,-0.2913143038749695,0.08774763345718384,-0.28648117184638977,-0.1046457290649414,-0.09099914878606796,-0.18668439984321594,0.1421450823545456,-0.06992269307374954,0.167189359664917,0.26258984208106995,-0.08387699723243713,-0.12627547979354858,0.08804962784051895,-0.12415327876806259,0.09895948320627213,0.1473662257194519,-0.22188684344291687,-0.3357177972793579,-0.06304257363080978,-0.08463133126497269,0.2915584146976471,-0.029271980747580528,0.162668377161026,-0.06385145336389542],[-0.040671445429325104,-0.35873058438301086,0.13052403926849365,-0.03942638635635376,-0.10705342888832092,-0.10503807663917542,-0.4369569718837738,-0.04948614165186882,-0.2506396770477295,-0.28776153922080994,0.17038385570049286,-0.057060807943344116,0.14457029104232788,0.04028400778770447,0.17648202180862427,-0.21631823480129242,-0.035837385803461075,0.19683632254600525,-0.031599633395671844,0.023673733696341515,-0.2622246742248535,0.05263905227184296,-0.4479597806930542,0.027987997978925705,0.08022302389144897,-0.28656354546546936,0.27074480056762695,-0.026599174365401268,-0.01180267333984375,0.1081215888261795,-0.09396079182624817,0.051439184695482254,-0.07800792157649994,-0.1438426524400711,0.2751671373844147,-0.10009218752384186,-0.007461847271770239,0.13083650171756744,0.0391547866165638,0.2343749701976776,-0.04436345025897026,-0.035742562264204025,0.11925569921731949,-0.11746037006378174,-0.08201151341199875,-0.08587776869535446,0.2059858739376068,-0.01796523667871952,0.129826158285141,0.03209161385893822,0.12468667328357697,-0.16844148933887482,0.12164309620857239,0.0538039393723011,-0.08167024701833725,-0.08242432773113251,0.04844111204147339,-0.16143473982810974,-0.03748680278658867,0.009734016843140125,-0.16423042118549347,0.18462228775024414,0.2319389432668686,0.1836146116256714,-0.0562676340341568,-0.1469738781452179,-0.20175939798355103,-0.16614927351474762,0.36324724555015564,-0.265179842710495,0.017947092652320862,-0.1583259105682373,0.02940327301621437,0.15934574604034424,0.009334245696663857,0.0038255127146840096,-0.12347140908241272,-0.28507041931152344,-0.11941121518611908,0.07728298008441925,-0.23480793833732605,0.05048369988799095,-0.0672798901796341,0.13316670060157776,0.3312423825263977,0.3146674633026123,0.28262078762054443,-0.0908893495798111,0.26390495896339417,0.07749826461076736,0.17747867107391357,0.20666444301605225,-0.12798866629600525,0.056307245045900345,0.010827035643160343,-0.43662548065185547,0.20901447534561157,-0.1388164758682251,0.045309651643037796,0.050410088151693344,-0.16857123374938965,-0.28267282247543335,-0.14928019046783447,-0.1845066398382187,0.2569285035133362,-0.01218741200864315,-0.24869181215763092,-0.09383819997310638,-0.09480679035186768,0.11579015851020813,0.25496238470077515,0.058601945638656616,0.4202696681022644,-0.19662870466709137,0.026725921779870987,0.3409155607223511,0.058556850999593735,-0.11466197669506073,-0.1856374591588974,-0.3813836872577667,-0.009294632822275162,-0.05232750251889229,-0.26603516936302185,0.012769117951393127,-0.1790827512741089,-0.013477623462677002,-0.10204792022705078,0.08217717707157135],[-0.035735152661800385,-0.1316177248954773,0.20368336141109467,0.24053847789764404,0.23905420303344727,-0.3658080995082855,-0.05163208395242691,0.2884935438632965,0.16439655423164368,0.3027886748313904,0.07073666155338287,-0.20642443001270294,-0.22053462266921997,-0.4482265114784241,-0.09517022222280502,0.1276332139968872,-0.047971390187740326,-0.2883358299732208,-0.24397890269756317,-0.1329035460948944,0.19342316687107086,-0.31381115317344666,-0.07044728845357895,-0.18200640380382538,-0.36381256580352783,0.04104646295309067,-0.26272499561309814,0.16498751938343048,0.1709982007741928,0.0459275059401989,0.11696445196866989,-0.06887385249137878,-0.09466040879487991,0.05278375744819641,-0.020968100056052208,-0.028853867202997208,-0.1329410821199417,0.19749866425991058,0.01681673713028431,-0.34765005111694336,-0.038566648960113525,-0.21843154728412628,0.01888858713209629,0.05382811278104782,-0.17263425886631012,0.25702348351478577,0.0781601071357727,0.17645812034606934,-0.42335471510887146,0.26011723279953003,-0.0381624773144722,0.010862796567380428,-0.11224531382322311,0.0357503779232502,0.20453466475009918,0.0410531684756279,-0.15150730311870575,0.03858501464128494,0.2772110104560852,-0.07024774700403214,0.05735572427511215,-0.2603534758090973,-0.189891055226326,-0.0985109731554985,-0.11099588125944138,-0.20331285893917084,0.062266383320093155,-0.030187109485268593,0.16704267263412476,0.26633957028388977,-0.15167425572872162,0.13528412580490112,0.022456344217061996,0.061448629945516586,0.0454697348177433,0.2895001173019409,-0.21689338982105255,0.3429732322692871,-0.1895258128643036,-0.09481406211853027,0.08951099216938019,0.04885289818048477,-0.0309924129396677,-0.11434226483106613,-0.014197676442563534,-0.1991019994020462,-0.36496442556381226,-0.06944949179887772,-0.012485289946198463,0.15282930433750153,0.310281902551651,0.1132369190454483,0.1337195187807083,-0.054490938782691956,-0.19793356955051422,0.17712919414043427,-0.19766268134117126,-0.32381176948547363,-0.003999336156994104,0.0542558990418911,-0.18090879917144775,0.4009496569633484,0.02200176566839218,0.13910333812236786,-0.4060788154602051,0.2670816481113434,0.12146151810884476,0.2627994120121002,0.03631799668073654,0.10102233290672302,0.030792776495218277,-0.024183738976716995,-0.20745804905891418,-0.14865495264530182,0.15615665912628174,-0.11731258034706116,-0.06955952197313309,-0.3153097331523895,0.19565582275390625,-0.0665106326341629,0.14111432433128357,0.11952825635671616,0.09485682100057602,0.039449531584978104,0.19467227160930634,0.1817808747291565,0.0172685906291008,-0.1821885108947754],[-0.2830314338207245,-0.1499001830816269,-0.38896748423576355,-0.20065325498580933,0.1898297816514969,0.30186575651168823,-0.024407748132944107,-0.14948686957359314,0.03650154918432236,0.14566126465797424,0.12940414249897003,0.23718386888504028,-0.16999207437038422,0.16921569406986237,-0.15499347448349,-0.15487027168273926,-0.1453014612197876,0.02946728840470314,0.13852499425411224,-0.03328048810362816,-0.28138890862464905,-0.25439438223838806,-0.25887954235076904,-0.31325867772102356,-0.16207531094551086,0.054736725986003876,0.05952618271112442,-0.24723495543003082,-0.2159348875284195,0.001870657317340374,-0.34011557698249817,-0.00854047853499651,-0.23694755136966705,0.06352510303258896,-0.12978960573673248,0.047497231513261795,-0.26902514696121216,0.33297377824783325,0.027110842987895012,-0.1466699242591858,0.1519814431667328,-0.07273910194635391,-0.12225959450006485,0.4048345685005188,-0.21361860632896423,-0.09772656857967377,0.021559735760092735,-0.2127852439880371,0.29174160957336426,-0.12768937647342682,-0.09382355958223343,-0.317701518535614,0.6753659844398499,0.13518474996089935,-0.18337635695934296,0.07463753968477249,-0.22542031109333038,-0.24686996638774872,-0.21781042218208313,0.20245225727558136,0.044486548751592636,-0.13059450685977936,-0.09343097358942032,-0.38189011812210083,0.004271370358765125,-0.04689772427082062,-0.1602509617805481,-0.07903217524290085,-0.23115584254264832,-0.04357847198843956,-0.05661965161561966,-0.12462028861045837,-0.16307684779167175,-0.27766016125679016,-0.03361574932932854,0.11585301160812378,0.07371766865253448,-0.03442138805985451,-0.26560837030410767,-0.15804073214530945,-0.023595204576849937,0.001065138727426529,0.05270873010158539,0.1165979653596878,0.07661756873130798,-0.15254585444927216,0.33722957968711853,0.091570645570755,-0.27709436416625977,-0.07477768510580063,0.009174751117825508,-0.22472572326660156,-0.10105487704277039,-0.17652183771133423,0.4503818452358246,-0.14672452211380005,-0.022285617887973785,-0.24421361088752747,-0.09975915402173996,0.0048376345075666904,-0.2005653828382492,-0.4221522808074951,-0.11906902492046356,-0.10426782816648483,-0.1627773642539978,-0.11641695350408554,-0.1576843410730362,-0.21669211983680725,0.07032705098390579,0.04295481741428375,0.01145853754132986,0.01023279782384634,0.2673482596874237,-0.010662638582289219,0.059812601655721664,-0.01173793151974678,-0.0802544504404068,-0.1300526261329651,0.036985646933317184,-0.0018629072001203895,0.03174613416194916,-0.318115234375,-0.2748982012271881,0.09456832706928253,0.12069933116436005,0.05940037965774536,0.2514319121837616,-0.10440448671579361],[-0.03071109764277935,-0.15401969850063324,0.4436221122741699,0.02782384678721428,-0.20035944879055023,-0.17583706974983215,-0.5269657969474792,0.14981187880039215,-0.4362693428993225,-0.28664204478263855,-0.18329276144504547,0.07798191159963608,0.13461768627166748,0.03584706410765648,0.17188657820224762,-0.3311639428138733,-0.30794960260391235,0.36939552426338196,0.14250005781650543,0.33745837211608887,-0.36695796251296997,0.08672818541526794,-0.49431103467941284,0.35251373052597046,0.01635734923183918,-0.2167356014251709,0.3464009761810303,0.00007669864862691611,-0.17204779386520386,0.13580016791820526,0.09121446311473846,0.37513700127601624,-0.009611949324607849,-0.07006577402353287,0.4332781434059143,-0.11543284356594086,-0.2467033416032791,0.15765422582626343,-0.2824357748031616,0.2158663123846054,-0.19031453132629395,0.11377936601638794,0.4698249101638794,-0.2653126120567322,-0.4005047678947449,-0.14684122800827026,0.0704110637307167,-0.10700034350156784,0.302937775850296,-0.36483779549598694,0.31833595037460327,0.16052605211734772,0.09157246351242065,0.22068986296653748,-0.05981138348579407,0.21241746842861176,0.20224504172801971,-0.589206874370575,0.009425121359527111,0.1920294314622879,-0.5045347213745117,-0.16638252139091492,-0.2646576166152954,0.1515941321849823,0.2686370611190796,-0.07796017080545425,-0.29107925295829773,-0.13024646043777466,0.49105188250541687,-0.4209771454334259,0.14507348835468292,-0.05683497339487076,0.16699844598770142,0.2905656397342682,-0.06800498813390732,-0.14081881940364838,0.09341304749250412,-0.17755885422229767,0.2741563320159912,0.24401259422302246,-0.04236927255988121,0.016356851905584335,0.027636203914880753,0.026873335242271423,0.5046797394752502,-0.0617804117500782,0.231741264462471,0.20866641402244568,0.35404613614082336,0.232976496219635,0.23540477454662323,0.3139075040817261,-0.24798083305358887,-0.0416102297604084,0.13209442794322968,-0.42285627126693726,0.4205346703529358,-0.012222289107739925,0.26693782210350037,0.3551971912384033,-0.15219704806804657,-0.41870391368865967,0.13175800442695618,-0.34469836950302124,0.37682607769966125,0.004555073566734791,-0.2249440848827362,0.002976908814162016,-0.26342329382896423,0.0670778751373291,0.24594153463840485,0.032077010720968246,0.5279666185379028,-0.13853470981121063,0.14817260205745697,0.004461499862372875,0.09241483360528946,0.19983088970184326,-0.15175656974315643,-0.24621154367923737,-0.1668999046087265,-0.2147691696882248,-0.12070972472429276,0.17616434395313263,0.0946570485830307,-0.1987990438938141,-0.0949682891368866,0.046407341957092285],[-0.21446910500526428,-0.2082861363887787,0.11981261521577835,0.2992241084575653,0.31450405716896057,0.005615490023046732,0.202638640999794,0.10507214069366455,0.291498601436615,0.06901584565639496,0.1712048351764679,-0.27026671171188354,-0.14039254188537598,-0.27319347858428955,0.007873605005443096,0.12630131840705872,0.13729850947856903,-0.26645588874816895,-0.25899168848991394,0.04885286092758179,0.05278845503926277,-0.2934417426586151,0.20470121502876282,-0.2047322392463684,-0.13438619673252106,-0.1288859099149704,-0.010274521075189114,0.14771391451358795,0.04137063026428223,-0.046520888805389404,-0.09697786718606949,-0.16869324445724487,-0.09067878127098083,0.07187452912330627,0.015895988792181015,0.11157289147377014,-0.10505173355340958,0.096946120262146,0.11456641554832458,-0.17778463661670685,0.011354445479810238,-0.1705288141965866,-0.013835306279361248,0.06538364291191101,-0.1627824604511261,0.0909891277551651,0.13349208235740662,0.29698848724365234,-0.3226051926612854,0.29022008180618286,0.06517452001571655,0.10484062135219574,-0.2149568498134613,-0.05060385912656784,0.09415987879037857,0.03262285515666008,-0.0640479251742363,0.03344247117638588,0.2903638780117035,-0.11303936690092087,0.1393674910068512,-0.2333565205335617,-0.031086528673768044,0.003906284458935261,-0.32920753955841064,-0.14093917608261108,0.278526246547699,-0.21343261003494263,0.26664379239082336,0.3045148551464081,-0.16850389540195465,0.196804016828537,-0.0029278674628585577,0.018468810245394707,0.149527907371521,0.154952734708786,-0.10533866286277771,0.2309802621603012,-0.27324622869491577,-0.169230118393898,0.18177106976509094,0.11861399561166763,-0.09452293068170547,0.26307207345962524,-0.03487608581781387,-0.14817115664482117,-0.1706828624010086,-0.32440170645713806,-0.044339925050735474,0.042649537324905396,0.2860281765460968,0.11989190429449081,0.31462568044662476,-0.07108744978904724,-0.22166819870471954,-0.19926956295967102,-0.1939600557088852,-0.1465466320514679,-0.12913396954536438,0.18173086643218994,-0.2686789929866791,0.37181854248046875,0.288595587015152,0.10031508654356003,-0.2769612669944763,0.36663538217544556,0.08341822773218155,0.29658132791519165,0.35246992111206055,-0.028621654957532883,0.10194981098175049,-0.0656183511018753,-0.36331480741500854,-0.03200889378786087,-0.08762582391500473,-0.018290258944034576,0.158377006649971,-0.3147023320198059,0.04310934990644455,-0.0015720246592536569,0.2566778063774109,-0.15851302444934845,0.16743344068527222,-0.13078458607196808,-0.0016545362304896116,0.03553174436092377,0.033208753913640976,-0.053191035985946655],[-0.02409425377845764,-0.2697378098964691,-0.1376989781856537,-0.1228710263967514,0.36619487404823303,0.3029298186302185,-0.050695277750492096,-0.01598978601396084,0.10639287531375885,0.03048173151910305,0.1750013381242752,-0.05232636630535126,-0.1945214867591858,-0.06390521675348282,-0.11654521524906158,0.0463261716067791,-0.16121052205562592,0.10571140050888062,-0.10332689434289932,-0.08466482162475586,-0.014500504359602928,-0.19833308458328247,-0.11673212796449661,-0.25755318999290466,-0.13851487636566162,0.13321177661418915,-0.11697561293840408,-0.29395508766174316,-0.14186017215251923,0.17470362782478333,-0.4187846779823303,-0.23196956515312195,-0.11991729587316513,-0.09413690865039825,-0.006123251281678677,-0.014620230533182621,-0.26173949241638184,0.14237447082996368,0.03993840515613556,-0.0177377350628376,0.026708805933594704,-0.06449787318706512,0.03339361399412155,0.24634526669979095,-0.2796710431575775,-0.19333507120609283,-0.008900397457182407,-0.20209543406963348,0.07584187388420105,0.09914059191942215,-0.02447272464632988,-0.12205541133880615,0.5810163021087646,0.014948718249797821,-0.1244819164276123,-0.12696559727191925,-0.21912528574466705,-0.16375897824764252,-0.012640440836548805,0.1459260731935501,0.015579636208713055,-0.08355948328971863,0.08669893443584442,-0.18372629582881927,-0.039230115711688995,0.09261850267648697,0.11697276681661606,-0.13163603842258453,-0.15386812388896942,-0.1894722431898117,-0.20301738381385803,-0.18648584187030792,-0.24047157168388367,-0.2701317369937897,-0.04676477238535881,0.1948719322681427,-0.010371070355176926,0.03460922837257385,-0.04210880026221275,-0.17368319630622864,-0.043780144304037094,-0.06185057759284973,0.13373208045959473,0.06709020584821701,0.024445638060569763,-0.18051452934741974,0.21773330867290497,0.11704074591398239,0.020921368151903152,0.10405517369508743,0.11609397828578949,-0.17417901754379272,-0.08011630177497864,-0.16614672541618347,0.3481779992580414,-0.11881260573863983,0.17715401947498322,-0.12518051266670227,-0.23778222501277924,0.04872126877307892,-0.17751793563365936,-0.0716082975268364,-0.043034207075834274,-0.12187150120735168,-0.10335620492696762,-0.055830590426921844,-0.09315375238656998,0.03487000986933708,0.004709860309958458,-0.10655825585126877,0.14236199855804443,0.025078117847442627,0.12980616092681885,-0.1951236128807068,0.05698780342936516,-0.1435411125421524,-0.03353504836559296,0.02188945561647415,0.0002688678214326501,0.02307160384953022,0.05889800563454628,-0.32162219285964966,-0.1553892344236374,0.07791414856910706,-0.048309218138456345,0.2833709418773651,0.1098281666636467,-0.2935447096824646],[-0.3115752935409546,-0.07412148267030716,0.4301470220088959,0.18907679617404938,0.08279068768024445,-0.6416959762573242,0.2598561942577362,0.5902567505836487,-0.0660766139626503,0.14773987233638763,0.0030947020277380943,0.0668400377035141,0.2276715636253357,-0.30312952399253845,0.13280680775642395,-0.3228479325771332,-0.6733182668685913,-0.027435168623924255,0.0472063273191452,0.4439353048801422,0.20826272666454315,-0.2518790364265442,-0.46237990260124207,0.47999536991119385,-0.5276082158088684,0.3203730285167694,0.001356834196485579,0.13040243089199066,-0.11258333921432495,-0.22723744809627533,0.23571915924549103,0.39500612020492554,0.12735363841056824,0.1253577023744583,0.2028881162405014,-0.3904736340045929,-0.2854786813259125,0.14082366228103638,-0.521432101726532,0.3255283534526825,-0.7806409001350403,0.35249823331832886,0.4552370309829712,-0.7655298113822937,-0.6565350890159607,0.3058108985424042,-0.2694861888885498,-0.03335505723953247,0.1586553156375885,-0.4564547836780548,0.06021935120224953,0.3198429346084595,-0.028991084545850754,0.07658963650465012,0.18291322886943817,0.9414255023002625,0.1442098170518875,-0.40967991948127747,-0.11889296025037766,0.273083359003067,-0.4937072992324829,-0.8706346154212952,-0.8940141201019287,0.3320273458957672,0.6341934204101562,-0.004989370703697205,-0.14886726438999176,0.3249838054180145,0.1501796692609787,0.12068665027618408,-0.416892945766449,-0.13721409440040588,0.5228452086448669,0.7896027565002441,-0.027537036687135696,0.20514892041683197,0.01907278783619404,0.45484963059425354,0.346718430519104,0.3504406809806824,-0.0723508819937706,0.22796964645385742,0.37497085332870483,0.1018715649843216,0.4095918536186218,-0.6581812500953674,-0.18724645674228668,0.44546636939048767,-0.0016390904784202576,0.17273560166358948,0.4666394591331482,0.061631329357624054,0.22189132869243622,-0.35627657175064087,-0.18379245698451996,-0.15320301055908203,-0.2545228600502014,0.3791624903678894,0.33058828115463257,0.16558727622032166,-0.2234310656785965,-0.04323381558060646,-0.001468809088692069,-0.182818204164505,0.32481691241264343,-0.048602357506752014,-0.08071841299533844,0.3906322419643402,0.012936492450535297,0.240790456533432,0.2024785578250885,0.7803038954734802,0.21511071920394897,0.06007223203778267,0.402018278837204,-0.3821985721588135,-0.4731397330760956,0.12157000601291656,-0.042546916753053665,0.02784193865954876,0.0011475459905341268,0.4044657051563263,0.7000775337219238,0.6029467582702637,0.38900405168533325,-0.310400128364563,0.4921577274799347,-0.06966458261013031],[-0.06799589842557907,-0.20601886510849,0.17605166137218475,0.25586140155792236,0.2774483561515808,-0.16668005287647247,0.10421384871006012,0.00042962218867614865,0.09673099964857101,0.07504235953092575,-0.017847582697868347,-0.38020598888397217,0.009038914926350117,-0.32249903678894043,0.036553461104631424,0.21857325732707977,0.17500263452529907,-0.27265092730522156,0.02740141749382019,-0.08904348313808441,0.20866422355175018,-0.4249521493911743,0.16688811779022217,-0.13129085302352905,-0.13706140220165253,-0.17132507264614105,-0.23774059116840363,0.24663853645324707,0.03198610246181488,-0.06903073936700821,0.22013631463050842,-0.12065305560827255,0.027060983702540398,0.2450738400220871,-0.0009004859603010118,0.214135080575943,-0.10202115029096603,0.07938049733638763,0.05404990166425705,-0.10338173806667328,0.12807749211788177,-0.08671235293149948,0.029122523963451385,0.12539690732955933,-0.32254013419151306,0.09912684559822083,0.023088520392775536,0.3311927318572998,-0.3388601243495941,0.26708149909973145,-0.0197356678545475,-0.10118091851472855,-0.17276327311992645,0.12521959841251373,0.2772780656814575,0.10925432294607162,-0.12319134920835495,0.0024645645171403885,0.08117084205150604,0.08318182826042175,0.15840299427509308,-0.10949524492025375,-0.13823670148849487,0.13595372438430786,-0.3380800485610962,-0.10060777515172958,0.25948449969291687,-0.2879325747489929,0.22906386852264404,0.14507143199443817,-0.2146044373512268,0.22351935505867004,0.18444712460041046,0.057157594710588455,0.1255788505077362,0.316541850566864,-0.3703204095363617,0.18616370856761932,-0.15735065937042236,-0.04797925427556038,0.3016427457332611,-0.025978200137615204,0.1523430347442627,0.20090600848197937,-0.09146732836961746,-0.30897486209869385,-0.19997936487197876,-0.12649178504943848,0.040323980152606964,0.036035794764757156,0.30157798528671265,0.15236039459705353,0.2692011594772339,-0.026765745133161545,-0.2997296154499054,0.007921205833554268,-0.27182692289352417,-0.33536863327026367,-0.1585693657398224,0.09523611515760422,-0.22498886287212372,0.16926278173923492,0.23596268892288208,0.2006295919418335,-0.16512300074100494,0.10597026348114014,0.1430477499961853,0.09223248064517975,0.3442593514919281,-0.034199319779872894,0.3081861138343811,-0.010131670162081718,-0.36970460414886475,0.12355422228574753,0.04518396779894829,0.055293772369623184,0.031185299158096313,-0.2035103142261505,0.1906696856021881,0.04405028000473976,0.07174514979124069,-0.042483244091272354,0.23810580372810364,0.03261225298047066,0.33594590425491333,0.21704745292663574,0.21681497991085052,0.002667986787855625],[-0.19549626111984253,-0.3274303376674652,-0.14870868623256683,-0.1432909071445465,0.15336617827415466,0.03660304844379425,0.05830799415707588,0.010619765147566795,-0.0183893870562315,0.05800415202975273,0.16301321983337402,-0.07284297049045563,-0.280667245388031,0.04005267843604088,-0.1904163509607315,-0.07171670347452164,-0.2086285650730133,0.0187815111130476,-0.0824480727314949,-0.04023098945617676,-0.07170623540878296,-0.043237440288066864,-0.3428460657596588,-0.17722271382808685,-0.07918503135442734,0.011952867731451988,-0.05924096331000328,-0.138345867395401,-0.04460613429546356,-0.01827959530055523,-0.4519638419151306,-0.2508171498775482,0.0852283164858818,-0.04118166118860245,-0.19448219239711761,-0.08487577736377716,-0.027204012498259544,0.0901392325758934,-0.005194622557610273,-0.17664958536624908,-0.012936925515532494,0.1305595487356186,-0.09823734313249588,0.23595090210437775,0.009942718781530857,-0.046070702373981476,0.13140611350536346,-0.2546031177043915,0.08067980408668518,0.03917304798960686,-0.09716112166643143,-0.22039008140563965,0.42346322536468506,0.15785671770572662,0.004787503741681576,0.011391457170248032,0.02445954456925392,-0.2682776153087616,-0.23486359417438507,0.024209098890423775,-0.02602587267756462,0.10269953310489655,-0.013432292267680168,-0.044661372900009155,-0.01898472011089325,-0.020250143483281136,-0.034053828567266464,-0.23400898277759552,-0.19324186444282532,-0.04152238741517067,-0.19608484208583832,-0.08271372318267822,-0.2396024465560913,-0.18991988897323608,-0.07574037462472916,0.08594358712434769,-0.05935268476605415,0.13389310240745544,-0.05036141723394394,-0.08289790898561478,-0.055403418838977814,-0.045924171805381775,0.10523192584514618,-0.07488919049501419,-0.06704357266426086,-0.0033911531791090965,-0.010179722681641579,0.16286079585552216,-0.010736740194261074,-0.11034366488456726,-0.025321878492832184,-0.0316353365778923,-0.06488100439310074,-0.16223663091659546,0.17908598482608795,-0.23165763914585114,0.06523606926202774,-0.26160740852355957,-0.09929792582988739,-0.03455342724919319,-0.118224136531353,-0.3477645218372345,-0.10521543771028519,-0.11291885375976562,-0.10467948764562607,-0.1729937493801117,0.10318224877119064,0.04433403164148331,-0.14578741788864136,-0.057132866233587265,0.008240854367613792,-0.15656664967536926,0.1515302211046219,-0.2013028860092163,-0.04895247146487236,-0.22605158388614655,-0.19391833245754242,-0.13120247423648834,-0.00933017022907734,-0.022892355918884277,-0.12009690701961517,-0.2294616997241974,-0.11905375868082047,-0.1455719918012619,0.1308024823665619,0.18591809272766113,0.041015367954969406,-0.20396584272384644],[0.034078601747751236,-0.06164497137069702,-0.017052507027983665,0.15982961654663086,-0.029986152425408363,-0.13095445930957794,-0.18112634122371674,0.1821012794971466,-0.05433832108974457,-0.134254589676857,0.0650845542550087,-0.2569683790206909,0.010434138588607311,-0.1913047879934311,-0.21500258147716522,-0.004326608497649431,0.24284058809280396,-0.12771371006965637,-0.231737419962883,-0.15265049040317535,-0.14297020435333252,-0.1896124631166458,0.016330504789948463,0.030091222375631332,0.12912245094776154,-0.2606922686100006,0.1543620377779007,0.11958081275224686,-0.0535862036049366,-0.17765948176383972,-0.04471099376678467,0.17532184720039368,-0.018073318526148796,-0.07513339072465897,-0.05825918912887573,0.06187153607606888,-0.3773956596851349,0.04050648584961891,-0.11084870994091034,0.12058279663324356,0.16631273925304413,0.06493102014064789,-0.1576140969991684,0.17143486440181732,-0.038039565086364746,-0.01783566363155842,0.28629225492477417,0.03981611132621765,-0.01179773360490799,0.3554036319255829,-0.054829731583595276,-0.04301023483276367,0.41053634881973267,0.05746590346097946,-0.10647665709257126,0.1036357656121254,0.170616015791893,-0.03383583948016167,-0.08781944960355759,-0.021302392706274986,0.1245875135064125,-0.04969944432377815,0.04400768503546715,0.09512992203235626,-0.3852389454841614,-0.04853677749633789,-0.09208960086107254,0.28211086988449097,0.12314626574516296,-0.20645268261432648,0.05660196766257286,0.03731917589902878,0.009261398576200008,0.27075162529945374,0.19727031886577606,-0.1375635415315628,-0.058944474905729294,0.12758208811283112,-0.006838819943368435,0.06292407959699631,0.0155774662271142,0.1207631453871727,-0.07406480610370636,0.053306691348552704,-0.004667952656745911,-0.1727128028869629,-0.050824206322431564,-0.14500227570533752,-0.24931763112545013,-0.012532847933471203,0.2348528951406479,0.3127031624317169,-0.033732976764440536,0.17365436255931854,0.050578296184539795,0.006794705055654049,-0.06318071484565735,0.06464703381061554,0.012951122596859932,0.1873190701007843,-0.11858432739973068,0.05927172303199768,0.03856809064745903,0.3255370855331421,0.33456265926361084,0.08744769543409348,-0.28289034962654114,-0.10101855546236038,0.1288563758134842,0.13196733593940735,0.021229933947324753,0.007297479081898928,0.5932804346084595,0.17973947525024414,-0.014778735116124153,0.025525277480483055,0.06265123933553696,-0.07562405616044998,0.08073098212480545,-0.11966042220592499,-0.016076572239398956,-0.12368246167898178,-0.029410840943455696,-0.08757162094116211,0.014099769294261932,0.01469526719301939,0.02092076651751995,0.1323864758014679],[-0.05096554383635521,-0.13926956057548523,-0.187802255153656,-0.043328844010829926,-0.06256837397813797,-0.19162529706954956,-0.23486265540122986,-0.037956058979034424,-0.04149670526385307,0.0367094948887825,-0.12783825397491455,-0.033955276012420654,0.04774994030594826,0.08661703020334244,-0.05760851874947548,-0.1032414436340332,0.07698048651218414,0.05259302631020546,-0.030957570299506187,-0.08520897477865219,-0.1800033301115036,0.09223738312721252,-0.1215822771191597,-0.2446780800819397,-0.04141676425933838,-0.27487608790397644,-0.07711177319288254,0.1075034886598587,-0.24548876285552979,0.08194030821323395,-0.06617803126573563,0.06023745983839035,-0.1357828974723816,-0.048905715346336365,-0.04665129631757736,-0.02554742991924286,-0.04523410275578499,0.14573009312152863,-0.1216348186135292,-0.019028885290026665,-0.048370301723480225,-0.020833579823374748,-0.10930654406547546,-0.014446863904595375,-0.1858932077884674,-0.11685015261173248,-0.051837075501680374,0.08465339243412018,-0.013603882864117622,0.06941041350364685,0.14458520710468292,-0.032671838998794556,0.014010702259838581,-0.030372541397809982,-0.022889647632837296,0.06723441183567047,-0.04677048325538635,-0.04563255235552788,-0.03260112926363945,0.06921606510877609,-0.1151781901717186,-0.08193302154541016,0.1530015468597412,0.05577205866575241,-0.19714228808879852,-0.1680060178041458,-0.12640370428562164,-0.13584809005260468,-0.24600335955619812,-0.07461822032928467,0.19100680947303772,0.09305103868246078,-0.2639272212982178,-0.143491730093956,0.0186298880726099,0.0015273585449904203,-0.016440847888588905,-0.11801688373088837,-0.24036957323551178,0.08282790333032608,0.1955905556678772,-0.018280720338225365,0.011332168243825436,-0.22119596600532532,-0.018426066264510155,0.1499808132648468,0.03281846269965172,-0.009538980200886726,0.0904124528169632,-0.1107734963297844,0.14963246881961823,0.2414303570985794,-0.034341324120759964,0.08964867144823074,-0.06136098876595497,0.04532613232731819,0.19679085910320282,-0.11586207151412964,-0.0753009170293808,0.20380020141601562,-0.21865183115005493,-0.15418022871017456,0.1304003894329071,-0.08560875803232193,-0.14930251240730286,0.038186945021152496,0.1528742015361786,-0.2009037882089615,-0.18416425585746765,0.14976683259010315,0.13425301015377045,-0.07049616426229477,0.008720149286091328,-0.18193277716636658,-0.014511060900986195,-0.026003627106547356,0.010978573001921177,0.03935391083359718,-0.1727759838104248,0.051628611981868744,0.2937636375427246,-0.16337908804416656,-0.2258320152759552,0.052240144461393356,-0.07394220679998398,0.009863465093076229,-0.13112032413482666,0.12515917420387268],[-0.0005920909461565316,0.3965476453304291,-0.2623560130596161,-0.17804348468780518,-0.00871577113866806,0.27550598978996277,0.2778196334838867,0.46392348408699036,-0.16787782311439514,0.3157070577144623,-0.13264842331409454,-0.08387406915426254,-0.29573875665664673,0.08417224884033203,-0.16062898933887482,0.10645461082458496,-0.24583211541175842,-0.04101042076945305,0.19997593760490417,-0.1445787101984024,0.29757964611053467,-0.07111671566963196,0.037800371646881104,0.199161559343338,-0.14815683662891388,0.20447367429733276,-0.25225529074668884,-0.04394959658384323,0.3870694041252136,-0.2607271075248718,0.30356425046920776,-0.2826751172542572,-0.14574171602725983,-0.2531375288963318,-0.08069116622209549,-0.3017960786819458,-0.051533378660678864,-0.3968876898288727,-0.20387624204158783,-0.27969375252723694,-0.0028186929412186146,-0.09949569404125214,-0.1943259984254837,0.16712899506092072,0.2652188241481781,0.2048739492893219,-0.4441957473754883,-0.12481965869665146,-0.06133371219038963,-0.1995583176612854,-0.2515955865383148,-0.33855563402175903,0.26156407594680786,-0.11569443345069885,0.05704163759946823,0.08605288714170456,-0.3177902102470398,0.03164706379175186,0.061257652938365936,-0.13077101111412048,0.04896437004208565,-0.2249314785003662,-0.22058965265750885,-0.16899116337299347,-0.05757712200284004,-0.10047333687543869,-0.022720802575349808,0.4612414538860321,-0.055135149508714676,-0.09591573476791382,-0.12105979770421982,-0.12520192563533783,0.5940462350845337,-0.16040056943893433,0.7381903529167175,0.33434468507766724,0.02435980923473835,0.2733486294746399,-0.33612996339797974,-0.03372883051633835,0.0007563232211396098,-0.09663625806570053,0.24329455196857452,-0.14101621508598328,-0.1894904226064682,-0.31377533078193665,-0.3436606228351593,0.042492564767599106,-0.3514742851257324,-0.26435908675193787,0.1784781813621521,-0.020915338769555092,-0.10149752348661423,0.22900405526161194,0.07644697278738022,-0.0021319305524230003,-0.13651850819587708,0.6214815378189087,-0.09428060799837112,0.27190184593200684,0.050352565944194794,-0.050262656062841415,-0.17629499733448029,0.4502979815006256,-0.20282715559005737,-0.014896336011588573,0.1125086173415184,0.08159680664539337,0.14344072341918945,-0.0011017326032742858,-0.2632688879966736,-0.1315811425447464,0.19042304158210754,0.018795648589730263,-0.21397630870342255,-0.5167104005813599,-0.32772114872932434,-0.311957448720932,0.179711252450943,-0.03975062444806099,-0.03550751507282257,0.041105933487415314,0.024177391082048416,0.27195093035697937,0.08804565668106079,-0.16797737777233124,0.22501233220100403,-0.3154680132865906],[-0.19955477118492126,-0.2971891760826111,0.1312979906797409,0.1450975090265274,-0.015587967820465565,0.03819575160741806,0.10548443347215652,-0.016222158446907997,-0.042292311787605286,0.08704786002635956,0.10950791090726852,-0.18247027695178986,-0.009500689804553986,0.011128375306725502,-0.34161368012428284,0.039810482412576675,0.2018752545118332,-0.1491786688566208,-0.1956467479467392,-0.14575891196727753,-0.04549672082066536,-0.2520262598991394,0.02406899444758892,0.04688190296292305,-0.256297767162323,-0.16296212375164032,-0.029654204845428467,-0.15104646980762482,-0.021509535610675812,-0.14193041622638702,0.12020795047283173,0.25601813197135925,-0.1269562691450119,-0.11537045985460281,-0.2440234273672104,0.005254617892205715,-0.2111053615808487,-0.0860375389456749,0.008946423418819904,0.14418035745620728,0.2885545790195465,0.003908670041710138,-0.13326889276504517,0.3423469662666321,-0.12233342975378036,-0.02822628617286682,0.18562303483486176,0.06745206564664841,-0.11013678461313248,0.29956284165382385,-0.0744696781039238,-0.12218282371759415,0.45329925417900085,-0.051113829016685486,0.13345925509929657,-0.012544067576527596,0.01327665988355875,0.08504652231931686,0.09185247123241425,0.028128232806921005,-0.04457877576351166,-0.08696328848600388,0.01568453200161457,-0.08540230989456177,-0.080482617020607,0.1261875182390213,-0.1754830926656723,0.029715927317738533,0.3149767816066742,-0.1476452499628067,0.052369214594364166,-0.18058374524116516,0.3324240446090698,0.21045300364494324,-0.0067608049139380455,0.09699603915214539,-0.09875069558620453,0.06163298711180687,0.03678978607058525,0.0027161261532455683,0.08028531819581985,-0.07585451006889343,-0.12227733433246613,-0.028304345905780792,-0.05181889608502388,-0.14608407020568848,0.00210306653752923,-0.22473199665546417,-0.16207464039325714,0.04185880348086357,0.14560875296592712,0.2697291970252991,-0.0030569080263376236,-0.033264271914958954,0.026194779202342033,-0.23091046512126923,-0.02793671190738678,0.2728962004184723,0.30463123321533203,-0.0016451611882075667,-0.09886381775140762,-0.04295739531517029,0.07339181751012802,0.1873336285352707,0.09929303079843521,-0.02340301126241684,-0.31983423233032227,0.017536642029881477,0.19328460097312927,0.2489236444234848,0.02833126299083233,-0.058904774487018585,0.5897355675697327,0.268109530210495,0.06838814914226532,-0.009244105778634548,0.19553235173225403,-0.016451062634587288,-0.043456315994262695,-0.09606536477804184,0.11685707420110703,0.014209809713065624,0.06785064190626144,-0.05398375913500786,0.036426298320293427,-0.006400524638593197,0.13710226118564606,-0.09140808880329132],[-0.039864420890808105,-0.08446007966995239,-0.02264733612537384,-0.012790079228579998,0.09107700735330582,-0.11656045913696289,-0.019662562757730484,-0.1736869066953659,0.0015299356309697032,0.08734606206417084,0.10720355063676834,-0.03551870584487915,-0.10511885583400726,0.09067095071077347,0.11925143003463745,0.12292832881212234,-0.17748945951461792,0.0317167304456234,-0.21814297139644623,-0.24989759922027588,0.07122426480054855,-0.04803822189569473,0.2527611255645752,-0.17705583572387695,-0.11374431103467941,0.19440734386444092,0.017935222014784813,0.14049358665943146,-0.1086464449763298,-0.1540210098028183,-0.2271697074174881,0.047122564166784286,0.05292002111673355,0.2658575773239136,-0.29262879490852356,0.028921248391270638,-0.0835045799612999,-0.02394317090511322,-0.00042393297189846635,0.05221549794077873,0.09222979098558426,-0.10601291805505753,-0.17462670803070068,-0.13012173771858215,0.06011949107050896,-0.12814369797706604,0.019980980083346367,0.21192757785320282,-0.018056543543934822,-0.17324161529541016,-0.028886275365948677,0.02025618776679039,-0.24291133880615234,-0.19416503608226776,-0.11614042520523071,0.0679979994893074,-0.060848988592624664,0.017455250024795532,-0.20117728412151337,0.026569923385977745,-0.07046056538820267,-0.08002522587776184,-0.04403029382228851,-0.19485296308994293,0.030998744070529938,-0.16311724483966827,0.20453540980815887,0.031190838664770126,-0.24493886530399323,0.03482257202267647,-0.06349531561136246,0.07572438567876816,0.054215528070926666,-0.0023801284842193127,-0.12712135910987854,0.00784507766366005,-0.1320098638534546,0.11986664682626724,0.062386367470026016,-0.07943601906299591,0.20824554562568665,0.011189096607267857,0.03108960948884487,-0.11043673753738403,-0.020882615819573402,-0.07644490897655487,-0.09054992347955704,0.09050241112709045,-0.09544367343187332,0.22979722917079926,0.02205289714038372,0.11999774724245071,0.06680556386709213,-0.04927743598818779,0.06085367128252983,0.03764975070953369,-0.11357476562261581,-0.03935735300183296,0.024793395772576332,0.2502870261669159,-0.2474709451198578,-0.014957008883357048,0.22122913599014282,-0.13512738049030304,0.018945112824440002,0.24474294483661652,-0.005168079398572445,-0.023717738687992096,-0.11573902517557144,-0.11627525091171265,0.07573122531175613,0.021782245486974716,-0.17215576767921448,-0.0671798586845398,-0.10089767724275589,-0.12433028966188431,-0.24602411687374115,0.13433265686035156,0.17071041464805603,0.11179812252521515,0.25420108437538147,-0.18809355795383453,0.05044672265648842,-0.19067662954330444,-0.09537001699209213,0.07917952537536621,0.057619016617536545,-0.14339731633663177],[-0.09042930603027344,-0.07463090866804123,-0.36606431007385254,-0.11977129429578781,-0.10228633135557175,0.2685292959213257,0.12051113694906235,0.1262996643781662,-0.16368980705738068,0.20272593200206757,-0.017409875988960266,0.09464763104915619,-0.20066921412944794,0.015131091699004173,-0.1927276849746704,-0.25024160742759705,-0.06902389973402023,0.0039505865424871445,0.07557009905576706,-0.2560539245605469,0.19801437854766846,-0.03705139830708504,-0.07517267763614655,0.0348798930644989,-0.3870733380317688,0.17955149710178375,-0.16972282528877258,0.012001371011137962,-0.13655443489551544,-0.11021672934293747,0.05153070390224457,-0.25550147891044617,-0.12431318312883377,-0.22741149365901947,-0.13474762439727783,-0.08322568237781525,-0.31523042917251587,-0.16226786375045776,-0.19235986471176147,-0.10005040466785431,0.0033581326715648174,-0.024139560759067535,0.036121174693107605,0.2354307919740677,0.12881867587566376,0.033338602632284164,-0.28852033615112305,-0.17234541475772858,0.042190760374069214,-0.08476245403289795,-0.18455389142036438,-0.04275239631533623,0.2239372581243515,-0.2464740127325058,0.050656650215387344,-0.1191311776638031,-0.22497539222240448,-0.03797151520848274,-0.0321667343378067,-0.08888785541057587,0.061748262494802475,0.06900952011346817,-0.07181678712368011,-0.20584915578365326,0.11648619174957275,0.1751236766576767,0.04567568004131317,0.38951900601387024,-0.2139548659324646,-0.0760483592748642,0.019464286044239998,-0.29536983370780945,0.07184547930955887,-0.22685234248638153,0.46687692403793335,0.007169853895902634,0.06520537286996841,0.09332087635993958,-0.2208859920501709,-0.31915712356567383,-0.0956064909696579,-0.1831236332654953,0.2315187156200409,-0.10441860556602478,-0.06734646111726761,-0.2719556391239166,-0.2049851417541504,0.16082049906253815,-0.301990807056427,-0.26793432235717773,-0.05392102152109146,-0.20850075781345367,0.02734602428972721,0.07501788437366486,0.22996127605438232,-0.002004216192290187,0.09129565954208374,0.2719176113605499,-0.10461875796318054,0.20096330344676971,-0.11326373368501663,-0.1930394470691681,-0.11416158080101013,0.22419889271259308,-0.2634994387626648,0.03546066954731941,0.2931484282016754,0.11959195882081985,0.1320023089647293,-0.0006160116754472256,-0.21222396194934845,-0.06569718569517136,0.11268991231918335,-0.09143345057964325,0.05896802246570587,-0.40159082412719727,-0.034047067165374756,-0.229890838265419,-0.021030688658356667,-0.005265049170702696,0.023775272071361542,-0.08551857620477676,-0.014537598937749863,0.19667421281337738,-0.022452685981988907,-0.1712915450334549,0.2950971722602844,-0.1966833919286728],[-0.014756955206394196,-0.19942717254161835,0.20255248248577118,-0.17601904273033142,-0.004861443303525448,0.15188825130462646,-0.0976962223649025,0.0833362340927124,0.04727265611290932,0.14087440073490143,-0.08145535737276077,0.040112003684043884,-0.29099759459495544,-0.30048394203186035,-0.37909141182899475,-0.15057748556137085,0.44998499751091003,0.01714286580681801,0.12647277116775513,-0.062489911913871765,0.03832168132066727,-0.21904361248016357,-0.07886330783367157,0.3244154155254364,-0.36111295223236084,-0.024801818653941154,-0.32305774092674255,-0.01572033204138279,-0.06631903350353241,-0.014909130521118641,0.3443382978439331,-0.05917976796627045,-0.17230427265167236,0.07832765579223633,-0.006078086327761412,0.0811125785112381,-0.33156514167785645,0.051593225449323654,-0.058490168303251266,0.12457505613565445,0.14816750586032867,-0.08820049464702606,-0.11013462394475937,0.19744956493377686,-0.05404801666736603,-0.04982554912567139,-0.05855247378349304,0.16377268731594086,-0.22107572853565216,0.3736254572868347,-0.11354678869247437,-0.3532859683036804,0.27567756175994873,-0.1838112622499466,0.10029448568820953,-0.04978616163134575,-0.22476021945476532,-0.011988180689513683,-0.15823256969451904,0.09990637004375458,0.07541915774345398,-0.14806853234767914,0.07144521921873093,-0.016212526708841324,-0.0708106979727745,0.003149856347590685,0.03213241696357727,0.17230938374996185,0.35073167085647583,-0.1803060621023178,-0.19844023883342743,-0.14887425303459167,0.36068376898765564,0.1019744873046875,0.0642227753996849,0.18050390481948853,0.09981519728899002,0.30171236395835876,-0.2190711349248886,-0.1653365045785904,-0.030116034671664238,-0.26728856563568115,0.05507197603583336,-0.17565006017684937,-0.08942459523677826,-0.4634254276752472,-0.25579833984375,0.1178186684846878,0.025668421760201454,0.020052384585142136,0.2612079977989197,0.24990808963775635,0.09684707969427109,0.013189838267862797,-0.1030580997467041,-0.16975140571594238,-0.08066713064908981,0.3421449661254883,0.1698528528213501,-0.06489822268486023,-0.05376431718468666,-0.13779152929782867,-0.1375674605369568,0.3789297044277191,0.07010309398174286,0.02129765786230564,-0.12819039821624756,0.2522333860397339,0.32414090633392334,0.166220024228096,-0.072921983897686,0.20883557200431824,0.5642033815383911,0.3354707360267639,-0.056305836886167526,0.0696946308016777,0.010062976740300655,-0.24467918276786804,-0.08400667458772659,-0.03724586218595505,-0.092842236161232,0.020800624042749405,-0.007028099149465561,-0.014920493587851524,0.1569264680147171,-0.11847419291734695,0.3366507291793823,-0.04534837603569031],[-0.16993510723114014,0.08759729564189911,-0.03428236022591591,0.09710810333490372,-0.2315913438796997,-0.2832249104976654,0.3642696738243103,-0.0724589005112648,-0.03748185932636261,0.1614094227552414,0.050518326461315155,0.21770448982715607,0.1490032970905304,0.30879107117652893,-0.13701291382312775,-0.1897095888853073,-0.31384679675102234,0.11335428059101105,-0.21587003767490387,0.012775251641869545,0.22829841077327728,-0.06634528189897537,0.1774165779352188,-0.004719461780041456,0.11905983835458755,0.14965011179447174,-0.24076515436172485,0.08243851363658905,-0.2427166849374771,-0.2576126158237457,0.022238751873373985,0.17216691374778748,-0.09422464668750763,0.31107285618782043,-0.3271602690219879,0.05584710091352463,-0.08678136020898819,-0.09765562415122986,-0.02566908672451973,-0.03962692990899086,-0.26281046867370605,-0.17460498213768005,-0.15796270966529846,-0.3630167245864868,0.055135417729616165,-0.2868095636367798,-0.10873802751302719,0.18626731634140015,-0.0888378694653511,0.006115696392953396,0.30558571219444275,0.06810443103313446,-0.05795440822839737,-0.3089521825313568,0.17213790118694305,-0.02373986504971981,-0.08242476731538773,-0.06376892328262329,0.10315993428230286,-0.0015943574253469706,0.09769623726606369,-0.15204888582229614,-0.08746923506259918,-0.4065145254135132,0.04367860406637192,-0.03136502951383591,0.11745943129062653,0.23022226989269257,0.11978647857904434,0.1237773597240448,0.17404520511627197,0.03111603669822216,0.04325070604681969,-0.05546507611870766,-0.07276816666126251,-0.420160710811615,0.2674010396003723,0.02329455316066742,0.16955281794071198,-0.1364753693342209,0.31086117029190063,0.11670366674661636,-0.052965689450502396,-0.33395490050315857,-0.1550913155078888,-0.057759568095207214,0.025600560009479523,0.19006775319576263,-0.24337950348854065,0.27317774295806885,-0.22091767191886902,0.011366797611117363,0.04195273295044899,0.17477810382843018,-0.10878101736307144,0.19398146867752075,-0.08695053309202194,-0.07895437628030777,0.12001478672027588,-0.07488999515771866,0.24231280386447906,0.1540461778640747,0.31045061349868774,-0.2794226408004761,0.17288337647914886,0.19088883697986603,0.185428187251091,-0.29559263586997986,-0.27229470014572144,0.043952807784080505,-0.09820988774299622,-0.11407770216464996,-0.10023224353790283,0.09865573048591614,-0.12946753203868866,0.1904919296503067,-0.15374243259429932,-0.01656757853925228,0.0018137540901079774,0.15074604749679565,0.16090825200080872,-0.07000730186700821,-0.03616165742278099,-0.1792246699333191,0.025243593379855156,-0.0318712517619133,0.12719067931175232,0.08827410638332367],[0.07478506863117218,-0.008119354024529457,-0.15138886868953705,-0.23833025991916656,-0.3282995820045471,0.19993345439434052,0.07288755476474762,0.1431168019771576,-0.16371682286262512,0.07061059027910233,-0.06864695250988007,0.3057996332645416,-0.2795455753803253,0.19465573132038116,-0.03341055288910866,0.035536132752895355,-0.14662185311317444,0.2450227439403534,0.025439199060201645,-0.25130224227905273,-0.016552884131669998,0.281936913728714,-0.22734637558460236,-0.21857325732707977,-0.1518654078245163,-0.10614121705293655,0.01050568651407957,-0.2933482825756073,-0.23212893307209015,-0.0720837339758873,-0.19647623598575592,-0.28382009267807007,-0.11344174295663834,-0.24916960299015045,-0.06084023788571358,-0.04666083678603172,-0.18518933653831482,-0.05938034877181053,-0.25720375776290894,-0.15475411713123322,-0.11664633452892303,-0.10526618361473083,0.20276039838790894,0.211469829082489,0.3525354564189911,-0.1997135430574417,-0.18909774720668793,-0.1467474102973938,0.10254418104887009,-0.117334745824337,-0.205234557390213,-0.16356533765792847,0.29565951228141785,-0.12119878828525543,0.04254993423819542,-0.1315367966890335,0.07724329084157944,0.04386753961443901,-0.10801665484905243,0.10598462074995041,0.04250331223011017,0.019154932349920273,0.03376082330942154,-0.16672374308109283,0.07446381449699402,0.16840417683124542,-0.1330561637878418,-0.1315000057220459,0.046358559280633926,-0.2696678340435028,0.08259733766317368,-0.1297093629837036,-0.15734387934207916,-0.3992677628993988,0.24024194478988647,-0.031621191650629044,0.055803053081035614,-0.009479633532464504,0.07942061871290207,-0.062273234128952026,-0.09103158116340637,-0.04285288602113724,-0.08533778041601181,-0.10708793997764587,-0.07563585788011551,0.1535058617591858,-0.10029643028974533,-0.05913790315389633,-0.22688883543014526,-0.09793467074632645,0.04266739636659622,0.021897349506616592,0.023404978215694427,0.17586871981620789,0.21997670829296112,0.008171581663191319,0.32072731852531433,0.0028553165029734373,-0.02247936837375164,0.06020597368478775,-0.070846788585186,-0.20134267210960388,-0.061132293194532394,0.048615630716085434,-0.08510860800743103,0.049673665314912796,0.138059601187706,-0.06963953375816345,-0.08620293438434601,-0.003404082963243127,-0.09437943249940872,-0.02053024433553219,0.16512809693813324,-0.11931721121072769,-0.10519343614578247,-0.12486519664525986,-0.1226118803024292,-0.32310447096824646,-0.01410591695457697,-0.09441746026277542,0.005932174157351255,-0.2759521007537842,-0.14933033287525177,0.11999639123678207,0.010423819534480572,0.011964434757828712,-0.04680079594254494,-0.2701270580291748],[-0.004455793648958206,-0.1872263103723526,0.3835875988006592,0.07911518961191177,-0.05355893447995186,-0.03876620903611183,0.09774888306856155,0.02489117719233036,-0.35801374912261963,0.14986737072467804,-0.1599705070257187,0.03282899782061577,-0.29806673526763916,-0.04452166333794594,-0.6605258584022522,-0.3425789773464203,0.3395516872406006,0.189988374710083,0.31832486391067505,-0.25736844539642334,-0.11798371374607086,-0.307472825050354,-0.007284895516932011,0.19549094140529633,-0.2807964086532593,0.05893190577626228,-0.30034303665161133,-0.07878509163856506,-0.1285773664712906,0.1629074513912201,0.30911335349082947,0.21684572100639343,-0.4836832284927368,0.034915123134851456,-0.16115687787532806,0.04486747831106186,-0.5386393666267395,-0.03942084684967995,-0.4667188823223114,-0.1040603443980217,0.01590779609978199,0.04339256510138512,-0.3388907015323639,0.03996577113866806,-0.1663406640291214,-0.22099527716636658,-0.17162451148033142,0.07369370758533478,0.1028066948056221,0.3600032925605774,-0.006773615255951881,-0.3127942979335785,0.2655152380466461,-0.2244528830051422,0.2095920890569687,0.061319202184677124,-0.3486659824848175,0.07796766608953476,-0.13329042494297028,-0.0012986701913177967,-0.052737656980752945,-0.267947793006897,-0.05925475433468819,0.09352293610572815,-0.3217261731624603,0.1627185344696045,-0.03173448145389557,0.20877064764499664,0.42543700337409973,-0.3563055098056793,-0.10009784251451492,-0.2750687599182129,0.15472231805324554,-0.11571858823299408,0.14866869151592255,0.0682610422372818,0.06467727571725845,0.38219189643859863,-0.12952616810798645,-0.4754404127597809,0.005678475368767977,-0.43772056698799133,0.19522599875926971,0.04525381699204445,-0.2210475355386734,-0.49981489777565,-0.17948652803897858,0.3057834506034851,-0.06884156167507172,0.2008640021085739,0.15350104868412018,0.15365588665008545,-0.2818326950073242,0.1867249310016632,0.13207007944583893,-0.37021759152412415,-0.27822256088256836,0.20015285909175873,0.14621159434318542,-0.06290694326162338,-0.2700192332267761,-0.22392375767230988,-0.10188581794500351,0.48019155859947205,0.12218266725540161,-0.027465583756566048,-0.1416400820016861,0.06888639181852341,0.1272130310535431,0.04371406510472298,-0.06767401844263077,0.06710353493690491,0.407425194978714,0.6042487621307373,-0.04774361103773117,-0.0845940113067627,0.3255332112312317,-0.10488371551036835,-0.17396554350852966,0.2747986912727356,-0.03756283223628998,0.16958093643188477,0.004594261292368174,-0.023457959294319153,0.1984504610300064,-0.25112348794937134,0.18996712565422058,-0.028481101617217064],[-0.1285734921693802,0.15688295662403107,0.06144706532359123,0.20185105502605438,-0.1597038209438324,-0.4042578339576721,0.23240721225738525,-0.1828247606754303,-0.2241148054599762,-0.038099031895399094,0.20460306107997894,0.2786978483200073,-0.1270572692155838,0.28378739953041077,-0.07419058680534363,-0.3175112307071686,-0.19274622201919556,0.23507976531982422,-0.07166392356157303,0.004090457689017057,-0.19531406462192535,-0.0502605102956295,0.22108863294124603,0.11234176158905029,0.2786168158054352,0.08547915518283844,-0.2584899663925171,0.23427583277225494,-0.5172377824783325,-0.01554498914629221,-0.14188739657402039,0.09245269000530243,-0.22613480687141418,0.4510273039340973,0.04795341566205025,0.3556424379348755,-0.13113172352313995,0.14602521061897278,-0.032711394131183624,0.12542910873889923,-0.3900911211967468,0.021636255085468292,-0.33321401476860046,-0.24215957522392273,0.04573862627148628,-0.5328000783920288,-0.2680301070213318,0.10157295316457748,0.22262319922447205,-0.09186465293169022,0.6658020615577698,-0.09413213282823563,-0.028652461245656013,-0.18361368775367737,0.3321918845176697,-0.09885852783918381,-0.15493355691432953,0.01619000732898712,-0.40033382177352905,0.20470581948757172,0.1949947625398636,-0.15935742855072021,-0.15249678492546082,-0.21492037177085876,0.20792517066001892,0.15778996050357819,0.1968953013420105,-0.09285341203212738,0.13317148387432098,0.1008826270699501,-0.0039017959497869015,0.01503449771553278,0.024092474952340126,-0.005275719799101353,-0.39230433106422424,-0.26014071702957153,0.276827335357666,0.19805467128753662,0.1265663355588913,-0.08555573970079422,0.3172856271266937,0.017382465302944183,-0.12215188145637512,-0.22098985314369202,-0.048764072358608246,-0.10168930888175964,0.2869492769241333,0.17929011583328247,-0.17131948471069336,0.6385189890861511,-0.27080124616622925,0.23879112303256989,-0.048498112708330154,0.10223498940467834,0.2483626902103424,0.14007048308849335,-0.13432922959327698,0.006971363909542561,0.16665640473365784,-0.3312299847602844,0.06450361013412476,-0.15456971526145935,0.2348984032869339,-0.12491697818040848,0.027203785255551338,0.25290894508361816,0.20676030218601227,-0.41416120529174805,-0.2766128480434418,0.018009323626756668,-0.2915147542953491,-0.1574975550174713,0.06642305850982666,0.15645483136177063,-0.22822551429271698,0.42597445845603943,-0.027966946363449097,0.04225030913949013,-0.16852840781211853,0.3466567099094391,0.26501643657684326,-0.013880087062716484,-0.32541775703430176,-0.17001037299633026,0.22847919166088104,-0.14319010078907013,-0.1448705941438675,0.09550011157989502],[0.060140278190374374,-0.12315063178539276,-0.0414983406662941,-0.05038490146398544,-0.3902754485607147,-0.060777898877859116,-0.10886846482753754,0.14230677485466003,-0.11083747446537018,-0.07490547001361847,-0.027165332809090614,0.09682925790548325,-0.2089073359966278,0.23621666431427002,0.03519808501005173,-0.12213663756847382,-0.22679854929447174,0.14467939734458923,0.03303026780486107,-0.0031020864844322205,-0.05424709618091583,0.42632052302360535,-0.1849544495344162,-0.14972804486751556,0.21970070898532867,-0.2738732099533081,0.19451667368412018,-0.09818825870752335,-0.01905640959739685,-0.021329831331968307,-0.2523639500141144,-0.07363790273666382,-0.17894797027111053,-0.1530909240245819,0.24619199335575104,0.032980725169181824,0.1447065770626068,-0.012889746576547623,-0.11144553124904633,-0.03484683111310005,-0.06815026700496674,-0.017019595950841904,0.026979682967066765,0.23111090064048767,0.14104174077510834,-0.195903018116951,0.06866360455751419,-0.1869788020849228,0.23730428516864777,-0.21855787932872772,-0.006458842195570469,-0.12832891941070557,0.3818243741989136,0.09606742858886719,0.06395675987005234,-0.10364314913749695,0.02308368869125843,0.008436979725956917,-0.1529756486415863,-0.12699294090270996,0.002681244630366564,0.08221998810768127,0.14076749980449677,-0.07164302468299866,0.056970976293087006,0.05699250102043152,0.0015561555046588182,-0.17319650948047638,0.042026128619909286,-0.08067067712545395,0.22010581195354462,-0.23088860511779785,-0.04647395387291908,-0.3713531792163849,0.016942759975790977,-0.4951011538505554,0.18028338253498077,-0.20395058393478394,0.0932530015707016,0.00034116714959964156,0.13571272790431976,0.018540650606155396,-0.17826005816459656,-0.21711084246635437,-0.025376325473189354,0.24461504817008972,0.012484961189329624,0.06681956350803375,0.0032692612148821354,-0.2718788981437683,-0.10992570221424103,-0.10359500348567963,-0.15903006494045258,0.08781513571739197,0.15923014283180237,0.03289172053337097,0.3463751971721649,0.05160382390022278,-0.03518782928586006,-0.19091330468654633,0.21283146739006042,-0.26964205503463745,0.15225161612033844,-0.04002658277750015,-0.19220927357673645,0.14950266480445862,0.2293194681406021,-0.10329294204711914,-0.27391576766967773,-0.027642982080578804,0.08164180815219879,-0.2234102189540863,-0.06932233273983002,-0.3295179009437561,0.002825047355145216,0.23096035420894623,-0.15221472084522247,-0.1747913807630539,-0.10714670270681381,-0.178182914853096,-0.04336559772491455,-0.014870615676045418,-0.28235873579978943,0.12128526717424393,-0.15079647302627563,0.0464685820043087,-0.12786701321601868,-0.0725283995270729],[0.10259237885475159,-0.20345808565616608,0.046812113374471664,0.08966114372015,-0.09507028013467789,-0.009010926820337772,-0.11227474361658096,0.07958491146564484,-0.04213300719857216,-0.06608866155147552,0.15437564253807068,-0.12664848566055298,0.07303082942962646,-0.12315171211957932,-0.09309845417737961,0.13775824010372162,0.2293137162923813,-0.10286524891853333,-0.10491235554218292,-0.1562354415655136,-0.011218121275305748,0.04016559571027756,-0.1703321784734726,0.07065969705581665,0.06460060179233551,-0.36614319682121277,0.08825304359197617,-0.0537421852350235,-0.012045666575431824,-0.08589737117290497,0.0630464255809784,0.20457817614078522,0.1541237086057663,-0.07988020777702332,-0.07131727039813995,0.07226155698299408,-0.17672757804393768,-0.23924167454242706,0.10115551203489304,0.10371962934732437,0.14861899614334106,0.08724707365036011,-0.09332647919654846,0.16158635914325714,0.01201279740780592,-0.11353299766778946,0.18282321095466614,0.09955374896526337,-0.016450144350528717,0.1380573958158493,-0.1249663233757019,0.14100854098796844,0.21864651143550873,-0.0303781908005476,0.06463724374771118,-0.2974928617477417,0.22756701707839966,0.11279992759227753,-0.00036278553307056427,-0.15285630524158478,0.06153315305709839,0.09329588711261749,0.14224568009376526,-0.014312437735497952,-0.32230573892593384,0.08888905495405197,-0.05791595205664635,0.1635795682668686,0.09381937980651855,0.03466716408729553,0.1876722127199173,0.0030860945116728544,0.28670668601989746,0.22911955416202545,0.3577704429626465,-0.3198760747909546,0.05282370001077652,-0.07885623723268509,-0.23199914395809174,0.17294390499591827,-0.13322928547859192,0.0438639372587204,-0.22825981676578522,-0.13908933103084564,-0.06186741963028908,-0.014917132444679737,-0.19853785634040833,-0.06751567125320435,-0.3285212516784668,-0.023126129060983658,0.16842706501483917,0.25291648507118225,0.0815410315990448,0.05442656949162483,-0.06810952723026276,-0.14367014169692993,0.04667441546916962,0.2713802456855774,0.08233079314231873,0.17481763660907745,-0.18423239886760712,-0.04503142461180687,0.1782345026731491,0.3190501034259796,0.1492026001214981,0.017468063160777092,-0.28207671642303467,-0.10897991061210632,0.01179803442209959,0.21271257102489471,0.12207497656345367,-0.12357417494058609,0.458628386259079,0.023561913520097733,-0.16015011072158813,0.07142378389835358,0.14595241844654083,-0.01299941074103117,0.08107269555330276,-0.2972257435321808,-0.11929117888212204,-0.18693189322948456,0.00739723164588213,0.04200102761387825,0.1383943259716034,-0.17336325347423553,-0.08429958671331406,-0.04350341483950615],[-0.03920269384980202,-0.20754685997962952,-0.3336960971355438,-0.026503806933760643,-0.04184451326727867,0.06218728795647621,-0.3019501864910126,-0.021130820736289024,0.04667222499847412,-0.054037678986787796,0.06256881356239319,-0.09871169924736023,0.33408308029174805,-0.20703770220279694,0.0598306730389595,-0.07785429060459137,-0.02086794003844261,-0.09200797230005264,-0.027111751958727837,-0.10068447887897491,-0.11076358705759048,0.06114722788333893,-0.16054368019104004,-0.20623593032360077,0.06827773153781891,-0.08185023069381714,-0.04436177387833595,-0.13209296762943268,-0.13234154880046844,0.03831208869814873,0.14478567242622375,0.1781029850244522,0.058632172644138336,-0.22487986087799072,-0.002338879508897662,-0.21734394133090973,-0.17757809162139893,0.04947803542017937,-0.022128552198410034,0.19199588894844055,0.08147408068180084,-0.25764980912208557,0.08425541967153549,0.09612395614385605,-0.07671795040369034,0.03946143388748169,0.013652271591126919,0.06612572073936462,-0.03269404545426369,-0.1015956699848175,0.02147740311920643,-0.011976799927651882,0.10601712763309479,0.134012833237648,-0.09795664250850677,0.05134361609816551,-0.10711190849542618,-0.1428692787885666,0.1389830857515335,-0.14348019659519196,-0.21576426923274994,-0.03471622243523598,0.17171551287174225,0.0644272118806839,-0.04598086327314377,-0.15381766855716705,0.13077610731124878,0.07978709787130356,-0.042489610612392426,-0.03804097697138786,0.156328022480011,0.10311917215585709,0.09894923865795135,0.1634877622127533,0.08959873020648956,0.02719060890376568,0.03232154622673988,-0.02960720844566822,-0.10094339400529861,-0.06655018776655197,0.2147122174501419,-0.05889479070901871,-0.15414267778396606,-0.009203927591443062,0.04678529128432274,0.2456870824098587,0.0008468021405860782,-0.02827455848455429,-0.11406765878200531,-0.07600729912519455,0.045470863580703735,0.06414179503917694,-0.09437649697065353,-0.03030969202518463,0.05218924954533577,-0.1001046821475029,0.011124984361231327,-0.017607608810067177,0.10304757207632065,0.04650120064616203,-0.11613146960735321,-0.08577011525630951,0.21525537967681885,-0.08322371542453766,0.30643537640571594,0.022298580035567284,0.17329469323158264,0.03260950371623039,0.11486662924289703,0.06377002596855164,0.11431884765625,-0.0771327018737793,-0.08112746477127075,-0.1149449422955513,-0.1813846379518509,-0.061349667608737946,0.13463623821735382,0.198684424161911,0.12077753990888596,-0.15204882621765137,0.020533081144094467,0.03637193515896797,0.10121087729930878,-0.19332323968410492,-0.19124212861061096,-0.036315448582172394,-0.10089198499917984,0.23747797310352325],[0.10831960290670395,0.1872277706861496,-0.33582109212875366,-0.22101786732673645,-0.12344110012054443,0.2520787715911865,0.21328574419021606,0.4278363287448883,-0.09505827724933624,0.3307296931743622,0.04171491041779518,0.11593132466077805,-0.15653476119041443,-0.06453457474708557,-0.16668467223644257,0.07802797108888626,-0.04780580475926399,-0.04420005902647972,0.1783955842256546,-0.3249845802783966,0.21204446256160736,0.30243930220603943,-0.17524681985378265,0.18827390670776367,-0.223436176776886,0.11916177719831467,-0.04308908432722092,-0.04016413539648056,0.26336780190467834,-0.12392936646938324,0.038515422493219376,-0.2980859577655792,-0.27509620785713196,-0.3148282766342163,-0.2361537218093872,-0.15587182343006134,-0.14363358914852142,-0.35409098863601685,-0.0838756114244461,-0.0750638023018837,-0.11269529908895493,-0.26430076360702515,-0.20320384204387665,0.06166895478963852,0.25932562351226807,0.04493238031864166,-0.006262554321438074,0.013182082213461399,-0.08426574617624283,-0.17873084545135498,-0.26917731761932373,0.08350607752799988,0.03396673873066902,-0.125068798661232,0.019069448113441467,-0.057644691318273544,-0.1953260451555252,0.018573148176074028,0.13538122177124023,0.003393499879166484,0.021859951317310333,0.14258158206939697,-0.036855511367321014,-0.07666189968585968,-0.19562186300754547,0.06842373311519623,-0.004454780835658312,0.32010331749916077,-0.11674395203590393,-0.006675202865153551,0.14310182631015778,-0.2831869125366211,0.1836569607257843,-0.1279345005750656,0.7323181629180908,0.12599043548107147,-0.13906045258045197,0.0784052386879921,-0.14999262988567352,-0.06704600900411606,0.16100697219371796,0.017148448154330254,0.2925095856189728,-0.19626940786838531,-0.27933788299560547,-0.022073719650506973,-0.1475648581981659,-0.03896445035934448,-0.15462952852249146,-0.030601369217038155,0.24731530249118805,-0.02340095303952694,-0.15566135942935944,0.3647926151752472,0.07742028683423996,-0.07473965734243393,0.24485813081264496,0.40901172161102295,-0.06592477113008499,0.14983759820461273,-0.03209640085697174,0.03990224376320839,0.15565644204616547,0.3999757468700409,-0.1679326444864273,-0.10128984600305557,0.13127930462360382,0.0831589624285698,-0.021658146753907204,0.05593051388859749,-0.09782402962446213,-0.11783995479345322,0.1814052015542984,-0.06688642501831055,-0.044442541897296906,-0.08137816935777664,-0.21053610742092133,-0.10747892409563065,0.15830060839653015,-0.14024899899959564,-0.0697350800037384,0.10949055850505829,0.03235561028122902,0.40465137362480164,-0.18835440278053284,-0.11365637928247452,0.10816498845815659,-0.15627837181091309],[-0.09409970790147781,0.12034152448177338,0.10663197934627533,0.03493547439575195,-0.14994755387306213,-0.017260240390896797,0.04809216037392616,-0.11862150579690933,0.20275069773197174,0.1468128263950348,-0.07851513475179672,-0.2601363956928253,-0.23320478200912476,-0.13581575453281403,0.3007373809814453,0.451992392539978,-0.07817331701517105,-0.22756175696849823,-0.25126415491104126,-0.09752281755208969,0.10704270750284195,-0.04811721667647362,-0.15884599089622498,0.0354960635304451,-0.07864827662706375,0.009320464916527271,0.2846360504627228,0.036519855260849,0.4060342609882355,-0.12825919687747955,-0.161198690533638,0.024881741032004356,0.394532710313797,0.09037458151578903,-0.19595803320407867,-0.093632273375988,-0.015728795900940895,0.05637417361140251,0.2003077119588852,-0.09868479520082474,0.14912959933280945,-0.23089532554149628,0.08666125684976578,0.1013556718826294,0.05493706837296486,0.17856653034687042,0.336217999458313,0.062304478138685226,-0.25085142254829407,0.18026544153690338,-0.3229396343231201,0.4610059857368469,0.4020738899707794,0.29163575172424316,0.07312600314617157,-0.13625574111938477,0.3235728442668915,0.046713098883628845,0.2996927499771118,-0.2307661473751068,0.4387739300727844,0.41075241565704346,0.2648307681083679,-0.14412397146224976,-0.10372138768434525,-0.3416019082069397,-0.03470924496650696,0.39748334884643555,0.403175950050354,0.1141272559762001,0.05167582631111145,-0.14607830345630646,0.24181710183620453,0.6300232410430908,0.14912374317646027,-0.1348736435174942,-0.3166142404079437,-0.19870975613594055,-0.051599837839603424,0.07946430891752243,0.045123390853405,0.34804049134254456,0.051878832280635834,-0.05139826983213425,-0.09336355328559875,0.254707932472229,-0.33353298902511597,-0.37263208627700806,-0.024215582758188248,-0.04666949808597565,-0.1893904060125351,0.1686507761478424,0.27580633759498596,-0.030744507908821106,-0.12167193740606308,0.3217586874961853,0.13907615840435028,0.13993114233016968,-0.117343969643116,-0.24875281751155853,0.12196303904056549,0.15930405259132385,-0.0864465981721878,0.15569646656513214,-0.007642137352377176,0.04440133273601532,-0.22254985570907593,-0.21759366989135742,-0.021856769919395447,0.03331134840846062,-0.03128430247306824,-0.18786919116973877,0.6089613437652588,-0.3327969014644623,-0.18994638323783875,0.1352919191122055,-0.05020234361290932,-0.12380296736955643,0.24728699028491974,-0.30798637866973877,-0.0254871416836977,-0.27553483843803406,-0.13225094974040985,-0.07540876418352127,-0.10392367094755173,0.22500166296958923,0.00686291279271245,-0.16460636258125305],[-0.09484349191188812,0.009266294538974762,0.03631334751844406,-0.03173753246665001,0.11622682958841324,0.08272196352481842,0.11458440124988556,-0.0683126449584961,-0.05679149180650711,-0.17685142159461975,0.0648748055100441,-0.16696199774742126,0.1809403896331787,-0.24656488001346588,0.0951375737786293,0.0010453626746311784,0.11267246305942535,-0.12179389595985413,-0.10118808597326279,-0.07891714572906494,0.03639480099081993,0.004253312014043331,0.049989618360996246,0.05796853452920914,-0.05291251838207245,0.013379305601119995,-0.021715058013796806,0.11392365396022797,0.04318872094154358,-0.026577020063996315,-0.02988250181078911,0.06862394511699677,-0.11750761419534683,0.04950385168194771,0.11828351765871048,-0.12199707329273224,0.10941749811172485,-0.09947869181632996,0.08990128338336945,0.046557847410440445,0.20379458367824554,-0.20689240097999573,-0.2652819752693176,0.02207210473716259,0.02509613148868084,0.024486828595399857,0.02652396634221077,0.020993724465370178,-0.11241531372070312,-0.024566076695919037,0.09881358593702316,-0.06623170524835587,-0.15416455268859863,-0.12432276457548141,0.023320844396948814,0.04878675937652588,-0.04692014306783676,0.025628581643104553,0.03889716416597366,-0.23869244754314423,0.07054557651281357,0.16255025565624237,0.10948973894119263,-0.2457514852285385,0.08527862280607224,-0.3066408336162567,0.2904035747051239,0.04188045859336853,0.014543336816132069,-0.07692468911409378,0.12104915827512741,0.17784614861011505,0.02838868647813797,-0.057560838758945465,-0.05341321974992752,0.01966385543346405,-0.11180727183818817,-0.1132652536034584,-0.18704308569431305,0.09227191656827927,0.13969692587852478,0.044898174703121185,-0.2143668681383133,-0.09320386499166489,-0.1718173325061798,-0.06054570898413658,-0.11034592241048813,-0.012779205106198788,-0.013318672776222229,0.07592517882585526,-0.031779512763023376,0.2604579031467438,-0.053139399737119675,-0.0045378198847174644,-0.06857331842184067,-0.06571412086486816,-0.22071579098701477,0.08208436518907547,0.1293487548828125,-0.07897994667291641,-0.045640405267477036,-0.00034672138281166553,0.11874779313802719,-0.034948285669088364,0.1288265734910965,0.2912035882472992,0.1000479906797409,0.12464752048254013,-0.038570184260606766,0.11085054278373718,-0.056120000779628754,-0.05042247474193573,0.20260249078273773,0.04828530177474022,-0.0952933207154274,-0.04696963354945183,-0.183425635099411,0.3187437057495117,0.04055328294634819,0.05045080929994583,0.16402727365493774,0.08812431991100311,0.09555716067552567,0.002953729359433055,-0.09781812131404877,0.01634341850876808,-0.07521547377109528,0.14719492197036743],[-0.3055505156517029,0.03265157341957092,-0.28261619806289673,-0.005031816195696592,0.1755799949169159,0.27045390009880066,0.123683400452137,0.3034771978855133,0.017671063542366028,0.30038636922836304,0.10378237813711166,-0.12426988780498505,-0.03632601723074913,-0.16772297024726868,0.07062727212905884,0.029905956238508224,-0.038301218301057816,-0.05995779111981392,-0.015356231480836868,-0.3511502146720886,0.22219528257846832,0.15812833607196808,0.11459781229496002,0.06392201781272888,-0.35866400599479675,0.15021809935569763,-0.23904407024383545,-0.07629290968179703,0.04199320822954178,-0.11555274575948715,0.018456289544701576,-0.22664785385131836,-0.0508449524641037,-0.2831430435180664,-0.27354153990745544,-0.21752572059631348,-0.21972942352294922,-0.2445022463798523,-0.13626210391521454,-0.12571831047534943,0.13772287964820862,-0.0688425600528717,-0.10968158394098282,0.0538838729262352,0.22580036520957947,0.04636198654770851,-0.027955595403909683,-0.04446684569120407,-0.1337122619152069,0.028140084818005562,-0.04411189630627632,-0.17405809462070465,-0.02751895971596241,0.14300665259361267,0.056841712445020676,0.13736286759376526,0.027371929958462715,0.2878154218196869,-0.06575476378202438,-0.2283305674791336,0.12192884832620621,-0.07701250910758972,-0.2892378568649292,0.01028530951589346,-0.15846611559391022,-0.11301666498184204,-0.016452370211482048,0.2097288966178894,-0.15096521377563477,0.14232319593429565,-0.18437987565994263,-0.09321043640375137,-0.016808880493044853,-0.23319199681282043,0.5343591570854187,0.23489366471767426,-0.14878755807876587,0.276953786611557,-0.0028767045587301254,-0.22051389515399933,-0.10372553765773773,-0.02124626934528351,0.17001955211162567,0.200844869017601,-0.16303406655788422,-0.09709935635328293,-0.23877835273742676,-0.21433037519454956,-0.13562439382076263,-0.25887468457221985,0.08168229460716248,-0.07945564389228821,0.24251532554626465,0.10617335140705109,0.08716932684183121,-0.18707884848117828,-0.1877482831478119,0.22322525084018707,-0.02821342647075653,0.17955593764781952,-0.10194995254278183,0.18780091404914856,-0.020266106352210045,0.263448566198349,-0.05991773679852486,-0.14492696523666382,0.10111398994922638,0.10573159903287888,0.19299404323101044,-0.05772452801465988,0.06391052901744843,0.0890207588672638,0.12572777271270752,-0.29633623361587524,0.06272726505994797,-0.0458163283765316,-0.11229056864976883,-0.20696257054805756,0.06122266873717308,-0.2015923708677292,-0.08827658742666245,-0.16339068114757538,0.06972000002861023,0.2057228982448578,-0.04502026364207268,0.08210528641939163,0.25806549191474915,-0.19317348301410675],[-0.177162304520607,0.014805995859205723,0.0794522613286972,-0.02590702287852764,-0.04936138540506363,-0.026038557291030884,0.0917712077498436,-0.12992706894874573,0.24342010915279388,-0.024448027834296227,0.01782725751399994,-0.2551610469818115,-0.25259333848953247,-0.09396487474441528,0.5565565824508667,0.4846411943435669,-0.3136201798915863,-0.1636817753314972,-0.3357255458831787,-0.34146755933761597,0.0353197418153286,-0.014230355620384216,-0.1173536479473114,-0.29523369669914246,-0.2594093978404999,-0.15693773329257965,0.10885310918092728,0.021612927317619324,0.11746332794427872,-0.18677937984466553,-0.08377697318792343,-0.10277959704399109,0.3746364414691925,-0.02970849722623825,-0.25858208537101746,0.24169446527957916,0.25325262546539307,0.006421856116503477,0.04276353865861893,-0.24597351253032684,-0.15045955777168274,-0.06665807217359543,0.13793472945690155,-0.11274764686822891,0.004236369393765926,0.14352303743362427,0.40926194190979004,0.021194184198975563,0.04579256474971771,0.20051145553588867,-0.13991563022136688,0.7330362200737,-0.10415580868721008,0.025631383061408997,0.24182826280593872,-0.4246979057788849,0.34411996603012085,0.22300918400287628,0.278293251991272,-0.09087882190942764,0.3883731961250305,0.6135828495025635,-0.035857342183589935,-0.007406716234982014,-0.025784721598029137,-0.22194617986679077,-0.26060765981674194,0.6034325361251831,0.27837812900543213,0.325451523065567,0.07663311809301376,-0.16930535435676575,-0.28115516901016235,0.4706859588623047,0.04124944284558296,-0.11713486164808273,-0.3545830249786377,-0.20154216885566711,-0.00909928698092699,0.10203671455383301,-0.1744280904531479,0.27493229508399963,-0.02846510335803032,-0.002986533334478736,-0.024361204355955124,0.37110263109207153,-0.15199874341487885,-0.40712445974349976,0.07456628233194351,0.09897053986787796,-0.4302941858768463,0.0943470373749733,0.3075881004333496,0.045630548149347305,-0.03767424449324608,0.4697633683681488,-0.08472815901041031,0.46874576807022095,-0.21389101445674896,-0.10782298445701599,-0.0446358323097229,0.19230076670646667,-0.2062596082687378,0.15949004888534546,-0.1787123829126358,-0.0547146312892437,-0.22540594637393951,-0.18915168941020966,0.09727273881435394,0.02438587322831154,-0.12804371118545532,-0.1904614418745041,0.3197099268436432,-0.23939263820648193,-0.35521504282951355,-0.016510503366589546,-0.1252526491880417,-0.19122949242591858,0.43065330386161804,-0.0765327662229538,0.025548817589879036,-0.1713751256465912,-0.23914951086044312,-0.31045976281166077,-0.08192888647317886,0.04735713079571724,0.04738328978419304,-0.23053401708602905],[-0.09355468302965164,0.33308473229408264,0.10791151225566864,0.241984024643898,-0.11621448397636414,-0.3189654052257538,0.13704676926136017,-0.031760260462760925,-0.07799717783927917,-0.04111799970269203,0.07099740952253342,-0.18215878307819366,-0.06650027632713318,-0.029025504365563393,0.0152911227196455,0.02877037227153778,-0.04378992319107056,-0.2500556707382202,0.27535945177078247,0.14022864401340485,0.3657294511795044,-0.024144260212779045,-0.042417313903570175,0.07689139991998672,0.22133533656597137,0.2520931363105774,-0.15535838901996613,0.08083466440439224,0.13324333727359772,-0.0424346849322319,-0.06945580244064331,0.06072394177317619,0.039025574922561646,0.27687227725982666,0.0082877641543746,-0.029160620644688606,0.2708030939102173,-0.12241998314857483,0.1769472360610962,0.17747901380062103,-0.013096255250275135,-0.460035115480423,-0.20753557980060577,-0.10696244984865189,0.3158978819847107,-0.01914071850478649,-0.04446598142385483,0.33812424540519714,-0.24380172789096832,-0.016374127939343452,0.30146223306655884,0.19759021699428558,-0.15187864005565643,0.02388492040336132,0.03756912797689438,0.008062387816607952,0.12974092364311218,0.2442191243171692,-0.17128649353981018,-0.3085753619670868,0.11637751758098602,0.10462165623903275,0.03134382143616676,-0.2844553291797638,-0.07751218229532242,-0.18323548138141632,0.12285593152046204,-0.02872287482023239,0.19331492483615875,0.01899639144539833,0.11299803853034973,-0.1689184159040451,-0.26206526160240173,-0.03519388288259506,-0.19150374829769135,-0.21011781692504883,-0.14775551855564117,-0.04482559859752655,-0.05579059571027756,-0.0861445963382721,0.03276241198182106,-0.0008395008626393974,0.005278411321341991,-0.30824950337409973,-0.3942030072212219,-0.0430925227701664,-0.007855957373976707,-0.27853670716285706,0.11004501581192017,0.05779386684298515,-0.21388714015483856,0.21549399197101593,0.05037982389330864,0.21624793112277985,-0.2560693025588989,-0.13498681783676147,-0.24651727080345154,0.09139231592416763,0.2687332332134247,-0.2796635329723358,0.12635914981365204,0.17559097707271576,0.11636079847812653,-0.0038673439994454384,-0.2202671766281128,0.07369095832109451,0.14383164048194885,-0.2012086808681488,0.27377939224243164,0.27735045552253723,-0.2732596695423126,-0.3345159590244293,0.13941270112991333,-0.07880692929029465,-0.031019555404782295,0.027342181652784348,-0.1190018579363823,0.06709778308868408,-0.022385310381650925,0.1350117176771164,0.08239847421646118,0.38759845495224,-0.10102581232786179,-0.025828376412391663,-0.2730109393596649,0.143681138753891,-0.29162171483039856,0.014760548248887062],[-0.05064896494150162,-0.062276411801576614,0.0006160886259749532,-0.17483259737491608,0.10151197016239166,0.01582127809524536,-0.029858028516173363,0.3413679003715515,0.19489286839962006,0.20891843736171722,-0.01415789034217596,-0.062089551240205765,-0.178488090634346,-0.12624625861644745,0.17225587368011475,0.1992550641298294,-0.2417786717414856,-0.3425680696964264,-0.06996693462133408,-0.1128930076956749,0.3348243236541748,0.10785966366529465,0.06935597956180573,-0.09153757244348526,-0.37873074412345886,0.08101681619882584,-0.1159534677863121,-0.023888254538178444,-0.045924440026283264,-0.2308359295129776,-0.17471006512641907,-0.08849557489156723,-0.06453712284564972,-0.35652804374694824,-0.07711455971002579,-0.11191553622484207,-0.10843126475811005,-0.2645750343799591,0.08209475129842758,-0.12565651535987854,-0.11113078147172928,-0.19821375608444214,-0.08300671726465225,0.0011344486847519875,0.15801985561847687,0.10611443221569061,-0.13735690712928772,-0.2643962502479553,-0.1522718220949173,-0.047171566635370255,-0.38956138491630554,-0.14268437027931213,0.09191831946372986,0.1744377613067627,-0.11681301146745682,0.18344905972480774,0.02207118272781372,0.11479568481445312,0.0031693349592387676,-0.07900544255971909,0.17148718237876892,0.07316456735134125,-0.22998632490634918,-0.020187878981232643,0.004968932364135981,-0.07018860429525375,0.05408300459384918,0.03223864361643791,-0.03805190324783325,0.06558069586753845,0.1009494811296463,-0.09645331650972366,0.08713258802890778,-0.1877882331609726,0.162746861577034,0.040687885135412216,-0.03923245891928673,0.15460118651390076,-0.14307621121406555,-0.12014570087194443,0.21160376071929932,0.08712874352931976,-0.09445752948522568,-0.0757632926106453,-0.11423509567975998,-0.3348407745361328,-0.3755783140659332,-0.04347293823957443,-0.08085367828607559,-0.3415646553039551,-0.054543785750865936,0.0288624819368124,0.28033897280693054,0.24467194080352783,-0.22039537131786346,-0.1963631808757782,-0.1445266604423523,-0.009666847065091133,-0.194181889295578,-0.15884770452976227,-0.11104430258274078,0.1082468330860138,0.020816253498196602,0.21700246632099152,-0.17603819072246552,-0.03589915856719017,0.03845756873488426,0.05822017043828964,0.1488867998123169,-0.14075283706188202,-0.11780937016010284,-0.004759613424539566,-0.0313752181828022,-0.14759166538715363,-0.027808576822280884,-0.20074306428432465,-0.377535343170166,-0.13775917887687683,0.30362507700920105,-0.043872103095054626,0.12526489794254303,0.09694243222475052,0.1364748775959015,0.24665836989879608,-0.121274434030056,0.26241785287857056,-0.015561326406896114,-0.1178031712770462],[0.05679328739643097,0.06660378724336624,0.20180580019950867,-0.008218850009143353,-0.09528718888759613,-0.22196891903877258,0.0573507584631443,-0.3450700044631958,0.1973431557416916,0.05655195191502571,-0.11997804045677185,0.05710364878177643,-0.20808178186416626,-0.04692564159631729,0.7325447797775269,0.2790723741054535,-0.3671860098838806,-0.0477796345949173,-0.2546616494655609,-0.17710520327091217,-0.044846538454294205,0.009159687906503677,-0.08520431816577911,-0.2537008821964264,0.1332094967365265,-0.13626497983932495,0.19512289762496948,0.0006598515319637954,0.1625146120786667,-0.11806216835975647,-0.11981196701526642,-0.04169975966215134,0.27947208285331726,-0.16381189227104187,-0.3158673048019409,0.1637778878211975,0.23470042645931244,-0.0541699193418026,0.1289321333169937,-0.17413537204265594,-0.07816783338785172,-0.0160380806773901,-0.21156229078769684,-0.2145494818687439,-0.02785637229681015,0.0919274166226387,0.20259220898151398,-0.002552732825279236,0.12753458321094513,0.028861239552497864,0.05223908647894859,0.5846006274223328,-0.056665822863578796,0.05886656790971756,0.35820233821868896,-0.45889270305633545,0.15714211761951447,-0.08411901444196701,0.1034127026796341,-0.042955003678798676,0.3337307274341583,0.6099013090133667,0.06452062726020813,-0.105864517390728,-0.02773100696504116,-0.009162003174424171,-0.04797077924013138,0.2513323724269867,0.23707643151283264,0.1872738003730774,0.1649189293384552,-0.10350543260574341,-0.17702773213386536,0.330203115940094,0.16259023547172546,-0.2185557335615158,-0.2038046419620514,-0.39331161975860596,0.07474909722805023,0.10214470326900482,-0.19580888748168945,0.21373067796230316,-0.24432013928890228,-0.1567966789007187,-0.012440789490938187,0.4704444408416748,-0.010872004553675652,-0.13511711359024048,0.28251415491104126,-0.09772327542304993,-0.532046377658844,-0.0822201669216156,0.1216883510351181,0.14982126653194427,-0.009184405207633972,0.3563922345638275,0.1976586878299713,0.15881775319576263,-0.21058966219425201,-0.04571773111820221,0.24762527644634247,0.20584487915039062,-0.09881268441677094,-0.11274444311857224,-0.1792978197336197,-0.15121646225452423,-0.2396918088197708,-0.42272746562957764,-0.10465121269226074,0.01005582232028246,-0.19794698059558868,0.02422303706407547,0.3846721947193146,-0.11847632378339767,-0.1578734964132309,0.031948432326316833,0.009564302861690521,-0.36558815836906433,0.3659765422344208,-0.1811918169260025,-0.0637560561299324,-0.23577898740768433,-0.1505660116672516,-0.2643769681453705,-0.19330614805221558,0.04551563039422035,-0.09330802410840988,-0.18438389897346497],[-0.20857809484004974,0.18448223173618317,0.3925350308418274,-0.07610028237104416,0.031872909516096115,-0.08060338348150253,0.0004591657198034227,-0.4399787187576294,0.09222913533449173,0.3246195912361145,0.014868139289319515,0.15537890791893005,-0.39030706882476807,0.09458698332309723,0.17690478265285492,-0.20139262080192566,-0.05119756981730461,0.22696436941623688,0.08937335014343262,0.13179326057434082,0.09443674981594086,0.04287068545818329,-0.07017092406749725,0.19404004514217377,0.3570300340652466,0.37047064304351807,-0.28032413125038147,0.15272675454616547,-0.177202969789505,-0.032997019588947296,0.08585037291049957,0.06892517954111099,-0.2417159527540207,0.3439648747444153,-0.15428435802459717,0.038712628185749054,0.19584213197231293,-0.05178779363632202,-0.10393374413251877,0.0008744940278120339,0.02801801636815071,-0.409003883600235,-0.3885515332221985,0.0219692662358284,0.02523510530591011,-0.1162290871143341,0.026573538780212402,0.23419524729251862,-0.04281938448548317,0.26868873834609985,0.33584368228912354,0.07271169126033783,0.03406992182135582,-0.21194793283939362,0.33403512835502625,-0.1280999481678009,0.04443344101309776,-0.06153547391295433,-0.1974266618490219,0.10184188932180405,-0.13793572783470154,0.03546365723013878,0.10068735480308533,0.03553621470928192,0.21519413590431213,0.21324698626995087,-0.07224197685718536,0.015708480030298233,0.4006924033164978,-0.05037582293152809,-0.10025715827941895,-0.1933571696281433,-0.039318669587373734,0.12976373732089996,-0.05646587908267975,-0.10657773911952972,0.07491324096918106,0.06681013107299805,-0.06450692564249039,-0.12266278266906738,-0.06598474085330963,-0.06010272726416588,0.29190725088119507,-0.36911043524742126,-0.3779374063014984,-0.0015461432049050927,0.12552295625209808,-0.021031521260738373,0.4290826618671417,0.3543720841407776,-0.3165948688983917,0.002220514230430126,-0.24266314506530762,-0.08599428087472916,-0.044782303273677826,0.04215347766876221,-0.39156726002693176,-0.08043625950813293,0.17288845777511597,-0.49071958661079407,0.2002304345369339,-0.03412267193198204,-0.19990955293178558,-0.12584614753723145,-0.18029609322547913,-0.11952895671129227,0.24508270621299744,-0.07164060324430466,-0.009097212925553322,0.22829397022724152,-0.385385125875473,-0.37379366159439087,0.11135350167751312,-0.001364271156489849,-0.26290759444236755,0.05089158937335014,0.07739216834306717,-0.09917493164539337,-0.07929285615682602,0.39509645104408264,0.10217607021331787,0.35357561707496643,-0.20081862807273865,-0.12314318865537643,-0.0475313737988472,0.09393399208784103,-0.28219661116600037,-0.40655213594436646],[0.07445226609706879,-0.0074324533343315125,-0.1465776562690735,0.17875877022743225,-0.1302000731229782,-0.2327384054660797,0.001974352402612567,0.14811010658740997,0.36344000697135925,0.14412985742092133,0.044797882437705994,-0.2736087143421173,