{"model_type":"mlp","input_size":63,"labels":["A","B","BKSP","C","D","E","F","G","H","I","K","L","N","O","P","Q","S","SPACE","T","U","V","W","X","Y"],"layers":[{"name":"dense_Dense1","input_size":63,"output_size":128,"activation":"relu","weights":[[0.026646234095096588,0.09064324200153351,-0.05100145936012268,0.051406897604465485,-0.014650695957243443,-0.054726678878068924,0.12591305375099182,0.09282583743333817,0.018352482467889786,0.18962961435317993,-0.0773250088095665,0.13682490587234497,-0.03627078980207443,0.0845717042684555,-0.04322069138288498,0.004197258036583662,0.14661942422389984,0.08389825373888016,-0.040151387453079224,-0.09402838349342346,0.07131525129079819,-0.1210334524512291,0.018355948850512505,-0.06711846590042114,-0.03269916772842407,-0.11191778630018234,-0.00843892339617014,0.07103356719017029,0.04912736266851425,-0.09999066591262817,0.051117170602083206,-0.0679372027516365,-0.06885053217411041,-0.18070484697818756,0.1199713796377182,-0.04276007041335106,0.09220676124095917,0.049123797565698624,0.03190553933382034,0.08115990459918976,-0.1064762994647026,0.1118864044547081,-0.046484582126140594,0.16879582405090332,-0.12425413727760315,0.026245949789881706,-0.049599435180425644,-0.10959829390048981,-0.002527564065530896,-0.05144427716732025,0.13371539115905762,-0.12633812427520752,0.08910936862230301,-0.06547505408525467,0.1870681196451187,-0.0876004546880722,0.12843970954418182,-0.10526115447282791,-0.09029051661491394,-0.055117618292570114,0.03775661811232567,-0.03434287756681442,0.03669394552707672,0.1458009034395218,0.10122735798358917,0.028788937255740166,0.10335683822631836,-0.026005426421761513,-0.029741335660219193,0.10863883793354034,-0.03883194923400879,-0.07110882550477982,0.0665978193283081,0.14067013561725616,-0.10432026535272598,-0.08103442192077637,0.03358214721083641,0.0803096815943718,0.12021756917238235,-0.06532140076160431,0.03562748432159424,0.015342057682573795,-0.1894190013408661,0.0008880013483576477,-0.04088853299617767,-0.03327612578868866,-0.0840255469083786,-0.061240650713443756,0.018324827775359154,0.04572649672627449,0.07596305757761002,-0.03911977261304855,-0.029932644218206406,-0.10490839183330536,-0.02403159812092781,0.023800592869520187,0.05810147896409035,-0.10079006850719452,-0.026553548872470856,0.12625207006931305,-0.06984558701515198,0.0987997055053711,-0.08815748244524002,0.0780906230211258,0.017570024356245995,-0.02117917872965336,-0.021038711071014404,-0.014040660113096237,0.02215593308210373,0.013259210623800755,-0.15179386734962463,0.011334912851452827,0.10349355638027191,-0.18365931510925293,-0.05009579285979271,-0.007829687558114529,-0.05850861594080925,0.024435829371213913,0.10612870752811432,0.13168269395828247,-0.10818004608154297,0.05423123016953468,-0.11638309061527252,-0.03159968927502632,-0.03855934739112854,-0.09028137475252151,-0.03707093000411987,-0.17885872721672058],[0.03517286479473114,-0.1084253117442131,0.018736019730567932,0.09725601226091385,0.0211268849670887,0.016514699906110764,0.15231098234653473,-0.0635886862874031,0.030844779685139656,-0.1293046772480011,0.11289819329977036,-0.0840289369225502,-0.017680035904049873,-0.007591628935188055,0.026160702109336853,-0.17895753681659698,0.07630327343940735,-0.07871218025684357,-0.03161659464240074,0.12640073895454407,0.06314209848642349,-0.20298650860786438,0.03710808604955673,-0.014599455520510674,0.035311222076416016,-0.1947861760854721,0.13073325157165527,0.1570235937833786,0.09062392264604568,-0.04619521647691727,0.0028876690194010735,0.06663776189088821,0.08421019464731216,0.07504446059465408,-0.0378420315682888,-0.10109354555606842,-0.0710631012916565,0.021163780242204666,-0.02719026245176792,-0.10686416923999786,0.02371148392558098,-0.1013135090470314,0.010499512776732445,-0.09275342524051666,0.004011540208011866,-0.08977442979812622,-0.0892912968993187,-0.017120391130447388,-0.004045865032821894,0.07684441655874252,0.12521490454673767,-0.1004100814461708,0.04072028025984764,-0.02194117195904255,0.07099936902523041,-0.08825258910655975,0.19087499380111694,0.14417029917240143,0.006104488857090473,0.16294804215431213,-0.01993616297841072,-0.13691125810146332,-0.05262912064790726,-0.15532514452934265,-0.06071047484874725,0.10776737332344055,-0.08535543829202652,-0.1881643384695053,0.13549132645130157,-0.11688079684972763,0.16500185430049896,-0.04375359043478966,0.103875532746315,0.03748661279678345,-0.04214261844754219,-0.18119663000106812,-0.02107270248234272,0.029409514740109444,0.18001675605773926,0.048656802624464035,-0.0017201348673552275,0.06538869440555573,-0.13377384841442108,-0.0492316298186779,-0.13206639885902405,-0.015187349170446396,-0.2029983252286911,0.1487606018781662,0.004000167362391949,0.016557566821575165,-0.1580737978219986,-0.01908750645816326,0.05277096480131149,0.022792669013142586,-0.1519794762134552,0.10956782847642899,-0.023192552849650383,-0.07333317399024963,0.19075889885425568,-0.10043457895517349,-0.05464675650000572,-0.009966878220438957,0.05774085968732834,-0.17386981844902039,0.10208208113908768,-0.05815501883625984,0.017951497808098793,-0.014602270908653736,0.005817836616188288,0.06754836440086365,-0.06564977020025253,0.12981097400188446,-0.05223303660750389,0.12930144369602203,0.11955965310335159,-0.1283019781112671,0.14926527440547943,-0.009775812737643719,-0.01867833361029625,-0.05898459255695343,-0.045545198023319244,-0.025875039398670197,-0.0024617109447717667,0.09563018381595612,0.19855858385562897,0.04527982696890831,0.16849032044410706,-0.11819519847631454],[-0.04170127958059311,-0.01954282447695732,0.11565515398979187,0.08609211444854736,-0.040485188364982605,-0.032924652099609375,-0.05109969154000282,-0.028178922832012177,0.16368183493614197,0.0099337762221694,0.062051255255937576,0.12934719026088715,-0.050446927547454834,-0.14608588814735413,0.016860511153936386,-0.10210925340652466,-0.04445916414260864,-0.06370390206575394,0.008570648729801178,-0.07281340658664703,-0.05501597747206688,-0.10544709116220474,0.04863619804382324,0.04106714949011803,0.040680620819330215,-0.005726821254938841,-0.12732233107089996,-0.06970706582069397,0.07355469465255737,0.053324759006500244,-0.06289447098970413,0.07567091286182404,-0.07335491478443146,-0.06447949260473251,0.03340933471918106,-0.10640550404787064,0.08725383132696152,0.047621071338653564,-0.04255855828523636,-0.0216753538697958,0.03609710559248924,0.001482166233472526,0.12656782567501068,0.03473646193742752,-0.040517356246709824,-0.012347563169896603,0.023516587913036346,0.08506213128566742,0.1596919745206833,-0.1193668320775032,0.10684917867183685,-0.049656301736831665,-0.04993168264627457,-0.1266760379076004,-0.16498294472694397,0.17862625420093536,-0.027658874168992043,0.008017916232347488,-0.0194894690066576,0.18036219477653503,0.0093208197504282,0.07230628281831741,0.06993630528450012,-0.0377824604511261,0.019509710371494293,0.03615834191441536,-0.034890394657850266,0.1917964220046997,0.1560249626636505,-0.07259350270032883,-0.004040111321955919,-0.12474548816680908,0.056672386825084686,0.020001720637083054,0.11585650593042374,0.009655816480517387,0.09893980622291565,0.06321688741445541,-0.006153931841254234,-0.11561037600040436,0.0624995082616806,-0.06388289481401443,-0.10995860397815704,0.022449033334851265,0.07690500468015671,0.15797241032123566,0.017320837825536728,-0.182504341006279,-0.004789396189153194,-0.18154877424240112,-0.06995955109596252,0.050027042627334595,-0.05452854186296463,-0.08861412107944489,0.0005100628477521241,-0.06136760115623474,-0.025264166295528412,0.015523174777626991,-0.1622181236743927,0.08985109627246857,0.060502905398607254,-0.15689516067504883,-0.07983977347612381,-0.1990632563829422,-0.19538752734661102,0.09893429279327393,0.04308565706014633,-0.007138164713978767,-0.10776302963495255,-0.15872962772846222,-0.16547712683677673,0.05805177614092827,-0.10143387317657471,-0.10610631853342056,0.04458027705550194,0.1071196049451828,0.15507030487060547,0.15011915564537048,-0.19371838867664337,0.19987817108631134,-0.08180367946624756,-0.034101031720638275,-0.02814914844930172,-0.005120281595736742,-0.04113255441188812,0.11155634373426437,-0.16221119463443756,-0.031322117894887924],[0.10694466531276703,-0.1324341595172882,-0.0461985319852829,-0.07327993214130402,-0.3024691939353943,0.0007034062873572111,-0.14654786884784698,-0.10847184807062149,0.00950545072555542,0.046446844935417175,-0.27630501985549927,0.13632740080356598,-0.04202615097165108,0.009124997071921825,-0.288978636264801,0.1409894824028015,-0.1809328943490982,-0.2048313021659851,-0.015408383682370186,-0.06840081512928009,0.24676331877708435,0.21907499432563782,0.16477905213832855,0.0415622852742672,0.171500563621521,-0.12812462449073792,-0.14833153784275055,0.06454836577177048,0.16318169236183167,-0.09068881720304489,0.07156810164451599,-0.041768189519643784,-0.0872037261724472,0.1509612500667572,0.07217269390821457,0.035888589918613434,-0.012298946268856525,0.4156029224395752,-0.010104781948029995,0.03578629717230797,-0.2120867669582367,-0.17878711223602295,0.1767483502626419,-0.1242009624838829,-0.1809488832950592,-0.08859914541244507,-0.12522734701633453,-0.23742981255054474,-0.2088504284620285,0.14905419945716858,-0.09562773257493973,-0.1085648387670517,-0.14375869929790497,-0.0684807077050209,-0.05736725404858589,-0.14210698008537292,-0.09216184914112091,-0.18472464382648468,0.21652542054653168,-0.3123829662799835,-0.2582409083843231,-0.05192570760846138,0.1090322881937027,-0.08659926056861877,0.1310781091451645,-0.0831206664443016,-0.15464743971824646,-0.029620306566357613,-0.1630750447511673,0.1267189383506775,0.081868015229702,-0.047106124460697174,0.07443412393331528,0.1516491323709488,-0.07540082186460495,0.1996755450963974,-0.15589824318885803,-0.16099470853805542,-0.24337255954742432,-0.3642853796482086,-0.20008158683776855,-0.2047756463289261,-0.05969298258423805,0.06659840047359467,-0.0839674174785614,-0.11938650161027908,0.012326560914516449,-0.1630113571882248,-0.16113698482513428,0.02192503586411476,-0.06476426869630814,-0.009819986298680305,0.10952133685350418,0.0014579246053472161,0.18227645754814148,0.03061734326183796,0.01708216220140457,0.12753117084503174,-0.15345267951488495,-0.07957524061203003,0.026640713214874268,0.05662865936756134,0.2801474332809448,0.299905002117157,-0.23650813102722168,-0.06094321981072426,-0.029932042583823204,-0.15784434974193573,-0.4122306704521179,0.2359851747751236,0.1466401219367981,-0.13285325467586517,-0.28007522225379944,0.05390902981162071,-0.07038048654794693,0.1145285964012146,0.15058229863643646,0.13943138718605042,0.05746035277843475,-0.05482940375804901,0.04284089803695679,-0.014391331002116203,-0.15487425029277802,0.10128696262836456,-0.12457948178052902,0.09728529304265976,0.08924897015094757,0.03710060566663742],[-0.2540513277053833,0.17756710946559906,-0.348442405462265,-0.03947378695011139,-0.116769939661026,-0.12186539173126221,-0.3123779892921448,-0.033325303345918655,-0.19409675896167755,-0.22580304741859436,-0.024079689756035805,0.19650746881961823,0.004539559129625559,-0.13025401532649994,-0.021133624017238617,0.25113698840141296,-0.2131030410528183,-0.1028389185667038,-0.01839851588010788,-0.11575926095247269,0.2453574240207672,-0.2775041162967682,-0.21884755790233612,0.259697824716568,-0.16049326956272125,-0.08668244630098343,0.2119312435388565,-0.3778589069843292,-0.15363940596580505,0.0278613343834877,0.3389436900615692,0.11462293565273285,0.18082235753536224,-0.23015551269054413,0.09189433604478836,-0.0828709527850151,-0.1033448651432991,-0.052488062530756,0.15921182930469513,-0.11244135349988937,-0.18139292299747467,0.008745666593313217,-0.12828506529331207,0.08925794064998627,0.19780531525611877,-0.26973819732666016,-0.1375700682401657,-0.06412765383720398,-0.040709324181079865,-0.30167558789253235,0.1536535918712616,0.062294814735651016,0.060586024075746536,0.020520072430372238,-0.25130361318588257,0.09816756099462509,-0.2173735350370407,-0.08477441966533661,-0.19521817564964294,0.04238947108387947,0.11817175894975662,-0.3811098337173462,-0.012738345190882683,-0.1379450112581253,0.11391285061836243,0.062467314302921295,0.09765986353158951,-0.14626866579055786,0.1499677449464798,0.0735137015581131,-0.503296434879303,-0.17490547895431519,-0.08278822153806686,-0.005592351779341698,0.27177125215530396,-0.10730260610580444,0.08085273206233978,0.11793046444654465,0.1380024254322052,-0.0009275696938857436,0.15995541214942932,-0.11146528273820877,0.26211023330688477,0.15328435599803925,0.1716938465833664,0.3389473855495453,0.6782248020172119,-0.27259546518325806,0.16934001445770264,-0.05526180565357208,-0.12785208225250244,-0.018764641135931015,-0.133302241563797,-0.1613176465034485,0.24433837831020355,-0.1313904970884323,0.10463576763868332,0.041425671428442,0.03592571243643761,0.14896850287914276,0.14250996708869934,-0.13132567703723907,0.23400180041790009,0.4671071171760559,-0.022129112854599953,0.22434087097644806,-0.0865507423877716,0.2816809415817261,-0.058586057275533676,0.057341568171978,-0.019759485498070717,-0.24833683669567108,-0.1636880338191986,0.20067089796066284,-0.015624558553099632,0.29497843980789185,0.17857146263122559,-0.1976480782032013,0.16114825010299683,-0.038985297083854675,0.060521479696035385,0.034988176077604294,-0.3724880516529083,-0.012011358514428139,0.06782473623752594,0.19899432361125946,0.059718962758779526,-0.005457026418298483],[0.44258278608322144,-0.15024496614933014,-0.2697257697582245,-0.15415485203266144,0.16259141266345978,0.27495285868644714,0.017021039500832558,0.317856103181839,-0.4053319990634918,0.139363095164299,0.14393658936023712,0.16050735116004944,0.010509181767702103,0.05026179924607277,-0.06628705561161041,0.1634354591369629,0.08271601051092148,-0.5148142576217651,-0.14978069067001343,-0.17517361044883728,0.1440601646900177,0.43104228377342224,-0.15980608761310577,-0.1667541116476059,-0.042304832488298416,-0.01078503392636776,-0.15668123960494995,-0.28163954615592957,-0.07675570994615555,-0.05702049285173416,-0.48820894956588745,-0.13606782257556915,-0.12501221895217896,0.45211997628211975,0.06142084673047066,0.3839276134967804,-0.18178191781044006,-0.1590929925441742,0.12598566710948944,-0.01780799590051174,-0.06961491703987122,-0.3855172395706177,0.02288471907377243,0.2290908396244049,-0.05145283415913582,-0.09531059116125107,0.190056711435318,0.14967817068099976,-0.12429848313331604,0.14295150339603424,0.10128753632307053,-0.05652701482176781,-0.217049703001976,0.19212263822555542,0.42289021611213684,-0.05853699892759323,0.12470737844705582,0.3519347310066223,-0.10832278430461884,0.09382989257574081,-0.4571242034435272,0.6350304484367371,0.10426951199769974,0.28773999214172363,0.27794650197029114,-0.04083956032991409,0.05871517211198807,0.010191471315920353,-0.29342955350875854,-0.02037638984620571,0.4288778007030487,0.3682825267314911,-0.11149638891220093,-0.3153972029685974,-0.22930292785167694,-0.05927920341491699,0.0797945037484169,0.587278425693512,-0.20419616997241974,0.02054891735315323,-0.08427038788795471,-0.3819170892238617,-0.10852690041065216,-0.17385172843933105,-0.577582061290741,-0.16174006462097168,0.17052622139453888,0.29759201407432556,-0.0973743125796318,-0.08302415162324905,-0.15863773226737976,0.12490874528884888,-0.2765715420246124,-0.2334703654050827,-0.30170610547065735,-0.19220173358917236,-0.02796499989926815,-0.34650060534477234,0.16694729030132294,-0.1259496659040451,0.11116288602352142,-0.06052253022789955,-0.03248913213610649,-0.21808548271656036,-0.15555503964424133,-0.09902258962392807,0.063316710293293,-0.02331218495965004,-0.0049393996596336365,-0.26358509063720703,0.7249937057495117,-0.056569021195173264,0.168431356549263,-0.14779426157474518,-0.2171516716480255,-0.22343634068965912,0.2615605592727661,0.44136136770248413,0.20368990302085876,-0.022500649094581604,-0.14899705350399017,-0.12336437404155731,0.06914200633764267,-0.36257410049438477,-0.14040492475032806,-0.17871497571468353,-0.04897548630833626,-0.4425830841064453],[0.22135929763317108,-0.26055464148521423,0.09537091106176376,-0.13279493153095245,-0.03564852476119995,0.0016426531365141273,0.14178162813186646,0.14351265132427216,-0.04334602877497673,0.17067275941371918,-0.1990782916545868,0.03863527625799179,0.14065036177635193,0.36031627655029297,-0.371908575296402,-0.07350292801856995,0.03066999465227127,-0.21515390276908875,-0.29926738142967224,-0.3307691812515259,-0.01167997159063816,0.06260250508785248,0.41063326597213745,0.15506194531917572,-0.0038342727348208427,-0.03267170116305351,0.08989455550909042,-0.13252095878124237,0.1653590351343155,-0.37879788875579834,-0.2241162806749344,-0.08134705573320389,-0.08805600553750992,0.07152776420116425,-0.039152033627033234,0.06250893324613571,-0.34551775455474854,0.19747987389564514,0.023912711068987846,0.08131429553031921,-0.19705794751644135,0.08042769134044647,0.3811684250831604,-0.19073368608951569,-0.019092345610260963,-0.21779324114322662,-0.12159960716962814,0.10016082227230072,-0.13810965418815613,0.185310497879982,0.08257368206977844,-0.025559578090906143,-0.3540777564048767,0.2529497742652893,-0.03306956961750984,-0.17707358300685883,-0.35492998361587524,-0.21661165356636047,0.0014126733876764774,-0.46593040227890015,-0.10388638824224472,0.18350043892860413,0.13440780341625214,0.13965627551078796,-0.06346741318702698,-0.15049245953559875,0.1383948028087616,-0.16610491275787354,-0.1307656615972519,-0.11507099121809006,0.10869669914245605,-0.12771713733673096,0.14922648668289185,-0.04649940878152847,-0.07498208433389664,0.3439292311668396,0.14424961805343628,-0.11914905905723572,-0.054514024406671524,-0.3574330806732178,-0.10478269308805466,0.05816817283630371,-0.1220831647515297,-0.11236188560724258,0.15024583041667938,0.008031286299228668,-0.20175567269325256,0.1091926321387291,-0.29295873641967773,-0.18094433844089508,0.09303988516330719,0.11955676972866058,-0.1914627104997635,-0.0321110337972641,0.28986573219299316,0.17817558348178864,-0.11940861493349075,0.08742936700582504,-0.109957754611969,-0.10046767443418503,-0.4140027165412903,0.18043138086795807,0.022430140525102615,0.2871447503566742,-0.14829477667808533,-0.12187350541353226,-0.18996061384677887,-0.06268332898616791,0.010400869883596897,0.008237339556217194,0.07739955931901932,-0.17907436192035675,-0.18794552981853485,-0.2054954618215561,0.318431556224823,0.06209147348999977,0.2801142930984497,0.11639966070652008,-0.09088259190320969,0.062366362661123276,-0.03563548997044563,-0.1701473444700241,-0.10562918335199356,0.03912396356463432,-0.235835462808609,-0.027948949486017227,0.027546687051653862,0.030067311599850655],[0.05455455183982849,0.1402665674686432,-0.16873416304588318,-0.22999349236488342,-0.09996490925550461,-0.020579632371664047,-0.2622406780719757,-0.10236935317516327,-0.1888224333524704,-0.3000907897949219,0.11376860737800598,0.11967001855373383,0.04345899075269699,0.0408087819814682,-0.09652318805456161,0.260734885931015,-0.3121650218963623,-0.1592004895210266,0.24456702172756195,-0.03455816209316254,0.2078339159488678,-0.22542700171470642,-0.10685643553733826,-0.13957148790359497,0.036962661892175674,0.1837814301252365,0.14623816311359406,0.017904026433825493,-0.03170911967754364,-0.10626562684774399,0.19613339006900787,0.26357513666152954,0.043428052216768265,-0.07612383365631104,0.33659669756889343,-0.18918274343013763,0.0665614902973175,0.023372747004032135,0.034261252731084824,0.053344227373600006,0.05597102642059326,-0.1548953354358673,-0.2837810516357422,0.12694893777370453,0.13577648997306824,-0.019124794751405716,-0.006182595156133175,-0.22514986991882324,0.08659210801124573,-0.1732901930809021,-0.24957387149333954,0.2824840545654297,0.02415572479367256,-0.2732517421245575,-0.11178375035524368,0.3413543105125427,0.018865102902054787,0.14921027421951294,-0.24501915276050568,0.255647748708725,0.16144798696041107,-0.1916564404964447,-0.19414298236370087,-0.24079522490501404,0.08209913969039917,0.22236000001430511,-0.09413435310125351,-0.13013114035129547,0.2823023200035095,0.17885345220565796,-0.21711593866348267,-0.016580214723944664,0.02858615666627884,0.1187155619263649,0.3203590512275696,-0.16270683705806732,0.08451073616743088,0.12664243578910828,0.034566041082143784,-0.059579089283943176,0.1543363779783249,-0.17227819561958313,0.3540596663951874,0.0472743846476078,-0.19825711846351624,0.3007420301437378,0.671622633934021,-0.19780370593070984,0.29946136474609375,0.002208862453699112,-0.008366296999156475,-0.018279341980814934,-0.012321298941969872,-0.07097716629505157,0.0896821990609169,-0.2012915015220642,-0.030351052060723305,-0.2035491019487381,0.15928228199481964,0.11136164516210556,0.24149858951568604,-0.2613736093044281,0.3576042950153351,0.23017406463623047,-0.19897395372390747,0.14059966802597046,0.062414512038230896,0.053503476083278656,0.20346510410308838,0.17851829528808594,-0.12463666498661041,-0.13076148927211761,-0.07585007697343826,0.3239140808582306,-0.12345284968614578,0.3332751393318176,0.04742235690355301,-0.05437427759170532,-0.041875358670949936,0.06619153171777725,-0.08002068102359772,0.05146035924553871,-0.4321792721748352,-0.220021054148674,0.02713441476225853,0.38794711232185364,0.04830821976065636,0.007443875074386597],[0.29620519280433655,0.015247224830091,-0.32216185331344604,-0.1245158240199089,0.04069327935576439,0.18779033422470093,-0.03829854726791382,0.15123017132282257,-0.3948656916618347,0.009287809953093529,-0.0488981194794178,-0.12248557806015015,0.21068768203258514,-0.021412517875432968,-0.2626524269580841,0.05735398083925247,-0.02031615749001503,-0.280044823884964,-0.013120172545313835,0.08797110617160797,0.025166567414999008,0.22141940891742706,0.018006019294261932,-0.093898244202137,-0.023381339386105537,0.10485757887363434,-0.08190396428108215,-0.35797905921936035,-0.12156932055950165,-0.08439508080482483,-0.2927009165287018,-0.22558645904064178,-0.12998168170452118,0.4588308334350586,-0.08444975316524506,0.2458523064851761,-0.022204797714948654,-0.22437651455402374,-0.014049538411200047,-0.15350936353206635,-0.017129458487033844,-0.3525174856185913,-0.1652582734823227,0.11790430545806885,-0.02932887151837349,-0.05718092992901802,0.06963324546813965,-0.0478791818022728,-0.05727088078856468,0.04625347629189491,0.17622731626033783,0.15000209212303162,-0.07360920310020447,-0.07927466183900833,0.2653123140335083,0.08909976482391357,-0.07432600110769272,0.31297585368156433,-0.17951244115829468,0.1473471075296402,-0.203566774725914,0.6661539673805237,0.20317421853542328,0.17746677994728088,0.1979248821735382,-0.12665586173534393,-0.1250348836183548,0.25372040271759033,-0.1699657142162323,0.06894578039646149,0.24354301393032074,0.3297218084335327,-0.17247283458709717,-0.3235155940055847,-0.17446233332157135,-0.05386348068714142,0.04437720403075218,0.3672581613063812,0.07648339867591858,0.18908005952835083,0.014732605777680874,-0.1352994441986084,0.07072893530130386,-0.09590696543455124,-0.4541787803173065,0.09838122874498367,-0.0569407120347023,0.3794512450695038,-0.02921179309487343,-0.07610969990491867,-0.3135332465171814,-0.17642493546009064,-0.25691282749176025,-0.26553091406822205,0.023831356316804886,0.1308026760816574,-0.2072947770357132,-0.3563786447048187,0.14462436735630035,-0.15760113298892975,0.052538271993398666,-0.15907897055149078,-0.17751453816890717,-0.36589956283569336,-0.12428930401802063,-0.06558407843112946,0.14355671405792236,-0.1134687066078186,-0.13972732424736023,-0.24321134388446808,0.6842582821846008,-0.11332342773675919,-0.09719597548246384,-0.24447199702262878,-0.011251548305153847,-0.23655572533607483,-0.024879148229956627,0.27794405817985535,0.1982918232679367,-0.18263228237628937,-0.22231897711753845,-0.04836390167474747,0.14599740505218506,-0.21388036012649536,-0.16054317355155945,-0.20546337962150574,0.11591839790344238,-0.369532972574234],[0.34153038263320923,-0.10690059512853622,0.1703818291425705,0.19796843826770782,0.0738653764128685,0.3642577826976776,-0.050850898027420044,0.37937313318252563,0.07351481169462204,-0.02788815274834633,-0.25374549627304077,-0.037555497139692307,0.1182597205042839,-0.014152735471725464,-0.23784609138965607,-0.28854018449783325,0.23551031947135925,-0.2165575623512268,-0.16759048402309418,-0.1324324905872345,-0.2078973799943924,0.3141425549983978,0.3587394058704376,0.1760101616382599,0.4728410243988037,-0.21847593784332275,-0.040059104561805725,-0.1659177541732788,0.12340140342712402,-0.3086283504962921,-0.14529238641262054,0.081252820789814,-0.2061704695224762,0.2689359188079834,0.11485161632299423,0.3272342383861542,-0.22897709906101227,0.3908845782279968,0.24362875521183014,-0.09516020119190216,-0.037672895938158035,-0.08979925513267517,0.03757115826010704,-0.07737551629543304,-0.2765021026134491,-0.46101289987564087,-0.052098993211984634,-0.14702606201171875,-0.028026269748806953,0.28737497329711914,0.24624451994895935,0.020037952810525894,-0.48382067680358887,0.3206392824649811,0.05357024818658829,-0.038944605737924576,-0.1356886923313141,-0.29797232151031494,0.26938173174858093,-0.3526383936405182,-0.36278825998306274,0.4706321060657501,0.02312471717596054,0.25829657912254333,-0.13855215907096863,-0.19490861892700195,0.39538633823394775,0.06170107424259186,-0.3608103394508362,-0.0027817212976515293,0.08178714662790298,-0.26239079236984253,0.4581640958786011,-0.10034455358982086,-0.04526412487030029,0.43776488304138184,-0.048995327204465866,-0.36267945170402527,-0.07518056780099869,-0.5362216234207153,0.08963239192962646,-0.2702344059944153,-0.31823644042015076,-0.09911256283521652,0.20264537632465363,0.1791469156742096,-0.28460797667503357,0.1969902068376541,-0.3435213565826416,-0.13190926611423492,-0.27971306443214417,0.39745983481407166,-0.03293776512145996,-0.26735034584999084,0.3990981876850128,0.061859581619501114,-0.07647161930799484,0.26643526554107666,-0.1766664981842041,0.24325896799564362,-0.2758830785751343,-0.046252135187387466,-0.03576333820819855,-0.08999920636415482,-0.18555045127868652,0.00253727613016963,-0.025598760694265366,-0.05842054262757301,0.17594315111637115,0.07223533093929291,-0.04897163435816765,-0.15230588614940643,0.00743932044133544,-0.43526768684387207,0.2610935866832733,0.013862904161214828,0.3100482225418091,-0.014405966736376286,-0.25015634298324585,0.20856772363185883,0.0570668950676918,-0.27650368213653564,-0.10461709648370743,0.14155100286006927,-0.4312576651573181,0.35684895515441895,-0.1466601938009262,0.1408872753381729],[-0.12552984058856964,0.14941620826721191,-0.22332265973091125,-0.06210456043481827,-0.2380102425813675,-0.05750199034810066,-0.3562454581260681,0.01431465893983841,-0.033852092921733856,-0.10973342508077621,0.2091260403394699,0.1752355992794037,0.20561738312244415,-0.18201249837875366,0.12067045271396637,0.2488177865743637,-0.2950846552848816,-0.06524629145860672,-0.009245555847883224,-0.17294706404209137,0.11123811453580856,-0.18986591696739197,-0.1618003398180008,-0.06270325183868408,0.14080576598644257,0.1245058998465538,0.1437474638223648,-0.2847868800163269,-0.05247393622994423,-0.03920063003897667,0.11082343012094498,0.3254166841506958,0.32186609506607056,-0.1506686508655548,0.2013072669506073,-0.18262718617916107,-0.01587187685072422,-0.015211254358291626,0.17437860369682312,0.14802825450897217,-0.009780707769095898,0.03853372856974602,-0.12924878299236298,0.0015910473885014653,0.05233314633369446,-0.015256600454449654,-0.15383833646774292,-0.12929309904575348,0.2778937518596649,-0.14106787741184235,-0.07332807779312134,0.14795006811618805,0.29111501574516296,-0.22209332883358002,-0.1766575127840042,0.3088727593421936,0.061558932065963745,0.28804096579551697,-0.09803861379623413,0.049514465034008026,0.1040322333574295,-0.37899520993232727,-0.11503419280052185,-0.25879424810409546,0.1183544248342514,-0.022119008004665375,0.061032481491565704,-0.08627042919397354,-0.014515640214085579,-0.018298661336302757,-0.17421045899391174,0.07846857607364655,-0.07288812845945358,0.15524302423000336,0.28871187567710876,-0.11106447875499725,-0.10748688131570816,0.169563889503479,0.10105760395526886,0.08949196338653564,0.06937818229198456,-0.17381219565868378,0.17453624308109283,-0.01334607508033514,-0.27107739448547363,0.31036582589149475,0.5471549034118652,-0.0863676592707634,0.11898142844438553,0.04180724918842316,0.08003602921962738,-0.16977161169052124,-0.011548561044037342,-0.2215699404478073,0.1991039216518402,-0.09963139146566391,0.08103929460048676,-0.10367323458194733,0.16436494886875153,0.14451120793819427,0.348446786403656,-0.12551310658454895,0.20823565125465393,0.24873140454292297,-0.07824355363845825,0.2762988805770874,-0.040241897106170654,0.19937275350093842,0.28562822937965393,0.059959303587675095,-0.07537544518709183,-0.27497944235801697,-0.17324940860271454,0.15574753284454346,-0.16070373356342316,0.2535236179828644,0.0803973451256752,-0.04550523683428764,0.3558958172798157,-0.10647442936897278,0.022075818851590157,0.0328449010848999,-0.30612021684646606,-0.23711295425891876,-0.2312193661928177,0.24113014340400696,0.05475457012653351,-0.05109400302171707],[0.25571370124816895,-0.16948892176151276,-0.33155691623687744,-0.24643734097480774,0.1119433119893074,0.05020369589328766,-0.0005271246773190796,0.022340355440974236,-0.2902541160583496,0.11050517857074738,-0.0565093494951725,-0.1937113106250763,0.16954219341278076,-0.10476753860712051,0.026479950174689293,-0.006136590149253607,-0.08985073119401932,-0.36981096863746643,-0.10213196277618408,0.008425036445260048,-0.06897464394569397,0.06007527559995651,-0.14184966683387756,-0.1399151086807251,-0.02056266926229,-0.044579483568668365,0.061803609132766724,-0.10594894737005234,-0.1255638748407364,-0.009328732267022133,-0.3622435927391052,-0.03813188523054123,0.00926209706813097,0.18546020984649658,-0.01865631341934204,0.010368629358708858,0.034826841205358505,-0.04475019499659538,-0.27269914746284485,-0.056978389620780945,0.10284334421157837,-0.2620465159416199,-0.018708080053329468,0.022552909329533577,-0.1787145882844925,-0.07425834983587265,0.19855044782161713,-0.11969512701034546,-0.058110561221838,0.08553414046764374,0.09853238612413406,0.06183162331581116,-0.005508216097950935,0.11038986593484879,0.3091307282447815,0.07835198938846588,-0.03476050868630409,0.07357731461524963,-0.2464585304260254,0.1185249537229538,-0.25146955251693726,0.7058364748954773,0.2142818570137024,0.18409794569015503,0.31909507513046265,-0.2451590597629547,-0.07799670100212097,-0.07372072339057922,0.012601072899997234,-0.16139529645442963,0.2961859703063965,0.1965164989233017,0.12311924248933792,-0.0803372859954834,0.06286920607089996,-0.15614861249923706,-0.04662557318806648,0.37055879831314087,-0.02078022062778473,0.06339322030544281,-0.045681182295084,-0.058721549808979034,-0.030992887914180756,-0.15696626901626587,-0.3215150833129883,-0.06495437771081924,0.10559026151895523,0.38720107078552246,-0.13104748725891113,-0.046624161303043365,-0.21433067321777344,-0.08515577018260956,-0.28629010915756226,-0.27857688069343567,-0.09086093306541443,-0.12718740105628967,0.026997802779078484,-0.23907072842121124,0.10646079480648041,-0.08104193210601807,-0.09523150324821472,0.008918214589357376,-0.056835949420928955,-0.27800866961479187,-0.10926603525876999,0.19277575612068176,-0.07152324169874191,-0.23748375475406647,-0.1461411565542221,-0.15544535219669342,0.6893618106842041,-0.11329521238803864,0.04189879074692726,-0.011623027734458447,-0.17359042167663574,0.012028646655380726,0.03783775866031647,0.3065352141857147,0.014798834919929504,-0.09636739641427994,-0.3143303394317627,0.16747790575027466,-0.023863088339567184,-0.18698041141033173,0.0030999332666397095,-0.12681850790977478,-0.10465972125530243,-0.18143101036548615],[0.15726660192012787,-0.044155288487672806,0.3102078139781952,0.1297520250082016,0.08343024551868439,0.48255524039268494,-0.7955346703529358,0.4213123917579651,0.4121553301811218,0.213570237159729,0.31783327460289,0.4455054998397827,0.07485966384410858,0.1539064347743988,0.17311438918113708,0.1430242955684662,0.07725248485803604,0.3011457324028015,0.3347204923629761,0.23984847962856293,-0.7656936049461365,0.3024284839630127,-0.07878800481557846,0.25922223925590515,0.575148344039917,-0.1366572231054306,-0.016862792894244194,-0.3833003640174866,0.14296311140060425,0.1451062113046646,-0.4600590169429779,-0.2425214797258377,-0.06796418875455856,-0.06447435915470123,0.5495187044143677,0.02122441492974758,0.5336617827415466,0.38800129294395447,0.5604392886161804,0.09332588315010071,0.33471202850341797,0.029641196131706238,-0.2136155664920807,-0.32938772439956665,-0.4748775362968445,-0.3367459177970886,-0.0649251937866211,-0.5779858231544495,-0.12037773430347443,-0.06510921567678452,0.34438973665237427,-0.04868725314736366,-0.09526323527097702,-0.5808640122413635,0.030230265110731125,0.051105573773384094,-0.29204127192497253,-0.2526213526725769,-0.2721717059612274,-0.30239999294281006,0.25024059414863586,0.27149882912635803,-0.7528442740440369,0.30832549929618835,-0.3558841049671173,0.09832900017499924,0.5093582272529602,0.583967924118042,0.15437424182891846,0.45418882369995117,-0.107389897108078,-0.5162503719329834,0.49037036299705505,0.12631133198738098,-0.050880830734968185,0.5562015771865845,0.08206851035356522,0.0375029593706131,-0.04710652306675911,-0.5198236107826233,0.07003117352724075,-0.8318796753883362,-0.1494765281677246,-0.39214852452278137,0.2750554382801056,0.11052002757787704,-0.22227270901203156,0.39977893233299255,-0.14079532027244568,-0.1659984141588211,0.1484614461660385,0.38964906334877014,0.3771519362926483,-0.2500445544719696,0.21385252475738525,0.04435305297374725,-0.16886292397975922,0.5525064468383789,0.2662941515445709,0.6853129863739014,-0.06282126903533936,-0.650998055934906,-0.04685266688466072,-0.09608551114797592,-0.49846789240837097,0.2745262086391449,0.15781886875629425,-0.01105243619531393,-0.06536906957626343,0.7831229567527771,-0.3014969825744629,-0.5545504093170166,0.18759700655937195,0.11445694416761398,-0.36337676644325256,0.21490302681922913,0.6219364404678345,0.1884191483259201,-0.6708555817604065,-0.3799944818019867,0.1757729947566986,-0.47196081280708313,-0.39072540402412415,0.20715700089931488,-0.6793454885482788,0.3029986321926117,-0.11731229722499847,0.6920377016067505],[0.16408054530620575,-0.08086506277322769,-0.3363054394721985,-0.008752789348363876,-0.209102600812912,-0.17354635894298553,-0.2263907939195633,-0.010017098858952522,-0.14025922119617462,-0.35748597979545593,0.062017373740673065,0.23755010962486267,0.09032401442527771,-0.015609245747327805,0.2106325328350067,0.42731672525405884,-0.3511873185634613,-0.20565980672836304,0.06727336347103119,-0.17064926028251648,-0.033070433884859085,-0.36953407526016235,0.007194641977548599,0.03473132103681564,0.16399763524532318,0.31088799238204956,0.22156240046024323,-0.2646433413028717,-0.0967322438955307,-0.11326336115598679,0.08308738470077515,0.3061746060848236,0.06087140738964081,0.011762301437556744,0.02918379008769989,0.041153497993946075,0.04111950471997261,0.08244059979915619,0.21623969078063965,0.20580053329467773,0.0732467770576477,-0.12623006105422974,-0.212425097823143,0.12495463341474533,0.36005058884620667,-0.14757423102855682,-0.1234380230307579,-0.01685013622045517,0.17439012229442596,-0.021893123164772987,-0.2612411379814148,0.28143030405044556,0.2510996460914612,-0.1728527545928955,-0.1858827918767929,0.02751190960407257,-0.0481027215719223,0.26326504349708557,-0.09081760048866272,0.03160645440220833,0.06692905724048615,-0.09375087171792984,-0.17930656671524048,-0.2913379967212677,0.0726974606513977,0.19838948547840118,0.06532055139541626,-0.005536753684282303,0.049289520829916,0.15202279388904572,-0.29514917731285095,-0.018390540033578873,-0.03586945682764053,0.10218256711959839,0.14904716610908508,-0.06837036460638046,-0.07505665719509125,0.3691744804382324,0.14734777808189392,-0.03974396362900734,0.09626077860593796,-0.2594810128211975,0.2551535367965698,-0.07926300168037415,-0.18415462970733643,0.2081393599510193,0.5552961826324463,-0.09306063503026962,0.07655264437198639,-0.16607144474983215,0.07193614542484283,-0.28481605648994446,-0.12818749248981476,-0.2395535111427307,0.21573273837566376,-0.224971204996109,0.188624769449234,-0.12382512539625168,0.38094666600227356,0.11031399667263031,0.18351401388645172,0.011057632975280285,0.21747882664203644,0.30880916118621826,-0.20261788368225098,0.10616401582956314,-0.0020428297575563192,0.37845560908317566,0.22559119760990143,0.09187491238117218,-0.07112324982881546,-0.39295417070388794,-0.12480411678552628,0.13922561705112457,0.03168054670095444,0.2523423731327057,0.02509053610265255,-0.014331934042274952,0.2479836791753769,-0.16327235102653503,-0.006264202296733856,0.15237902104854584,-0.13197869062423706,0.05338965356349945,-0.36948275566101074,0.33291566371917725,0.16694308817386627,0.23302751779556274],[0.156791090965271,-0.23898401856422424,-0.3138843774795532,-0.1357833445072174,0.0011693908600136638,0.19234296679496765,0.12778368592262268,0.028432542458176613,-0.4420011341571808,0.1335345059633255,-0.09900026023387909,0.023092951625585556,-0.09813014417886734,0.020329291000962257,-0.27676862478256226,0.17807495594024658,-0.0473642461001873,-0.08369510620832443,-0.025462498888373375,-0.06790848076343536,0.12841124832630157,-0.15598821640014648,-0.15631546080112457,-0.1836058646440506,0.037786535918712616,-0.2504710853099823,0.028699783608317375,-0.10386856645345688,-0.1389910727739334,-0.1753103882074356,-0.27207067608833313,-0.16025084257125854,-0.1416272521018982,0.031096013262867928,0.027632897719740868,0.12860246002674103,-0.09632942825555801,-0.12132496386766434,-0.15263931453227997,0.06205926835536957,-0.00544466357678175,-0.18295970559120178,-0.22428950667381287,0.12201758474111557,-0.1155986487865448,0.09653683006763458,0.10240861028432846,0.08641157299280167,-0.19331355392932892,0.08793420344591141,0.048093438148498535,-0.16110731661319733,-0.07868759334087372,0.17370015382766724,0.24500329792499542,-0.056085191667079926,-0.02698141150176525,-0.016167066991329193,0.017738375812768936,-0.026477865874767303,-0.22755320370197296,0.4733254611492157,-0.033719807863235474,0.03979219123721123,0.11395791918039322,-0.1094726175069809,0.041220467537641525,0.06305643171072006,0.08806852996349335,-0.1771058589220047,0.12860441207885742,0.17021001875400543,-0.13473771512508392,-0.04389214888215065,-0.023681359365582466,-0.08349113911390305,0.052634745836257935,0.28302115201950073,-0.091665118932724,0.014107185415923595,0.13603265583515167,-0.020256955176591873,0.019378427416086197,-0.21071717143058777,-0.40241506695747375,-0.20183999836444855,0.08794283866882324,0.2869910001754761,0.08911328762769699,-0.14311833679676056,-0.2938872277736664,-0.12740781903266907,-0.3790643513202667,-0.05930359661579132,-0.019153650850057602,0.07199128717184067,0.033561475574970245,0.027344493195414543,0.13822153210639954,-0.09825270622968674,-0.06948255747556686,-0.017874080687761307,-0.20027640461921692,-0.13895638287067413,-0.17280089855194092,0.11669206619262695,-0.10696481168270111,0.03443590924143791,-0.1216307282447815,-0.0029918188229203224,0.7168498635292053,0.017463326454162598,0.10967721790075302,-0.21272508800029755,-0.10591275990009308,-0.08357783406972885,-0.1513979285955429,0.06021934747695923,0.08218147605657578,0.09535620361566544,-0.2576334774494171,-0.015192999504506588,0.05518389865756035,-0.2224973440170288,-0.08951088786125183,-0.315964937210083,0.03957616537809372,-0.24994820356369019],[0.1607682704925537,0.08557478338479996,0.10858340561389923,0.3279803991317749,-0.3400123119354248,0.1295435130596161,0.07376506924629211,-0.034319035708904266,-0.06537710875272751,0.35953444242477417,0.14164981245994568,0.0821329727768898,-0.06324972212314606,0.160666361451149,-0.04409164562821388,0.011006966233253479,-0.15262958407402039,-0.1987547129392624,-0.2086864858865738,-0.05199321359395981,0.15850111842155457,0.1660834550857544,0.14538602530956268,-0.14403073489665985,0.14683139324188232,0.17344439029693604,-0.018745962530374527,-0.10520047694444656,0.16025443375110626,-0.14898958802223206,-0.1889054924249649,0.02802516333758831,0.0820026695728302,0.05463613569736481,-0.1883394718170166,-0.07835720479488373,-0.0019375134725123644,0.15628688037395477,0.0095670772716403,0.21240973472595215,-0.05053121596574783,-0.08946231752634048,-0.07083190977573395,0.07014825195074081,-0.04367511346936226,-0.07799352705478668,-0.042350489646196365,-0.07537748664617538,-0.10469945520162582,0.07482489943504333,-0.09328063577413559,0.01854456216096878,-0.15230613946914673,-0.039467670023441315,0.036680396646261215,-0.002168594626709819,0.1236831396818161,0.10649722069501877,-0.10002100467681885,-0.1318824142217636,-0.245964914560318,0.24611449241638184,-0.1495770514011383,0.054760996252298355,0.059852030128240585,0.027394184842705727,-0.09371379762887955,0.044059813022613525,-0.14093539118766785,0.03512997180223465,0.25452589988708496,-0.06482184678316116,0.014373538084328175,0.011329421773552895,0.020571904256939888,-0.17990052700042725,-0.17684413492679596,-0.19563055038452148,-0.08052827417850494,-0.02467980794608593,0.04873025789856911,-0.1123981773853302,0.0038110872264951468,0.14627797901630402,-0.29821330308914185,-0.22044087946414948,-0.2280873954296112,-0.19302809238433838,-0.030490515753626823,0.019631223753094673,0.0005883025005459785,-0.174845889210701,0.08361009508371353,-0.04974871128797531,0.0037521235644817352,0.3226940631866455,-0.02410588599741459,0.006779457442462444,-0.13503850996494293,-0.04342474043369293,0.11598914861679077,0.2495063692331314,0.14417357742786407,0.12567880749702454,-0.34993302822113037,0.19102437794208527,0.07178210467100143,0.037749387323856354,-0.2175067514181137,-0.034506164491176605,0.01714998111128807,-0.1523648351430893,-0.2686980068683624,0.027837295085191727,-0.19311396777629852,-0.10843698680400848,0.023927193135023117,0.4391423761844635,0.09135061502456665,-0.1757069081068039,-0.04811256006360054,0.22882938385009766,-0.008811606094241142,0.13908620178699493,-0.20824937522411346,-0.15177898108959198,0.020812874659895897,0.18698808550834656],[-0.0116202924400568,0.09467384219169617,-0.12666401267051697,-0.3058502674102783,-0.08610523492097855,0.07328009605407715,-0.07683917880058289,-0.12776605784893036,-0.16529859602451324,-0.10604799538850784,-0.00597792025655508,-0.028490714728832245,-0.03457232564687729,0.05323629453778267,-0.21033106744289398,-0.14083267748355865,-0.11493594944477081,-0.3532100319862366,0.08343187719583511,-0.101890429854393,0.06464283168315887,-0.07755063474178314,0.27355727553367615,0.03175456449389458,0.09626293182373047,0.019633695483207703,-0.014515840448439121,-0.2223619520664215,-0.07269760221242905,-0.20402011275291443,0.09315954893827438,0.2502094805240631,0.0009515291312709451,0.0851825550198555,-0.0733775720000267,-0.11867181211709976,-0.06011291220784187,-0.13342376053333282,0.020243607461452484,-0.01549855712801218,0.014852853491902351,-0.13435840606689453,0.1297115683555603,0.0745803490281105,-0.13382017612457275,-0.16212931275367737,-0.02910073846578598,-0.14708107709884644,-0.22711682319641113,-0.009692240506410599,0.11443369090557098,0.012380939908325672,-0.10266587883234024,0.0725954994559288,0.14859631657600403,0.24941083788871765,0.0023550440091639757,-0.11110322922468185,0.030154334381222725,-0.031060609966516495,-0.09812109917402267,-0.171575665473938,0.11365040391683578,-0.06916588544845581,0.0010021700290963054,-0.06958437711000443,0.08137504011392593,-0.08401449024677277,0.021000318229198456,0.027745984494686127,-0.05217140167951584,0.04924656078219414,-0.08699609339237213,-0.08956184983253479,0.07604167610406876,0.026724472641944885,0.05692929029464722,-0.2454153299331665,-0.13262608647346497,-0.1809234917163849,0.23592343926429749,-0.20425277948379517,0.011505307629704475,-0.12934251129627228,-0.2075498104095459,0.08015219122171402,0.033743634819984436,0.0062294816598296165,-0.09961342066526413,0.12314756214618683,-0.2899060845375061,-0.09577373415231705,0.04365679994225502,-0.14084890484809875,-0.1885673701763153,-0.1316717118024826,-0.15725986659526825,-0.149993896484375,-0.05740762874484062,-0.11944039165973663,0.05512772500514984,-0.02306903712451458,-0.0584140308201313,-0.022442085668444633,-0.02873147651553154,0.05177204683423042,0.10730938613414764,-0.24287797510623932,-0.031412310898303986,-0.13939137756824493,0.027156606316566467,-0.2317051738500595,-0.051596276462078094,0.09135037660598755,0.23313245177268982,0.04148826003074646,0.1114187091588974,0.08344627916812897,0.1625737100839615,0.057512570172548294,-0.15682828426361084,-0.14498142898082733,-0.15846820175647736,-0.10539315640926361,-0.159097820520401,-0.04425683990120888,0.0471089631319046,-0.06786540150642395],[0.0019565222319215536,0.3527984917163849,-0.167353093624115,-0.1279120296239853,-0.1309937685728073,0.18075336515903473,-0.12082739919424057,0.09435172379016876,0.26118701696395874,-0.09929485619068146,0.053695499897003174,-0.07612044364213943,0.13959930837154388,-0.0719926655292511,0.2386789619922638,0.16925936937332153,0.17046049237251282,0.5012306571006775,-0.05351052060723305,0.47429943084716797,0.048851802945137024,0.2718454897403717,-0.11961507052183151,-0.30498698353767395,-0.3140645921230316,-0.09245726466178894,-0.16800962388515472,0.27426567673683167,-0.19590462744235992,0.2081066370010376,-0.3007555305957794,0.11452266573905945,-0.0048571075312793255,-0.393499493598938,0.004659347236156464,-0.35783979296684265,0.3489702045917511,-0.23977306485176086,0.06906727701425552,-0.11449045687913895,0.14873667061328888,-0.25028106570243835,-0.10857533663511276,0.020890068262815475,-0.2573234438896179,0.2791881263256073,0.1783626675605774,0.2316088229417801,-0.019367482513189316,-0.06867963075637817,0.056153830140829086,0.060455046594142914,0.12282136082649231,-0.07198327034711838,0.2262658327817917,0.06591925024986267,-0.11590909957885742,0.18492165207862854,-0.2021341472864151,0.23190942406654358,-0.010934141464531422,0.4804646074771881,-0.11895110458135605,-0.2681818902492523,0.019178422167897224,-0.10181187093257904,-0.14837972819805145,0.48427414894104004,0.3725195825099945,0.15736769139766693,-0.2419613152742386,-0.08021944761276245,-0.23752477765083313,0.04116513580083847,-0.07747504115104675,-0.5222843289375305,0.13466143608093262,-0.14782999455928802,-0.25744926929473877,0.28391343355178833,0.02633022330701351,-0.04109303280711174,0.32349294424057007,-0.22387343645095825,0.007285095751285553,-0.2373736947774887,-0.16727283596992493,0.016634400933980942,0.200425922870636,0.20275935530662537,-0.06839882582426071,-0.05868258327245712,0.389789879322052,0.21972373127937317,-0.16891932487487793,0.09834536910057068,-0.11786739528179169,-0.34279748797416687,-0.01061699166893959,0.25534456968307495,0.19208194315433502,-0.20141789317131042,0.2485935240983963,-0.3837950825691223,-0.14258898794651031,-0.03315848857164383,0.047353874891996384,-0.1828216165304184,-0.317298024892807,-0.24192053079605103,0.34024375677108765,-0.09000112861394882,0.007058622315526009,0.45075610280036926,-0.06076834350824356,-0.14119106531143188,-0.13879847526550293,0.3539734184741974,-0.04528198018670082,-0.1714419573545456,-0.1784331500530243,0.13438673317432404,0.2259877622127533,-0.36697718501091003,0.281272292137146,-0.20308411121368408,-0.37302225828170776,0.022476408630609512],[0.10780154168605804,0.03526650741696358,0.15132559835910797,0.04929293692111969,-0.0810171589255333,0.11984144896268845,0.1693071722984314,-0.274525910615921,-0.08158142864704132,0.22455854713916779,0.06994786858558655,0.02998695708811283,0.1369556039571762,0.38325223326683044,-0.10713333636522293,0.22775982320308685,-0.18867936730384827,-0.07916073501110077,-0.357967734336853,0.007511100731790066,0.22859087586402893,0.16703152656555176,-0.1445210874080658,-0.1764414757490158,-0.22233030200004578,-0.10233302414417267,-0.16439247131347656,-0.03408563509583473,-0.013107235543429852,-0.1660882532596588,-0.07994638383388519,-0.0036622872576117516,-0.038051195442676544,-0.035560328513383865,-0.17893651127815247,-0.12768155336380005,0.09075994044542313,0.18923479318618774,-0.06338546425104141,0.17245380580425262,0.038463495671749115,-0.2293219119310379,0.15710625052452087,0.09501724690198898,-0.03653378784656525,-0.004213424865156412,-0.2448609173297882,-0.14042554795742035,0.1047448068857193,0.17745421826839447,-0.11943686753511429,-0.05468980595469475,0.016971474513411522,0.1230643093585968,-0.008245309814810753,-0.07254846394062042,-0.21870717406272888,0.05218077078461647,0.14488106966018677,0.03426046296954155,-0.16386345028877258,0.25211313366889954,0.03403116390109062,-0.2642298638820648,0.04027693718671799,0.12795157730579376,-0.36045488715171814,0.1297425925731659,-0.08620581775903702,0.12633013725280762,0.1393016278743744,0.2132374495267868,0.09647036343812943,0.22328366339206696,-0.016311056911945343,-0.08086391538381577,0.06856540590524673,-0.27202746272087097,0.08966836333274841,-0.08411421626806259,0.0741925984621048,0.045731790363788605,0.15354867279529572,-0.050749097019433975,-0.07040634006261826,-0.06506755203008652,-0.12569673359394073,-0.18605592846870422,-0.04118964821100235,0.027269309386610985,0.06913566589355469,-0.19315201044082642,0.15266762673854828,-0.17672860622406006,0.10695729404687881,0.11408012360334396,-0.05184148624539375,-0.00966227613389492,0.20842674374580383,0.16143180429935455,-0.14405593276023865,0.013120717369019985,0.3223572373390198,0.22918568551540375,-0.5148910284042358,-0.0023764590732753277,0.24966281652450562,0.015771854668855667,0.006701588165014982,-0.07032104581594467,-0.0853416919708252,-0.002845467533916235,-0.3004795014858246,0.10353566706180573,-0.07154545187950134,-0.06612483412027359,-0.1300446093082428,0.23208658397197723,0.16894672811031342,0.007074659690260887,0.04028406739234924,0.010918465442955494,0.09286060184240341,0.18704204261302948,-0.17386414110660553,0.054437603801488876,0.03157031163573265,0.12718504667282104],[-0.053745873272418976,0.0029279873706400394,0.00771926436573267,0.06194380298256874,-0.14436385035514832,-0.02867271937429905,-0.3259488344192505,-0.24853026866912842,-0.04617474973201752,-0.15982498228549957,0.07246347516775131,0.03455395624041557,-0.06890543550252914,-0.1021638885140419,-0.006406967993825674,-0.024406371638178825,-0.22562749683856964,-0.11521687358617783,-0.044067174196243286,0.0163777694106102,-0.12192001938819885,-0.21940824389457703,-0.09126891940832138,0.06176741048693657,0.12529918551445007,0.2793031930923462,-0.04568023234605789,-0.12354610115289688,0.11004786193370819,0.09842189401388168,-0.035497263073921204,0.24288593232631683,0.20325450599193573,-0.0664680227637291,-0.07657581567764282,-0.183906689286232,0.12945011258125305,-0.08630543202161789,0.03979971259832382,-0.12130829691886902,-0.17350326478481293,-0.19256314635276794,-0.05138295888900757,0.13834884762763977,-0.0962618961930275,-0.060209859162569046,-0.009125955402851105,0.0380551815032959,0.19604338705539703,-0.17234908044338226,-0.03952848166227341,0.2908506393432617,0.015135801397264004,-0.30066630244255066,-0.09904893487691879,0.39912280440330505,0.14363358914852142,0.12208906561136246,-0.13997063040733337,0.24431905150413513,-0.01827511563897133,-0.05443580821156502,-0.08421865105628967,0.09903192520141602,-0.13336245715618134,0.04808756336569786,0.027269970625638962,0.051900334656238556,0.035930849611759186,0.08201132714748383,-0.04753873497247696,0.14195497334003448,-0.026539433747529984,0.1762840449810028,0.2716986835002899,-0.2710251808166504,0.07016341388225555,-0.03730624169111252,0.0769745334982872,0.12095139920711517,0.2312477082014084,-0.15360482037067413,-0.18245545029640198,0.1861998438835144,-0.3237784504890442,0.20484451949596405,0.08665255457162857,0.07911830395460129,-0.16028819978237152,-0.1397009640932083,-0.21546576917171478,-0.051166899502277374,-0.18980205059051514,-0.07609177380800247,0.12825867533683777,-0.13912349939346313,-0.24346695840358734,-0.12133852392435074,-0.012352879159152508,0.06393332034349442,-0.08011816442012787,-0.12358728051185608,-0.24993376433849335,-0.14744454622268677,-0.0757480338215828,-0.0876752957701683,-0.010778695344924927,-0.041151173412799835,0.268062949180603,0.11727135628461838,-0.10656975209712982,-0.01752682402729988,0.07715482264757156,0.10409929603338242,-0.27241459488868713,0.03633193299174309,-0.10875905305147171,0.006964983884245157,0.033759962767362595,-0.00963621400296688,-0.06180823594331741,0.06420119851827621,0.055135369300842285,-0.11632280051708221,0.16476276516914368,-0.00485135056078434,0.1507357358932495,-0.10049678385257721],[0.1453976184129715,0.056073062121868134,-0.19290722906589508,0.03832027688622475,0.09227310866117477,0.13695481419563293,0.08035125583410263,0.02591748535633087,-0.15469884872436523,-0.1203472837805748,0.09595611691474915,-0.019328124821186066,-0.08063683658838272,-0.2490428239107132,-0.005973563529551029,0.3139280676841736,-0.08078652620315552,0.20195160806179047,-0.02449098601937294,0.22170402109622955,-0.26773911714553833,0.15948964655399323,-0.08495979756116867,-0.35800352692604065,-0.32833483815193176,-0.06324222683906555,-0.018343862146139145,0.2151152640581131,-0.09576065838336945,0.20822757482528687,-0.28493431210517883,0.006612163968384266,0.023946668952703476,-0.018539462238550186,0.170614555478096,-0.022979984059929848,0.04968247935175896,-0.04106057435274124,-0.15074875950813293,0.007651397958397865,0.21862664818763733,-0.23361168801784515,-0.11448568850755692,-0.1243252083659172,-0.04758134111762047,0.05515715479850769,0.05243419110774994,-0.036050666123628616,0.005005241837352514,-0.10009875148534775,-0.03252960368990898,0.06234999746084213,0.07119037955999374,-0.006953729782253504,0.11442270129919052,0.11932309716939926,0.056628912687301636,0.025302115827798843,-0.15521763265132904,0.22850078344345093,0.01279168389737606,0.4933605492115021,0.05612717941403389,0.01896781288087368,0.03530120104551315,0.04315163940191269,-0.006871289107948542,0.21726621687412262,0.31392765045166016,0.041551221162080765,-0.12163467705249786,-0.06508106738328934,-0.19853606820106506,-0.08622804284095764,-0.005074685905128717,-0.3752610683441162,-0.029997803270816803,-0.06983955949544907,-0.01639612577855587,0.1466161161661148,-0.041090335696935654,-0.09931576251983643,0.15192988514900208,-0.3339049518108368,-0.10212528705596924,-0.305851548910141,-0.0835578590631485,-0.06546367704868317,-0.001180055201984942,-0.08111099898815155,-0.1800338625907898,-0.10054537653923035,0.048579007387161255,0.17861993610858917,-0.13656120002269745,-0.1829783171415329,-0.2694062292575836,-0.2054809182882309,-0.0578569658100605,0.07504518330097198,-0.11145687848329544,-0.22926904261112213,-0.07324366271495819,-0.1207529827952385,0.11297529190778732,-0.21561096608638763,-0.06767155975103378,-0.1152532622218132,-0.22712795436382294,-0.1676185131072998,0.6769095063209534,-0.08680721372365952,0.04363798350095749,0.08475086838006973,0.0011601255973801017,-0.15280123054981232,-0.027706099674105644,0.21914705634117126,-0.31116342544555664,-0.062190234661102295,-0.2790858745574951,0.04315972328186035,0.1716979295015335,-0.07992523163557053,0.07585841417312622,-0.05630078911781311,0.00005658721784129739,-0.2464393824338913],[0.15447749197483063,-0.06183532997965813,0.17302048206329346,0.07478439062833786,-0.013384518213570118,0.2465677559375763,0.1290356069803238,0.016913557425141335,0.0004408686945680529,0.277349054813385,0.31505292654037476,0.26075389981269836,0.31540054082870483,0.32413145899772644,-0.048193175345659256,0.22101880609989166,0.0571269728243351,-0.15895168483257294,-0.04513708874583244,0.06121049448847771,0.0682203471660614,0.3724604845046997,0.0073651764541864395,-0.49911609292030334,-0.5008406043052673,-0.07814428955316544,0.15846127271652222,-0.12845896184444427,-0.2173553705215454,-0.06109916418790817,-0.11428658664226532,-0.05019094794988632,-0.04601947218179703,-0.1070026159286499,0.014764602296054363,-0.3309522569179535,0.25294414162635803,0.22287407517433167,-0.09685450047254562,0.10319234430789948,-0.14136476814746857,-0.27726784348487854,0.00446736253798008,0.00047587137669324875,-0.12167856097221375,-0.09405625611543655,-0.20331397652626038,-0.012660915032029152,-0.1693480908870697,-0.0020449769217520952,0.02951224148273468,0.05240115150809288,0.042626820504665375,-0.13657020032405853,-0.011057326570153236,0.0019200921524316072,-0.168450266122818,0.28373274207115173,-0.11424515396356583,0.14229489862918854,-0.269827276468277,0.044062498956918716,-0.09089451283216476,0.04264263063669205,-0.20243999361991882,-0.056102924048900604,-0.25771304965019226,0.1410396844148636,-0.27518656849861145,0.3017127811908722,0.1273895800113678,0.10074698179960251,0.008236456662416458,0.24420730769634247,-0.07474996149539948,-0.10793232917785645,-0.009189534932374954,-0.3250875473022461,0.15195973217487335,0.15766745805740356,-0.15755479037761688,-0.17658968269824982,0.22306036949157715,-0.0477110855281353,-0.06342373043298721,-0.04057148098945618,-0.3457764983177185,-0.12352748215198517,0.04267023876309395,-0.12882427871227264,0.11667982488870621,-0.32239800691604614,0.4160836637020111,-0.006555006839334965,0.3973264694213867,0.11152566969394684,-0.3028891980648041,-0.19069840013980865,-0.037526510655879974,0.16386650502681732,-0.017450831830501556,0.0039265644736588,0.09749899059534073,0.19350279867649078,-0.4764127731323242,0.03408685326576233,0.07514229416847229,-0.056693822145462036,-0.12593474984169006,-0.19663919508457184,0.01882239431142807,-0.049863751977682114,0.019329149276018143,0.15757174789905548,-0.06582880020141602,-0.2810170352458954,-0.2497350126504898,-0.026243969798088074,0.06666993349790573,-0.011113956570625305,-0.04357767105102539,-0.08693698793649673,0.03017004206776619,0.044645119458436966,0.04628671705722809,0.2526285648345947,0.31730005145072937,0.1822805404663086],[-0.38928624987602234,-0.020881077274680138,-0.05624398589134216,0.17648698389530182,0.11970687657594681,-0.11563187837600708,-0.004242813680320978,-0.22177818417549133,0.2540633976459503,-0.16481934487819672,0.16525518894195557,-0.015383314341306686,-0.25232040882110596,0.011839798651635647,0.09097970277070999,-0.054653350263834,-0.136874720454216,-0.12142268568277359,-0.08299580961465836,0.07244781404733658,-0.15374723076820374,-0.18026438355445862,-0.30373090505599976,0.23561392724514008,-0.10819258540868759,0.2711254954338074,0.10844738781452179,-0.09213931113481522,0.09465957432985306,0.1763337105512619,-0.2590152323246002,0.23170632123947144,0.09791845083236694,0.2583012282848358,0.1953129917383194,-0.06993699818849564,0.19017213582992554,-0.08428797125816345,-0.2305198311805725,-0.21715499460697174,-0.09883551299571991,0.20951664447784424,0.19552107155323029,-0.21839982271194458,-0.32379016280174255,-0.24733297526836395,0.29083311557769775,0.12298093736171722,0.21074193716049194,-0.21267376840114594,0.09200267493724823,0.32058775424957275,-0.02553369849920273,0.031662046909332275,-0.05496589094400406,0.27657151222229004,0.34779438376426697,0.21003490686416626,-0.10449565201997757,0.1378210335969925,-0.05338412895798683,0.061281394213438034,-0.05108809471130371,0.22657470405101776,-0.13974517583847046,0.2372458428144455,0.17575857043266296,0.013756047002971172,0.3513740301132202,0.13379445672035217,-0.05683046951889992,0.1841682642698288,-0.14984408020973206,0.1979055553674698,0.1779588758945465,-0.23859792947769165,0.19109319150447845,-0.06644599884748459,0.006907402537763119,0.2522910535335541,0.2722878158092499,-0.029895665124058723,-0.1193179190158844,0.07783883064985275,0.18432362377643585,0.14967860281467438,-0.12695105373859406,-0.27198556065559387,-0.05303923785686493,-0.004709418397396803,-0.30538320541381836,-0.033312082290649414,-0.007287801243364811,0.24210284650325775,-0.012837265618145466,-0.10920173674821854,-0.1458035260438919,-0.1516103893518448,-0.14082969725131989,-0.1445402204990387,-0.2021164745092392,-0.005483963061124086,-0.2167232632637024,-0.2144312858581543,0.10514924675226212,-0.3121577799320221,-0.04187127947807312,0.3083992898464203,0.20701824128627777,-0.0624203234910965,-0.12035425007343292,0.07450486719608307,0.2003922164440155,0.17384208738803864,-0.11923981457948685,0.17740364372730255,-0.2184724658727646,-0.17340227961540222,0.044825512915849686,-0.01971564069390297,-0.10803142189979553,0.005734458565711975,0.044929735362529755,-0.010089611634612083,0.20731422305107117,-0.14525432884693146,0.24606582522392273,-0.20127344131469727],[0.1408553123474121,-0.014883799478411674,-0.28752440214157104,-0.0772237628698349,0.08662576973438263,0.09589526802301407,0.20754089951515198,0.021084843203425407,0.05139178782701492,-0.10595148801803589,-0.2591576874256134,-0.23925189673900604,-0.11311506479978561,-0.11758075654506683,-0.267942875623703,-0.056584324687719345,0.2512575387954712,-0.1087137758731842,-0.1631094217300415,0.1473010778427124,-0.22503234446048737,-0.03418929502367973,-0.05917472392320633,0.17954635620117188,-0.3532557189464569,-0.143748939037323,-0.12468381971120834,-0.04545046016573906,-0.168422132730484,-0.14455583691596985,-0.15623018145561218,-0.2347967028617859,-0.015475470572710037,0.002712802030146122,0.07715761661529541,0.038261644542217255,0.2215297669172287,-0.1626172810792923,-0.03716154396533966,-0.2248438596725464,0.049479566514492035,-0.0909431055188179,0.1566588580608368,-0.02472659945487976,-0.251543253660202,0.0010858854511752725,-0.11343567073345184,-0.00433681346476078,0.11874580383300781,-0.043318457901477814,0.0669870600104332,0.04726104810833931,-0.0007160031236708164,0.16586123406887054,0.03705403953790665,-0.08299387246370316,-0.15380847454071045,0.022613905370235443,-0.19530032575130463,-0.08230026066303253,-0.22943167388439178,0.6939915418624878,-0.10971708595752716,0.07968033850193024,-0.09575537592172623,-0.001865665428340435,0.07969024032354355,0.07176913321018219,0.3208531439304352,-0.3126083016395569,0.006540609057992697,0.1766968071460724,-0.11931006610393524,-0.12774822115898132,-0.1679261028766632,-0.15715117752552032,0.06555937975645065,-0.1783197969198227,-0.10870297253131866,-0.04824710637331009,0.07494043558835983,0.021507296711206436,-0.15345574915409088,-0.041979022324085236,0.0773395374417305,-0.08767753094434738,-0.03870834782719612,0.25085487961769104,-0.1229349672794342,0.27382853627204895,-0.23275765776634216,0.17349527776241302,-0.18828138709068298,0.038874369114637375,-0.09716571122407913,-0.05984731763601303,0.05236797779798508,-0.0909472405910492,-0.12082885950803757,0.012939833104610443,-0.055632710456848145,0.03457864746451378,-0.21546673774719238,0.024269159883260727,0.08461924642324448,-0.21320872008800507,-0.18813614547252655,-0.13413375616073608,-0.2501879036426544,-0.24219189584255219,0.7823116183280945,0.11563040316104889,0.05979342386126518,-0.00048078506370075047,-0.0025696090888231993,-0.06760448217391968,0.16262862086296082,0.1918569803237915,0.010144934989511967,0.1341279000043869,-0.07053472846746445,-0.08276014775037766,0.3787855803966522,-0.19566906988620758,-0.040521588176488876,-0.30476853251457214,0.03708091005682945,-0.16993792355060577],[0.016479672864079475,-0.2523871958255768,0.07342604547739029,0.16910523176193237,-0.14231742918491364,0.40333569049835205,-0.2722224295139313,-0.2478199452161789,-0.06978964805603027,0.38089296221733093,0.4241327941417694,0.3205651342868805,0.2927881181240082,0.2612382471561432,-0.11565433442592621,0.08337698876857758,0.21846580505371094,-0.11187365651130676,-0.044328924268484116,0.15779022872447968,-0.033790722489356995,0.41986602544784546,0.07203342020511627,-0.3662244379520416,-0.5054280757904053,-0.22151009738445282,-0.022259270772337914,-0.16434887051582336,-0.1873844861984253,-0.1890084594488144,-0.35558485984802246,-0.05476627126336098,0.07587424665689468,-0.1509036123752594,0.13214290142059326,-0.25331583619117737,0.23413778841495514,0.18980877101421356,-0.11270216107368469,-0.08826369792222977,-0.011112873442471027,-0.3761650025844574,0.12113235890865326,-0.31013524532318115,-0.35787904262542725,-0.15654228627681732,-0.10026976466178894,0.05015645548701286,-0.13661082088947296,0.07603883743286133,-0.025098880752921104,0.002262349473312497,0.0834115594625473,0.1003284901380539,0.2751513719558716,0.043938979506492615,-0.04119965806603432,0.03354993835091591,0.14664322137832642,-0.041724201291799545,-0.27805569767951965,0.24789874255657196,0.2464059293270111,0.07691605389118195,-0.37435290217399597,-0.15975333750247955,-0.07271761447191238,0.2228257805109024,-0.09643532335758209,0.4875054359436035,-0.11518701165914536,0.21290184557437897,-0.06975346058607101,0.14187659323215485,0.03413593769073486,-0.2233206182718277,0.0002831009333021939,-0.3167140483856201,-0.006041835993528366,0.1473660171031952,0.0700477585196495,-0.09237746149301529,0.22300682961940765,-0.0647544264793396,-0.0919620618224144,0.180242657661438,-0.23243334889411926,0.02939571626484394,-0.12574432790279388,-0.13464051485061646,0.005187720526009798,-0.1980724334716797,0.4386272132396698,0.09147308021783829,0.24370615184307098,0.1237616166472435,-0.3433285057544708,-0.3588658273220062,0.025473618879914284,0.20512841641902924,0.04146777093410492,-0.11985322088003159,0.1148282140493393,0.09416366368532181,-0.35163742303848267,-0.05316097289323807,0.2978912889957428,-0.0591622032225132,0.12176011502742767,-0.042973872274160385,-0.10002892464399338,-0.06849940121173859,-0.14663830399513245,0.03254953771829605,0.1878572255373001,-0.5141955018043518,-0.07299811393022537,-0.19811362028121948,0.002987457672134042,0.06184682622551918,-0.28958234190940857,0.07719233632087708,0.0005057547241449356,-0.053993262350559235,-0.20963335037231445,0.28364065289497375,0.19549693167209625,0.03399376943707466],[-0.14514338970184326,-0.21233293414115906,0.07476954162120819,0.01343326922506094,0.23409658670425415,-0.2269562929868698,-0.18029366433620453,-0.2077914923429489,0.10346129536628723,0.017090972512960434,0.06545597314834595,-0.008066720329225063,-0.33825623989105225,-0.10931316763162613,-0.27300626039505005,-0.06115273758769035,0.155665785074234,0.0630616769194603,-0.20658962428569794,0.1723012775182724,-0.266158789396286,-0.12349926680326462,-0.40941405296325684,0.3305411636829376,0.017186986282467842,0.031294938176870346,0.19280971586704254,-0.3284611105918884,0.09657767415046692,0.2573448717594147,-0.29010316729545593,0.21181483566761017,0.11578916013240814,0.39862146973609924,0.11227258294820786,0.18486729264259338,0.023301862180233,-0.08229310810565948,-0.2917676866054535,0.05820676311850548,-0.13836996257305145,0.2652510404586792,0.14767636358737946,-0.19983486831188202,-0.3089762032032013,-0.211359441280365,0.316739559173584,0.21683305501937866,0.1141953244805336,-0.06328889727592468,0.1057887002825737,0.23655059933662415,-0.22016406059265137,-0.09382091462612152,0.165818989276886,0.2617621421813965,0.13427752256393433,0.31645432114601135,-0.05884309485554695,0.09786077588796616,-0.25563329458236694,-0.10066170245409012,0.04530302807688713,0.6261821985244751,-0.15382951498031616,0.09388043731451035,0.23083454370498657,-0.08974587172269821,0.0194557998329401,0.15101487934589386,-0.17596885561943054,0.40956443548202515,-0.0541510283946991,0.17278869450092316,0.2963109314441681,-0.29797786474227905,-0.10890045017004013,-0.2410135716199875,-0.13197001814842224,0.2919143736362457,0.365365594625473,-0.13270902633666992,-0.4507824778556824,0.13178066909313202,0.0941687524318695,0.40300193428993225,-0.1199394017457962,-0.13460178673267365,-0.13986735045909882,0.18432869017124176,-0.4973268508911133,0.188054621219635,-0.125815287232399,0.40676212310791016,-0.04444600269198418,-0.21007443964481354,-0.22483401000499725,-0.18058569729328156,-0.43164095282554626,-0.39523038268089294,-0.34410738945007324,0.07691564410924911,-0.41077694296836853,-0.10149379819631577,0.19319820404052734,-0.49153560400009155,0.009131345897912979,0.10373897850513458,0.5285123586654663,0.11818210035562515,0.09087635576725006,0.4597272276878357,0.2186894416809082,-0.33967283368110657,-0.17316032946109772,-0.09612824767827988,-0.10479186475276947,0.025906575843691826,-0.036993179470300674,0.24285505712032318,-0.16070030629634857,-0.028266752138733864,0.011071578599512577,0.0919678807258606,0.12045305222272873,-0.1250980645418167,0.17476072907447815,-0.22588704526424408],[0.1565743386745453,-0.09385604411363602,-0.3555317223072052,-0.017439618706703186,-0.04681979864835739,0.056101225316524506,0.31224676966667175,-0.019500652328133583,0.05724477767944336,0.07654763013124466,-0.18504776060581207,-0.05725320428609848,-0.2525685429573059,-0.1683843582868576,-0.19266925752162933,-0.2022162675857544,0.06663668155670166,-0.1629026085138321,-0.10972440987825394,-0.008003002032637596,-0.012031693011522293,0.08627399802207947,-0.09523523598909378,0.1902511715888977,-0.1566452980041504,-0.0038715885020792484,-0.05078672990202904,0.01756126806139946,-0.12715084850788116,-0.07809081673622131,-0.3257995545864105,-0.027605723589658737,-0.09234102070331573,0.12868377566337585,0.15933135151863098,0.17526492476463318,0.008991372771561146,-0.11458567529916763,-0.080235555768013,-0.011096172034740448,-0.022411642596125603,0.12695971131324768,0.173444926738739,-0.13213181495666504,-0.15440519154071808,-0.2044055163860321,0.18604987859725952,0.20289556682109833,0.09180208295583725,-0.09296710789203644,0.2894720733165741,-0.009695200249552727,-0.23451179265975952,0.20308877527713776,-0.04850538820028305,-0.03148641064763069,-0.08941039443016052,-0.21309390664100647,0.06711801141500473,0.05248481035232544,-0.29244229197502136,0.7249693870544434,0.13511087000370026,0.017942389473319054,0.23485052585601807,-0.0654800534248352,0.09699612110853195,-0.06495099514722824,0.15340499579906464,-0.4273856282234192,-0.1503973752260208,0.015315876342356205,0.19869257509708405,-0.03694525361061096,-0.1593998670578003,-0.12852729856967926,0.11314595490694046,-0.23640349507331848,-0.037391118705272675,-0.17708532512187958,-0.17223626375198364,-0.008394712582230568,-0.18007893860340118,0.13615469634532928,0.09953194111585617,-0.10577960312366486,-0.1426587700843811,0.1311599463224411,-0.09636516124010086,0.31547677516937256,-0.44472506642341614,0.24755877256393433,-0.11542031913995743,0.08796634525060654,-0.03251724690198898,-0.005983077455312014,-0.07351556420326233,-0.08710602670907974,-0.034704189747571945,-0.04901871085166931,-0.21940983831882477,0.200142040848732,-0.2958161234855652,-0.01645328290760517,-0.05325834080576897,-0.1675986349582672,-0.20449157059192657,-0.1407557874917984,-0.33818620443344116,-0.10156897455453873,0.7027164101600647,0.31864869594573975,-0.11399324983358383,-0.2073441594839096,0.2774246335029602,0.026523353531956673,0.13651017844676971,-0.06883535534143448,-0.2214224934577942,0.015619967132806778,-0.03231256455183029,0.06621786952018738,0.2140444666147232,-0.20962777733802795,0.2544533908367157,-0.2837284505367279,-0.02176872454583645,-0.17790129780769348],[0.08580781519412994,-0.033772729337215424,0.12159451097249985,0.07338625937700272,-0.16614721715450287,-0.057102084159851074,0.09394052624702454,0.057402756065130234,-0.15460644662380219,0.24306921660900116,0.08516215533018112,-0.1357252597808838,-0.09763454645872116,0.17875337600708008,-0.035230156034231186,0.2007705271244049,-0.05665385350584984,-0.23193489015102386,-0.40456244349479675,-0.02827311120927334,0.1700320690870285,0.159964457154274,-0.07235605269670486,-0.1041029691696167,0.12510424852371216,-0.07343532145023346,0.09706739336252213,-0.036069463938474655,-0.06776515394449234,0.04271823540329933,-0.19168640673160553,-0.04205004498362541,-0.12808164954185486,0.03865530341863632,0.03114619106054306,-0.3299848139286041,-0.01850946806371212,-0.023953892290592194,-0.13063013553619385,0.02095329388976097,0.20714686810970306,-0.04290616512298584,-0.038227539509534836,0.0249446090310812,-0.019216885790228844,-0.10117150843143463,-0.25966620445251465,-0.029134586453437805,0.12214232981204987,-0.20541703701019287,-0.07615367323160172,-0.04121905192732811,0.18969330191612244,0.08002033084630966,-0.15313836932182312,0.16262352466583252,-0.1579369306564331,0.1934230625629425,-0.062167104333639145,-0.1915619820356369,-0.18543115258216858,0.04499488323926926,-0.11392774432897568,-0.0076787471771240234,0.1741386204957962,0.09789527952671051,-0.3065059185028076,0.11502466350793839,-0.13321655988693237,0.18320421874523163,0.09970904886722565,0.04437769949436188,-0.06447286903858185,0.14516791701316833,0.07464475929737091,-0.310441792011261,-0.11948009580373764,-0.26508885622024536,-0.02426821179687977,-0.11148224025964737,-0.04242943227291107,0.08690622448921204,-0.031705912202596664,0.0933888778090477,-0.061299193650484085,-0.07908684760332108,-0.4267590045928955,-0.13905175030231476,-0.01772460527718067,0.20720061659812927,0.003394140861928463,-0.3176877796649933,0.27032271027565,-0.04423511400818825,0.0014849319122731686,0.13530364632606506,0.0631115511059761,0.012163967825472355,0.1858588308095932,-0.30949875712394714,0.07141697406768799,0.06929611414670944,0.03428296372294426,-0.12729795277118683,-0.21037964522838593,0.139010488986969,0.14220298826694489,0.14243942499160767,-0.0532284639775753,0.1088264137506485,-0.1997833400964737,0.04206283763051033,-0.06694141775369644,0.05476178601384163,-0.18480215966701508,-0.0996680036187172,0.005924052558839321,0.6479856967926025,0.07083649933338165,-0.18044336140155792,0.005234949756413698,0.11896020174026489,0.07436615973711014,0.08316616714000702,-0.040196895599365234,-0.045493751764297485,0.023019755259156227,0.07351335883140564],[0.0780244916677475,0.06121128425002098,0.09447309374809265,-0.017871292307972908,-0.20949366688728333,0.1382211297750473,-0.08806665241718292,-0.0615200437605381,-0.038349490612745285,-0.11032102257013321,-0.13534663617610931,-0.17130623757839203,-0.12069953978061676,0.026562733575701714,-0.21795271337032318,0.029437275603413582,-0.09815170615911484,-0.22303752601146698,-0.17402175068855286,-0.17987728118896484,0.09513060003519058,-0.024970419704914093,0.12498284876346588,-0.01936446689069271,0.07221774756908417,0.011789754033088684,0.08862041682004929,-0.06581693142652512,0.11155577749013901,-0.1218859851360321,0.021586792543530464,0.152171790599823,0.03279992938041687,0.028263334184885025,-0.11162573844194412,-0.01953444443643093,-0.057909272611141205,-0.0009149622055701911,0.02344297058880329,-0.0031741017010062933,-0.12027812004089355,-0.07496041804552078,0.20257924497127533,0.048435211181640625,0.08940418064594269,-0.1348695009946823,0.023372352123260498,-0.020605701953172684,0.026358047500252724,0.020584257319569588,-0.058691032230854034,0.04024280607700348,-0.25770363211631775,0.009893540292978287,-0.12383983284235,0.21831150352954865,0.13508343696594238,-0.2033904492855072,0.001377833541482687,-0.01556255854666233,-0.10272308439016342,-0.0292225144803524,0.0678701102733612,-0.08274941891431808,0.09944839030504227,0.09496547281742096,-0.1448429971933365,-0.09806359559297562,-0.20385821163654327,-0.18900129199028015,-0.07942759245634079,-0.08877752721309662,0.002966855186969042,-0.18141677975654602,0.07044434547424316,-0.17794764041900635,0.031408749520778656,-0.04314840957522392,-0.17484979331493378,-0.010613388381898403,0.13650086522102356,-0.11170791834592819,-0.07786167412996292,0.13495895266532898,-0.22031773626804352,-0.18670442700386047,0.08604422211647034,-0.12161892652511597,-0.018321992829442024,-0.104054294526577,0.005781490821391344,-0.19303400814533234,-0.06844310462474823,-0.039275992661714554,-0.01151854358613491,0.1242189109325409,-0.05716486647725105,-0.11215955764055252,-0.050650518387556076,-0.21921375393867493,0.03216581419110298,0.13988010585308075,-0.039395954459905624,-0.09113413840532303,0.004461962729692459,-0.07683383673429489,-0.07826291769742966,0.05313277244567871,-0.25874391198158264,0.07871897518634796,0.11050797998905182,-0.15687943994998932,-0.03417879343032837,-0.04411986470222473,0.058573100715875626,-0.05370686948299408,0.029590003192424774,0.11718970537185669,0.07766468822956085,-0.10769256949424744,-0.0780521109700203,-0.013843548484146595,-0.1212378665804863,-0.09127092361450195,-0.2392258495092392,0.009257018566131592,-0.09238816052675247,0.03230369836091995],[0.08647952973842621,0.07968571037054062,-0.1834142506122589,-0.10062870383262634,-0.28015080094337463,0.03070106729865074,0.10289144515991211,-0.015695342794060707,0.25963979959487915,-0.19039571285247803,-0.16531914472579956,-0.29216116666793823,0.16743367910385132,-0.06876970827579498,0.01956498622894287,0.18616972863674164,-0.031083405017852783,0.31255218386650085,-0.041894592344760895,0.3599216341972351,-0.1800498068332672,0.05017397180199623,-0.015799108892679214,-0.3396848142147064,-0.3181065320968628,-0.29645782709121704,-0.09112729877233505,0.2971901595592499,-0.39696797728538513,-0.01565483771264553,-0.047928377985954285,-0.06322333961725235,0.039068274199962616,-0.37859609723091125,-0.10233602672815323,-0.381468802690506,0.4666142761707306,-0.10990599542856216,-0.2481440007686615,0.053277961909770966,0.19750982522964478,-0.09756665676832199,0.09622862935066223,-0.3189459443092346,-0.18329326808452606,0.08733058720827103,-0.01569901406764984,0.21990664303302765,-0.08978009968996048,-0.0956650897860527,-0.17570874094963074,-0.03799773380160332,0.33861181139945984,-0.10241223126649857,0.14538462460041046,-0.052342116832733154,0.006485845893621445,0.12478119134902954,-0.010553296655416489,0.036122072488069534,0.15574972331523895,0.18916015326976776,0.05021810159087181,-0.22032858431339264,-0.1829986423254013,0.012021965347230434,-0.2066533863544464,0.34335845708847046,0.26269444823265076,0.04823806881904602,0.06183476746082306,-0.05270937457680702,-0.2970148026943207,-0.06185600534081459,0.08713268488645554,-0.2500993609428406,-0.1039382815361023,-0.444087415933609,-0.03647121414542198,0.07350150495767593,-0.1383110135793686,0.3113035559654236,-0.023829448968172073,-0.0787118449807167,-0.030660102143883705,-0.030321113765239716,-0.15479211509227753,0.024793585762381554,0.01117905043065548,0.13059012591838837,0.03892350569367409,-0.350702166557312,0.31810516119003296,0.03477993607521057,-0.1585276573896408,-0.0565376915037632,-0.2494582235813141,-0.18071655929088593,-0.009229782968759537,0.2725735604763031,-0.046130165457725525,-0.002781561342999339,0.06226029619574547,0.06834020465612411,-0.019474906846880913,-0.22105325758457184,-0.24661551415920258,-0.0995112881064415,-0.16856154799461365,-0.41135838627815247,0.10282020270824432,-0.15651336312294006,-0.03186066448688507,0.20092375576496124,-0.07294649630784988,-0.21845243871212006,-0.28671935200691223,-0.11656517535448074,-0.3059583306312561,-0.05584343895316124,-0.1771526038646698,-0.0228666290640831,0.49431031942367554,-0.07084459066390991,0.12219841778278351,-0.21408574283123016,-0.23166504502296448,-0.14806334674358368],[-0.23420889675617218,0.14320020377635956,0.009743095375597477,0.14656758308410645,-0.1723957061767578,-0.21704019606113434,0.0462287999689579,0.08868006616830826,-0.10239526629447937,0.11645844578742981,-0.3076036274433136,-0.13190695643424988,-0.18440547585487366,0.1438818871974945,0.29499199986457825,0.18503844738006592,-0.1698092669248581,0.09910498559474945,0.016638198867440224,-0.06282132118940353,0.09539783000946045,-0.10639674961566925,-0.11785764247179031,0.025645755231380463,0.3633936047554016,0.04027390480041504,0.09019767493009567,0.18241336941719055,-0.05773555487394333,0.18291397392749786,0.022543784230947495,-0.06099328771233559,-0.008544017560780048,-0.06090405210852623,0.07998786866664886,-0.31135064363479614,-0.08062909543514252,0.1986401528120041,-0.08500567823648453,0.26498132944107056,0.3254370093345642,-0.23876133561134338,-0.24032534658908844,0.10875024646520615,0.019335579127073288,0.15178294479846954,-0.27329540252685547,-0.24786429107189178,-0.13044023513793945,0.33252638578414917,-0.22607505321502686,0.01749575138092041,0.345043420791626,-0.18284964561462402,-0.18058788776397705,-0.0004617188824340701,-0.18790249526500702,-0.03554549440741539,-0.21329563856124878,0.14133429527282715,0.005552634596824646,0.03295040503144264,-0.11337456852197647,-0.2104470431804657,0.2604183256626129,0.18921828269958496,-0.14348141849040985,0.18535500764846802,-0.21183794736862183,-0.18154838681221008,0.32373201847076416,0.1967674344778061,-0.033195897936820984,0.21665866672992706,-0.14214901626110077,-0.03820262476801872,0.06580800563097,0.058840978890657425,0.09687908738851547,0.013975248672068119,0.16927209496498108,0.29433977603912354,-0.1409463733434677,0.13346770405769348,-0.0349421352148056,-0.05080294609069824,-0.2805260717868805,-0.2671537399291992,0.3887353539466858,-0.0641496330499649,0.2000432014465332,-0.2473679482936859,-0.07650138437747955,-0.13510362803936005,0.18268445134162903,0.34587886929512024,-0.02611164189875126,0.000060348065744619817,-0.126740500330925,-0.32751861214637756,0.10910042375326157,0.2035948485136032,-0.28885069489479065,0.0029327033553272486,0.03191745653748512,0.05325266718864441,-0.19911141693592072,0.09771407395601273,-0.09317374229431152,0.16861146688461304,-0.20572757720947266,0.021952198818325996,0.07792894542217255,0.10118580609560013,-0.29964056611061096,0.02385992556810379,-0.17001381516456604,0.4684680998325348,-0.046188268810510635,-0.24476657807826996,0.001709139789454639,0.31719765067100525,-0.23490458726882935,-0.051050327718257904,0.04691782221198082,-0.23280595242977142,0.24190260469913483,-0.20758019387722015],[-0.1902344822883606,0.063623808324337,0.20848578214645386,0.07521680742502213,-0.082655169069767,-0.2116219401359558,-0.07304402440786362,-0.2985261082649231,-0.1966080218553543,0.14498652517795563,0.1145859807729721,-0.10825545340776443,-0.007133902981877327,0.20106713473796844,0.08544930815696716,-0.15440022945404053,0.03589848801493645,-0.08402178436517715,-0.253694623708725,0.08286163955926895,0.09475330263376236,-0.12663884460926056,-0.016664400696754456,-0.12004658579826355,0.05721842125058174,0.24337932467460632,-0.08977120369672775,0.1436934769153595,0.02440204843878746,-0.06545306742191315,0.10412638634443283,0.25614193081855774,0.32043054699897766,-0.09439705312252045,-0.16098862886428833,-0.2011074423789978,-0.16550298035144806,-0.16063272953033447,-0.05710116773843765,-0.14619190990924835,-0.18879912793636322,0.006683022249490023,-0.08821486681699753,0.11234068870544434,0.055897943675518036,0.09553323686122894,0.19365210831165314,-0.0612851120531559,0.07467582076787949,-0.12401387840509415,-0.09282539784908295,0.33904874324798584,-0.006080959923565388,0.11259540915489197,-0.02138366736471653,0.19130946695804596,-0.10411619395017624,-0.04528656229376793,0.012179532088339329,-0.04628894850611687,0.032792046666145325,0.03989401459693909,0.006561187095940113,-0.2135840505361557,-0.0964433029294014,0.19188256561756134,-0.2629779577255249,-0.09662465006113052,-0.047896623611450195,-0.04861989989876747,-0.170470729470253,-0.2105170637369156,-0.04264061152935028,0.02639009803533554,0.28207486867904663,-0.13811981678009033,0.19133858382701874,-0.03637160733342171,-0.08125539124011993,-0.10391945391893387,0.17618674039840698,0.09550244361162186,0.0934978574514389,0.020116928964853287,0.057764481753110886,-0.10565526783466339,0.010805083438754082,-0.0056494371965527534,-0.035984575748443604,-0.07259473949670792,0.23656323552131653,-0.060572195798158646,0.028381144627928734,-0.05543559417128563,0.15483765304088593,0.00965024158358574,-0.01942094974219799,0.07755769789218903,-0.018170353025197983,-0.102231964468956,-0.05550597235560417,-0.14455008506774902,0.12856169044971466,0.0038930338341742754,0.0461588017642498,0.0015108137158676982,0.07045485824346542,0.21840883791446686,0.06112971901893616,0.029134679585695267,-0.008148560300469398,-0.04930857568979263,-0.14911654591560364,0.05624188482761383,-0.19875429570674896,0.054356493055820465,-0.14242751896381378,-0.18873891234397888,-0.04703100025653839,-0.20479722321033478,0.10844337195158005,0.08114708214998245,-0.03166458383202553,0.148768812417984,-0.015321051701903343,0.0928681418299675,-0.09249935299158096,0.013020842336118221],[0.13475334644317627,-0.0957360714673996,-0.09195766597986221,-0.18879149854183197,-0.18617992103099823,-0.005428667180240154,-0.27505266666412354,0.1748194843530655,0.17965993285179138,-0.20758605003356934,-0.12797299027442932,0.014193079434335232,0.17513303458690643,-0.08383732289075851,0.2516217827796936,0.20539593696594238,-0.16453129053115845,0.07626867294311523,-0.0879272073507309,0.2919114828109741,-0.07074283808469772,0.08270526677370071,-0.1762806922197342,-0.2427787333726883,-0.13825175166130066,0.08588213473558426,-0.18761621415615082,-0.1850726157426834,-0.24204295873641968,-0.11763692647218704,-0.12351566553115845,-0.2223769724369049,0.007301438134163618,-0.2783406972885132,0.27851179242134094,-0.218648299574852,0.08686649799346924,-0.07092349976301193,-0.05410148948431015,-0.11117395758628845,0.03669457137584686,-0.39663010835647583,-0.07476282864809036,-0.08629147708415985,0.0994729995727539,0.2678607404232025,0.015976525843143463,-0.16135230660438538,-0.007314445450901985,-0.13669858872890472,-0.04299148544669151,-0.03568536415696144,0.34940993785858154,-0.346158891916275,-0.21196413040161133,0.13582459092140198,-0.07587310671806335,0.029094962403178215,-0.3593425750732422,0.004012367222458124,0.12944047152996063,0.04652218148112297,-0.26041924953460693,-0.06450385600328445,0.1447049230337143,-0.014973432756960392,0.04195481538772583,0.3149150609970093,0.39254653453826904,0.05530748888850212,-0.06498279422521591,-0.231417715549469,-0.06599241495132446,0.28599849343299866,-0.08011240512132645,-0.15977872908115387,-0.007395989261567593,-0.08862119913101196,-0.07786298543214798,-0.0874985009431839,-0.12969432771205902,-0.09428154677152634,0.17449899017810822,-0.38664665818214417,-0.14319473505020142,-0.0004992458852939308,0.05636224150657654,0.007772474549710751,0.16161175072193146,0.0787964016199112,0.014090051874518394,-0.37741154432296753,0.020983081310987473,-0.12021904438734055,-0.16438433527946472,0.01952803134918213,-0.1331007331609726,-0.1040099561214447,0.05631795898079872,0.3618887960910797,0.06831897050142288,-0.22030939161777496,0.1811542510986328,0.2770897150039673,-0.2745603024959564,0.11315842717885971,-0.1627003699541092,-0.1420743465423584,-0.2721741199493408,-0.08437461405992508,0.10078438371419907,-0.22688379883766174,0.07214964926242828,0.27915987372398376,-0.2172686606645584,-0.01640317030251026,-0.23031893372535706,0.021295206621289253,-0.3365364074707031,-0.26421913504600525,-0.15027335286140442,-0.11924172192811966,0.2128041833639145,-0.2900751829147339,-0.24320083856582642,-0.11850050836801529,-0.17019343376159668,0.10331862419843674],[-0.18370205163955688,0.11794489622116089,-0.22848691046237946,-0.2744320333003998,-0.07930517941713333,-0.42266374826431274,0.017937857657670975,-0.10354121029376984,0.045318353921175,0.18264830112457275,-0.2881857752799988,0.18029135465621948,-0.3588751554489136,0.16081000864505768,0.18695762753486633,0.16406449675559998,-0.2061895728111267,0.06782647222280502,0.3398715853691101,-0.05833739787340164,-0.07394719123840332,-0.318973183631897,-0.29370760917663574,0.0924643725156784,0.3675445318222046,0.056380052119493484,0.11832531541585922,-0.03799205273389816,-0.03026404231786728,0.2478840947151184,-0.07426062226295471,-0.07987534999847412,0.004777110647410154,-0.12056376039981842,0.0195795688778162,-0.45994678139686584,-0.2850479781627655,-0.0005952612264081836,-0.1586376428604126,0.030828574672341347,0.22722382843494415,-0.2626838684082031,-0.35018017888069153,0.3741763234138489,0.1761450171470642,0.27878689765930176,-0.4070971608161926,-0.40116769075393677,-0.222054585814476,0.3645593523979187,-0.09867074340581894,-0.13940225541591644,0.3392350971698761,-0.4078817069530487,-0.12398078292608261,-0.0941053181886673,-0.3199019134044647,0.3087591826915741,-0.38851842284202576,0.3041754961013794,0.3257431089878082,0.045106519013643265,-0.09661461412906647,-0.06202428415417671,0.11750882863998413,-0.13366442918777466,-0.10339303314685822,-0.00734484801068902,0.04999479651451111,-0.20508472621440887,0.5199874043464661,0.1085393950343132,-0.360580712556839,0.20677734911441803,0.07272891700267792,-0.030050233006477356,0.15948672592639923,0.2991601526737213,-0.058582473546266556,0.2957751154899597,-0.19101978838443756,0.13613146543502808,0.03633975237607956,0.11038561165332794,0.10146068036556244,-0.2787270247936249,-0.3225756585597992,0.002733435947448015,0.43660062551498413,-0.09780501574277878,0.04588820040225983,-0.15319277346134186,0.04361255466938019,-0.045520465821027756,0.3451453745365143,0.3909359276294708,-0.020156601443886757,-0.23068825900554657,0.07079414278268814,-0.3467187285423279,0.3153861463069916,-0.0012066817143931985,-0.3614073097705841,0.1293049454689026,0.40356212854385376,-0.0037096610758453608,0.19460539519786835,0.14122149348258972,-0.258648157119751,0.039385922253131866,-0.13375559449195862,0.11778692901134491,0.37020039558410645,0.12229092419147491,-0.3128860592842102,0.03260531648993492,-0.16163432598114014,0.6871899366378784,0.11325684934854507,-0.08352325111627579,-0.04576025903224945,0.43167340755462646,-0.16878366470336914,-0.18095649778842926,0.012444891966879368,-0.0944676622748375,0.4546521306037903,-0.44202131032943726],[-0.08939268440008163,0.01751122809946537,0.07194388657808304,0.20539866387844086,-0.07305028289556503,-0.3423430025577545,0.1644187867641449,-0.2194707840681076,-0.09705661237239838,0.19849823415279388,-0.17180046439170837,-0.269742488861084,-0.07190355658531189,0.1667647510766983,-0.21665486693382263,-0.1677517145872116,0.06490514427423477,0.044837962836027145,-0.001852713292464614,0.004687951412051916,0.20126470923423767,0.0313931480050087,-0.32563769817352295,-0.04464677348732948,-0.00914908479899168,-0.06400919705629349,0.06839246302843094,0.271505206823349,0.11431485414505005,-0.033300261944532394,0.45903974771499634,0.18651431798934937,0.1322680413722992,-0.122121661901474,-0.2375752329826355,0.01569402404129505,0.21719880402088165,0.163582906126976,0.103617362678051,0.19252228736877441,-0.14838483929634094,0.3498593270778656,-0.11907666176557541,0.050599221140146255,0.09644288569688797,0.22326138615608215,0.042123276740312576,0.04847874119877815,-0.020765436813235283,-0.04496021568775177,-0.45601338148117065,-0.11238861829042435,0.05937973037362099,0.1498090922832489,-0.3663293719291687,-0.07486861944198608,0.0943930447101593,-0.022970523685216904,0.3457215428352356,-0.04205802455544472,0.12586112320423126,-0.07216256856918335,0.02715160697698593,-0.20701949298381805,-0.1856183260679245,0.12748359143733978,-0.20382936298847198,-0.015053918585181236,0.2669406533241272,-0.013528279960155487,-0.059292152523994446,0.027726856991648674,-0.2788965404033661,0.014726953580975533,0.20775829255580902,-0.13913963735103607,0.01793990284204483,-0.10890167206525803,0.20983828604221344,-0.03406630456447601,-0.0019192395266145468,0.33960241079330444,0.08746983110904694,-0.028325624763965607,0.11733388155698776,0.18069568276405334,-0.026754753664135933,-0.13535858690738678,-0.16910004615783691,0.04459363967180252,0.3249897360801697,-0.16272810101509094,0.17041341960430145,0.15651997923851013,0.11533507704734802,0.14037245512008667,-1.104490365833044e-8,0.2600780725479126,-0.1423705816268921,-0.05382601544260979,-0.17921212315559387,0.08059651404619217,0.18183633685112,0.022343529388308525,0.06812331825494766,0.014309984631836414,-0.0072929407469928265,0.23829318583011627,0.2276572436094284,-0.20889613032341003,0.0931469276547432,0.2059750109910965,-0.24176351726055145,0.01226304192095995,0.19169504940509796,-0.015842774882912636,-0.32686901092529297,0.0644514411687851,-0.07230502367019653,0.011909274384379387,0.23303942382335663,0.20763541758060455,0.0004896664759144187,0.17561213672161102,0.1314956396818161,0.11059734970331192,0.0559256374835968,-0.08195686340332031],[0.24067121744155884,0.19437983632087708,-0.1889425814151764,0.03390521556138992,-0.2664065361022949,-0.00817636027932167,-0.05859148129820824,-0.05174555629491806,-0.10275847464799881,-0.05050620809197426,-0.21618545055389404,-0.0608176551759243,-0.12724629044532776,0.03504099324345589,0.15148138999938965,0.06271305680274963,-0.18302516639232635,0.02606537938117981,-0.22630856931209564,0.13714198768138885,0.014704576693475246,0.07780908048152924,-0.3378787636756897,-0.08958921581506729,-0.06309862434864044,-0.14231108129024506,-0.1955367922782898,-0.10090632736682892,-0.2479373961687088,0.006245283875614405,0.06437509506940842,0.03208678215742111,-0.010371443815529346,-0.3368972837924957,0.16381359100341797,-0.11296892911195755,0.08506935834884644,0.10725303739309311,0.1933312565088272,0.12192346155643463,0.25157347321510315,0.031366512179374695,-0.02596244588494301,0.12012439966201782,0.17009735107421875,0.16571688652038574,-0.10521723330020905,0.0005866704159416258,0.09406246244907379,-0.04599801450967789,0.028891252353787422,0.007544392719864845,0.0457446314394474,-0.07635665684938431,-0.251306414604187,0.09887727349996567,-0.09502491354942322,-0.003790519433096051,-0.2337014228105545,0.03581519424915314,0.07799259573221207,0.47206801176071167,-0.387948215007782,-0.3341376781463623,-0.016741527244448662,-0.03321273997426033,-0.05150512978434563,0.2885662615299225,0.5802207589149475,0.011532130651175976,-0.19634512066841125,-0.19425316154956818,-0.2462199181318283,-0.023464815691113472,-0.04584362730383873,-0.16179820895195007,-0.06940324604511261,0.12375959008932114,0.024692265316843987,0.07070501893758774,0.014285041019320488,0.08959651738405228,0.15824873745441437,-0.18368138372898102,0.16961640119552612,-0.2602212727069855,0.042431142181158066,-0.04497454687952995,0.250874400138855,0.07148060947656631,0.013018395751714706,-0.17717526853084564,0.11873315274715424,-0.10974548012018204,0.062044158577919006,-0.0067832740023732185,0.15656736493110657,-0.12302359938621521,0.16761499643325806,0.2628660798072815,0.09351059794425964,-0.2584058344364166,0.11474333703517914,0.250905305147171,-0.32099050283432007,0.2804027497768402,-0.14271526038646698,-0.14734400808811188,-0.1880495697259903,-0.09854253381490707,0.36087939143180847,-0.19917957484722137,-0.08907458186149597,0.16582800447940826,-0.24844452738761902,0.27842602133750916,-0.13187527656555176,0.044958509504795074,0.04365011677145958,-0.1969641149044037,-0.020496830344200134,0.08235299587249756,-0.07512924075126648,-0.11924964189529419,-0.010708509013056755,-0.21599026024341583,-0.04225678741931915,0.03164137527346611],[-0.23230238258838654,0.0818001851439476,-0.12725797295570374,-0.20479266345500946,-0.1256217360496521,-0.3766973912715912,0.18623679876327515,0.01625077798962593,0.22082452476024628,0.009192196652293205,-0.40700894594192505,-0.12189318984746933,-0.48843738436698914,0.10939645767211914,0.2702460289001465,0.02991175279021263,-0.270168274641037,-0.12599176168441772,0.3802599310874939,-0.011424222961068153,-0.23898735642433167,-0.16664642095565796,-0.11942438036203384,0.22282882034778595,0.373396098613739,-0.14269894361495972,0.21682699024677277,0.11951222270727158,-0.009768673218786716,0.21341674029827118,-0.13611941039562225,-0.10509511083364487,0.016100279986858368,-0.09201439470052719,0.04788028821349144,-0.17690104246139526,-0.12125737220048904,-0.04528727009892464,-0.3947529196739197,-0.04792926087975502,0.3473122715950012,-0.25918832421302795,-0.04327068850398064,0.18206213414669037,-0.018462181091308594,0.3186647891998291,-0.3539884388446808,-0.10216306895017624,-0.02950710989534855,0.36918213963508606,-0.10069431364536285,-0.08214451372623444,0.12786917388439178,-0.3109176754951477,-0.13380897045135498,-0.22893014550209045,-0.1788872480392456,0.43769580125808716,-0.2987019121646881,0.1731639951467514,0.30223312973976135,0.20231296122074127,-0.02876301296055317,-0.152109757065773,0.1925458312034607,-0.23372234404087067,-0.05888072028756142,-0.013035960495471954,-0.028339698910713196,-0.43902069330215454,0.4727950394153595,-0.08339552581310272,-0.10287915915250778,0.17932622134685516,0.10807554423809052,0.03128470480442047,-0.0363091379404068,0.07819352298974991,0.01863965019583702,0.1301935911178589,-0.056078508496284485,0.15662972629070282,-0.37112006545066833,0.39399078488349915,0.008482315577566624,0.03948315232992172,-0.10510824620723724,-0.1544264256954193,0.253036230802536,-0.08026343584060669,0.001557379262521863,-0.08867079764604568,-0.14904433488845825,0.012019208632409573,0.33239346742630005,0.41240206360816956,0.09297788143157959,0.02938768081367016,0.14056667685508728,-0.5823070406913757,0.11067885905504227,0.30901557207107544,-0.591679036617279,0.3031086325645447,0.651800811290741,-0.006192528177052736,0.255964994430542,-0.13035067915916443,-0.1347905993461609,0.19954518973827362,-0.06913052499294281,0.2288828045129776,0.3930082321166992,-0.1813107132911682,-0.19918017089366913,0.156263068318367,-0.1631307154893875,0.6531974077224731,0.28259772062301636,0.2540779709815979,0.21319901943206787,0.44093039631843567,-0.19002726674079895,-0.30907565355300903,0.04910935088992119,-0.046414848417043686,0.4417552649974823,-0.4845649302005768],[-0.05774248018860817,-0.26652252674102783,-0.027389122173190117,0.09875316917896271,0.1984330713748932,-0.21080827713012695,0.08192846924066544,-0.39417552947998047,-0.099187470972538,0.08183151483535767,0.1269790381193161,-0.16307595372200012,-0.0044997637160122395,0.3592594861984253,-0.21222113072872162,-0.05171986296772957,0.11413577944040298,0.08835606276988983,0.014118798077106476,0.19257479906082153,-0.10707049816846848,-0.0447767972946167,0.11987443268299103,-0.005064000841230154,-0.07400348782539368,0.11548709869384766,0.28428199887275696,0.2506858706474304,-0.14149446785449982,0.08762478828430176,0.27876943349838257,-0.008535322733223438,0.08981721103191376,0.09375476092100143,-0.3165045976638794,0.13077989220619202,-0.16825902462005615,0.11405257880687714,0.017884548753499985,-0.0007480577332898974,-0.42171087861061096,0.23593595623970032,-0.3227790296077728,-0.04545881971716881,0.061861008405685425,0.1545751839876175,0.11195623874664307,0.1562793105840683,0.06443854421377182,0.25143152475357056,-0.4178284704685211,-0.16011972725391388,0.09924644231796265,0.10392811894416809,0.029062805697321892,0.00005920369585510343,-0.03860226646065712,0.1557670384645462,0.4145331084728241,0.09955833852291107,-0.0638187900185585,-0.2382695972919464,0.2229735106229782,-0.12296264618635178,-0.4116954505443573,0.12508916854858398,-0.46983614563941956,-0.2445983737707138,-0.07901234179735184,0.0048348126001656055,-0.02340717799961567,0.12109924852848053,0.031131314113736153,0.018896039575338364,-0.0893150269985199,0.010516218841075897,0.06661123037338257,-0.20507974922657013,0.3859604001045227,0.17576685547828674,-0.07832632213830948,0.26986217498779297,-0.02163860574364662,0.023698003962635994,0.10781001299619675,0.15874150395393372,0.00011207035277038813,-0.2921214997768402,0.0017130367923527956,-0.0078585809096694,-0.008986784145236015,0.027962883934378624,-0.0003434645477682352,0.35820698738098145,0.036569129675626755,-0.03192320838570595,0.028903743252158165,0.13119232654571533,-0.4866520166397095,-0.08294681459665298,-0.21104630827903748,0.1739576756954193,0.027953825891017914,0.1269795000553131,0.1563894897699356,-0.16456487774848938,0.003623512340709567,0.04939276725053787,0.47070348262786865,-0.04568066447973251,0.13541944324970245,0.22134602069854736,-0.07725758850574493,-0.45676979422569275,0.22535356879234314,-0.16160665452480316,-0.279134064912796,0.03126351162791252,-0.2473594844341278,0.1504431664943695,0.07458656281232834,0.043233003467321396,0.24561339616775513,0.026702286675572395,0.08055322617292404,0.04912174120545387,0.21879437565803528,-0.16203813254833221],[0.2745817303657532,0.27286288142204285,-0.06900656968355179,0.09146176278591156,-0.14155249297618866,-0.12519079446792603,0.02283344976603985,0.07274071872234344,0.038132764399051666,-0.07404104620218277,